{"type":"LSTM","options":{"inputSize":31,"inputRange":31,"hiddenLayers":[20,20],"outputSize":31,"decayRate":0.999,"smoothEps":1e-8,"regc":0.000001,"clipval":5,"maxPredictionLength":100,"dataFormatter":{"indexTable":{"2":22,"m":0,"y":1," ":2,"u":3,"n":4,"i":5,"t":6,"e":7,"s":8,"f":9,"a":10,"l":11,"d":12,"o":13,"w":14,"r":15,"h":16,"p":17,"g":18,",":19,"b":20,"v":21,"T":23,"B":24,"c":25,"-":26,"k":27,"stop-input":28,"start-output":29,"unrecognized":30},"characterTable":{"0":"m","1":"y","2":" ","3":"u","4":"n","5":"i","6":"t","7":"e","8":"s","9":"f","10":"a","11":"l","12":"d","13":"o","14":"w","15":"r","16":"h","17":"p","18":"g","19":",","20":"b","21":"v","22":"2","23":"T","24":"B","25":"c","26":"-","27":"k","28":null,"29":null,"30":null},"values":[{"input":"my unit test failed","output":"software"},{"input":"tried the program, but it was buggy","output":"software"},{"input":"i need a new power supply","output":"hardware"},{"input":"the drive has a 2TB capacity","output":"hardware"},{"input":"unit-tests","output":"software"},{"input":"program","output":"software"},{"input":"power supply","output":"hardware"},{"input":"drive","output":"hardware"},{"input":"it needs more memory","output":"hardware"},{"input":"code","output":"software"},{"input":"i found some bugs in the code","output":"software"},{"input":"i swapped the memory","output":"hardware"},{"input":"i tested the code","output":"software"},{"input":"i love computers","output":"hardware"},{"input":"programming","output":"software"},{"input":"i broke my pc","output":"hardware"},{"input":"computer","output":"hardware"},{"input":"buy me a laptop","output":"hardware"},{"input":"i love to play games","output":"software"}],"characters":["m","y"," ","u","n","i","t","e","s","f","a","l","d","o","w","r","h","p","g",",","b","v","2","T","B","c","-","k","stop-input","start-output","unrecognized"],"specialIndexes":[28,29,30]}},"trainOpts":{"iterations":2000,"errorThresh":0.005,"log":true,"logPeriod":10,"learningRate":0.01,"callbackPeriod":10,"timeout":"Infinity"},"input":{"rows":32,"columns":31,"weights":[1.8793232440948486,0.9590398669242859,1.3804594278335571,-0.11724749207496643,0.13663074374198914,-0.8052099943161011,-0.13076774775981903,1.2961859703063965,0.8347195982933044,0.7612190842628479,-0.7649457454681396,1.3496973514556885,-1.3653855323791504,-0.07367352396249771,1.9106013774871826,-2.2805774211883545,-1.1736863851547241,1.2844895124435425,-1.8379462957382202,1.8679698705673218,1.770184874534607,-0.06406883150339127,-0.09424181282520294,-1.1348378658294678,-0.3886610269546509,-1.3141230344772339,0.16745004057884216,1.3052748441696167,-0.3957292437553406,1.1096891164779663,1.7527955770492554,0.3243217468261719,2.2291054725646973,0.027744710445404053,0.8865590691566467,-2.5855865478515625,2.1570048332214355,-0.26189300417900085,-4.529320240020752,-1.7941701412200928,-0.4587783217430115,1.906579852104187,-1.6879955530166626,1.6696579456329346,-0.05505234748125076,-3.3653042316436768,3.705847978591919,3.0956480503082275,0.6735530495643616,4.96600341796875,-1.0181039571762085,-0.8450382947921753,-0.5610818266868591,0.060441941022872925,3.3616437911987305,-1.266089677810669,2.6219305992126465,4.447059154510498,-0.4341529309749603,1.0659408569335938,0.9542521834373474,-5.251623630523682,-1.162768006324768,1.2378512620925903,1.751510500907898,-1.7298915386199951,-0.5536491870880127,-0.5962097644805908,0.7969844937324524,-0.7059231996536255,-4.490940570831299,-2.240988254547119,0.14633578062057495,-2.9049932956695557,-0.5026407241821289,2.928642749786377,-0.6002686023712158,1.9955722093582153,1.7037465572357178,-3.163032054901123,-1.5492048263549805,-6.944238185882568,-0.9153265953063965,0.6829650402069092,0.8472605347633362,-1.2717375755310059,0.5828454494476318,4.6700758934021,-1.8753310441970825,-5.2835869789123535,-0.4001779854297638,0.9206736087799072,-1.5729602575302124,0.022455567494034767,-1.2664122581481934,-0.041062697768211365,-0.6173359155654907,1.2607088088989258,0.5020215511322021,1.8286004066467285,-4.4804792404174805,-1.628568172454834,-4.062011241912842,1.1180546283721924,-3.7476816177368164,0.5390990972518921,1.380125880241394,0.7991558313369751,-2.8335888385772705,-0.4713002145290375,-2.823113203048706,-2.5806922912597656,-6.19456672668457,-4.8595757484436035,1.1726034879684448,1.219962239265442,-0.16921450197696686,0.6370062828063965,-1.9761091470718384,1.0500203371047974,-4.016589164733887,0.36449962854385376,0.21834896504878998,-1.280253291130066,-0.6086469292640686,0.2320261150598526,7.612608432769775,-0.674444854259491,-1.7083871364593506,-0.5844746828079224,1.4384276866912842,-1.7128559350967407,-2.6201794147491455,-2.6324782371520996,-1.7312551736831665,0.17585629224777222,0.41403135657310486,2.72684907913208,1.1888136863708496,1.1718673706054688,-4.2452497482299805,0.8639863133430481,-1.514573097229004,-2.0870041847229004,2.826282262802124,-2.167072057723999,-4.307407379150391,-0.6523793935775757,-0.7065748572349548,-0.29482465982437134,1.5561473369598389,-1.871553897857666,-1.857243299484253,3.921109676361084,-1.459307074546814,7.424123764038086,-1.1466599702835083,0.09162683039903641,-0.5357668995857239,0.7903798818588257,2.8345682621002197,3.41066312789917,4.196248531341553,-2.260284185409546,2.0227773189544678,-2.64227294921875,4.7250657081604,-2.3450727462768555,-3.713681221008301,6.665382385253906,0.7590276002883911,2.6283349990844727,5.365738391876221,1.3703944683074951,4.283455848693848,7.731303691864014,2.586559534072876,0.12226039916276932,-1.8900905847549438,1.9539672136306763,-1.687814712524414,1.3326740264892578,3.627902030944824,-2.6629629135131836,-2.5968525409698486,3.552281618118286,2.627883195877075,3.44661808013916,-0.7952777743339539,0.41027867794036865,-2.512263774871826,3.0390918254852295,0.9433795213699341,-0.49418580532073975,-0.32444295287132263,-0.7866308689117432,-0.5770540237426758,-0.30284205079078674,-1.1722692251205444,-1.7608351707458496,1.8355672359466553,1.9784337282180786,-0.985096275806427,-0.057084113359451294,2.3676304817199707,0.5193237662315369,0.8474591970443726,1.2937923669815063,-0.2844659984111786,2.703385591506958,-1.0251758098602295,1.6931992769241333,1.3576534986495972,0.3733871281147003,-0.45749589800834656,-1.2040513753890991,-1.7348097562789917,0.7767996191978455,0.5384188294410706,1.010257601737976,1.0663245916366577,-0.7830758690834045,1.1360855102539062,2.1925244331359863,-0.6347918510437012,-0.2732248306274414,-0.1506408005952835,-0.7409915328025818,-0.5725901126861572,0.19860133528709412,-0.0347018763422966,0.4735960364341736,-0.13318860530853271,-0.011123165488243103,0.05754906311631203,1.7640129327774048,-0.8580163717269897,0.8237594962120056,0.4618043303489685,0.7500995397567749,-0.382337749004364,1.2713675498962402,1.0411559343338013,-1.6638882160186768,-1.433316707611084,-0.8417171835899353,-0.3324251174926758,-1.1478651762008667,-1.2100329399108887,0.47986868023872375,2.2504630088806152,-1.4801084995269775,-1.1280583143234253,-0.3359251320362091,-0.33249056339263916,-0.005154293030500412,-0.693345308303833,-1.3492830991744995,0.11936615407466888,-1.7550678253173828,-0.10535791516304016,1.5245946645736694,0.01615842618048191,0.4883045256137848,-0.05894649401307106,-0.7695690393447876,-0.21984268724918365,-1.6444146633148193,0.225956529378891,0.4514872431755066,-0.6986245512962341,-1.4363393783569336,1.258703589439392,2.0053422451019287,-2.2012643814086914,-2.232557773590088,-0.1946692317724228,0.315997838973999,-0.06065834313631058,0.601959764957428,0.28210291266441345,0.47558629512786865,2.356714963912964,-0.14598938822746277,0.5492447018623352,0.13523530960083008,1.457942247390747,-1.2291245460510254,0.8772931694984436,-0.8205572366714478,0.18065600097179413,-0.6153457760810852,-1.0490939617156982,-1.3565086126327515,-0.29346925020217896,-0.1477854698896408,-0.8289189338684082,-0.12606073915958405,-0.32552194595336914,0.41479751467704773,0.9067379236221313,1.4239665269851685,-1.3288828134536743,2.1342036724090576,-0.27698150277137756,-4.173817157745361,0.006142612546682358,-1.1702922582626343,-0.7447019815444946,-0.19776980578899384,-1.5631591081619263,-3.2719712257385254,0.5192312002182007,-1.2805838584899902,1.0138647556304932,-1.2006722688674927,-2.6581811904907227,-0.7203994393348694,3.153320074081421,-3.2568953037261963,3.9208645820617676,-3.9179208278656006,0.2702152132987976,3.3130877017974854,1.1455150842666626,-0.41024550795555115,1.3740402460098267,-5.09782075881958,-1.4500144720077515,-1.9209754467010498,-1.1239458322525024,-1.3468995094299316,3.686763286590576,2.4737913608551025,-4.10372257232666,-1.2436778545379639,-0.6591630578041077,-1.4996485710144043,1.9171966314315796,-2.955900192260742,0.4779967665672302,-0.8394661545753479,-0.3154127895832062,-0.035231366753578186,-0.22269080579280853,-0.16009502112865448,-0.31834834814071655,-2.065758466720581,-0.24817109107971191,-0.6814022064208984,0.4973413348197937,0.1083875373005867,1.2131965160369873,1.125291109085083,-0.27865809202194214,-0.8894861936569214,0.6183518767356873,0.7251095771789551,-0.6430342793464661,-0.12700529396533966,0.06638815253973007,-0.029803862795233727,-0.3456485867500305,0.5948683023452759,-1.196582317352295,1.4363503456115723,0.6038878560066223,-0.040866684168577194,0.2753698229789734,0.2455773949623108,1.7756999731063843,-0.19355568289756775,0.8761255145072937,2.700190305709839,1.4421180486679077,2.1897356510162354,-2.175910234451294,0.3129892647266388,-3.6947591304779053,-0.5909202694892883,-2.2381951808929443,0.27973854541778564,3.6493828296661377,-0.6015490889549255,0.618549108505249,0.7413755655288696,-3.1742780208587646,3.350759267807007,2.7031657695770264,-1.4942517280578613,5.506361484527588,-1.4167438745498657,1.085756778717041,-2.464810609817505,-0.343448281288147,5.609768390655518,-4.9197564125061035,-0.16547149419784546,1.8673949241638184,0.7221517562866211,2.2752254009246826,-3.5408740043640137,-2.2985711097717285,-2.9927427768707275,-2.638167142868042,0.18925122916698456,1.5960335731506348,-0.09448233246803284,-1.2860374450683594,-0.13498234748840332,0.8620805144309998,-3.168215751647949,0.7742429971694946,0.1824803501367569,1.4812554121017456,1.950676679611206,-2.1424753665924072,0.8961923718452454,-2.159865140914917,-1.8962684869766235,-0.023887231945991516,-4.870985984802246,-1.680915117263794,-1.3391972780227661,-0.16478164494037628,-0.22138580679893494,-2.256056070327759,4.347957611083984,-1.3448268175125122,-2.213181972503662,-1.4000917673110962,-0.22965504229068756,1.0716936588287354,-0.07201012969017029,1.1352897882461548,1.140070915222168,0.04163472726941109,1.9130388498306274,-0.9192332029342651,0.2728070914745331,0.04993252828717232,1.4472637176513672,0.15524409711360931,0.5448914766311646,-0.031212473288178444,1.4807887077331543,-0.8446959257125854,-2.768261671066284,1.726510763168335,0.3089125156402588,1.0325971841812134,0.2592018246650696,0.8299853205680847,4.785583019256592,2.6141929626464844,-0.47162672877311707,0.02140061743557453,-0.5799974799156189,-0.5307389497756958,0.17329582571983337,1.1814557313919067,3.3955748081207275,-1.157394289970398,-1.1699358224868774,0.24937887489795685,0.01627577841281891,0.044057346880435944,-1.622731328010559,-1.714627742767334,-0.7687604427337646,0.40125179290771484,-1.9785466194152832,-3.214897871017456,0.11887550354003906,-1.8710325956344604,0.2150280922651291,-0.14223133027553558,0.9227949380874634,0.47865530848503113,0.054899245500564575,0.11864449083805084,0.17283163964748383,0.13367310166358948,0.7996895909309387,-0.1974913775920868,-1.3292850255966187,0.7981674671173096,-0.89180588722229,-0.5487733483314514,0.8738406300544739,3.3942103385925293,1.3962849378585815,-1.4369832277297974,1.1292423009872437,-0.2696729004383087,-1.7586193084716797,-0.10820232331752777,0.10793780535459518,0.8198287487030029,-0.48647549748420715,0.935225784778595,-1.911576747894287,-2.6107373237609863,-0.0699673667550087,1.552184820175171,0.40820783376693726,-0.21078971028327942,-0.3620663583278656,-1.9786217212677002,1.0422762632369995,-0.6448721885681152,-1.10513174533844,-0.48435255885124207,0.951420783996582,-0.08369538187980652,0.5911852121353149,0.022841989994049072,-1.461590051651001,-0.36056408286094666,1.0746262073516846,-0.9541662335395813,-0.5742265582084656,0.043928444385528564,-0.11454486846923828,3.3535356521606445,-0.19786523282527924,0.07566570490598679,-2.0928854942321777,1.8646763563156128,-1.3627742528915405,-5.633374214172363,-1.1156072616577148,-0.12700867652893066,-1.7361325025558472,-0.9110814929008484,1.835749864578247,-0.16570965945720673,1.5638082027435303,1.6623929738998413,1.1832104921340942,1.8682992458343506,1.3181694746017456,1.3304468393325806,1.293762445449829,0.48002561926841736,-2.406646251678467,0.05718244984745979,-0.3219851553440094,1.0536798238754272,-1.1976724863052368,-1.436545729637146,0.20345386862754822,5.308210372924805,3.91817045211792,-1.3068052530288696,0.9908802509307861,0.9932491183280945,-0.5054423213005066,-1.4960007667541504,1.1403082609176636,-5.32015323638916,2.8353006839752197,-1.4286611080169678,1.0146400928497314,1.6702052354812622,-0.29086416959762573,1.6997747421264648,2.677612066268921,-0.5393222570419312,2.5859484672546387,-0.6345001459121704,-4.6581130027771,-2.254227638244629,-3.2359023094177246,0.4136766195297241,2.3126533031463623,0.7124078273773193,0.47260209918022156,0.6110976934432983,4.544876575469971,-1.8569644689559937,3.503659725189209,-3.749758243560791,0.8260194659233093,3.6540324687957764,0.4060344994068146,1.8594988584518433,2.890711784362793,-0.2867451012134552,-0.45986589789390564,3.8176939487457275,0.0662144348025322,0.46237698197364807,1.6665042638778687,3.7182772159576416,0.6384753584861755,0.12162003666162491,0.9040589332580566,3.405076503753662,-0.8321590423583984,0.1303994059562683,-0.6792170405387878,0.34697988629341125,0.6932511925697327,2.2327661514282227,2.319596529006958,0.8742333650588989,6.6599860191345215,1.0789638757705688,-0.8983981013298035,3.8593409061431885,5.060971736907959,-0.2961716949939728,2.111626148223877,1.4707162380218506,-4.617867946624756,2.7061822414398193,-2.614365577697754,-1.9965108633041382,0.8402296304702759,0.26953741908073425,-2.117725372314453,8.658890724182129,11.74967098236084,-6.987020969390869,7.3014607429504395,3.652925729751587,2.006632089614868,-8.500568389892578,6.88064432144165,-3.84651780128479,4.784897327423096,-6.398372650146484,-11.324507713317871,1.821071743965149,1.0880147218704224,-9.623505592346191,2.558802604675293,-12.475007057189941,0.6773560643196106,-1.4954266548156738,-1.8886505365371704,-1.6186131238937378,-5.737069129943848,-0.2886424660682678,-12.004117012023926,-5.256031513214111,0.6152365207672119,1.5134332180023193,1.625321626663208,3.0085856914520264,-2.14790678024292,3.2887160778045654,-0.3125142455101013,-2.8921868801116943,-3.1687912940979004,-1.2657921314239502,-0.79315584897995,-5.904207229614258,-3.1654605865478516,-5.678739070892334,-3.1513166427612305,-4.000254154205322,6.65444278717041,3.580338716506958,-1.7890695333480835,0.9429852366447449,2.912367343902588,-0.9596786499023438,2.195880174636841,-5.420492649078369,-6.21340274810791,-0.07107192277908325,0.09703246504068375,-1.3033417463302612,-2.2159135341644287,6.421864032745361,1.5006731748580933,-6.089787006378174,5.918566703796387,1.9951566457748413,-6.381241798400879,-4.099174976348877,0.9646348357200623,-0.025395646691322327,-4.563026428222656,0.36044061183929443,-6.162132740020752,-5.137596607208252,-0.17593519389629364,7.386706829071045,2.208148956298828,1.9867899417877197,-1.5427600145339966,1.3562215566635132,2.8626434803009033,-4.885165214538574,-2.9745523929595947,4.75881814956665,2.5222315788269043,0.6324194669723511,0.4288102090358734,0.6958051323890686,-0.8858429193496704,2.062445878982544,-0.02145119197666645,-3.9432485103607178,4.942291736602783,-0.4230353534221649,-4.7581377029418945,5.71204948425293,-4.918768405914307,-1.794030785560608,-4.489344120025635,13.005648612976074,3.3430445194244385,-10.243013381958008,-7.5544915199279785,1.333098292350769,-3.9145686626434326,0.7179082632064819,-8.897578239440918,-2.5869219303131104,0.3380392789840698,-7.233129024505615,8.341249465942383,5.288408279418945,-2.6298840045928955,15.202856063842773,6.8108296394348145,-5.505513668060303,6.294129371643066,-6.8460164070129395,-8.930270195007324,-0.4486747682094574,-2.8607590198516846,2.3030834197998047,-1.6605501174926758,8.769246101379395,-9.961942672729492,-14.735209465026855,-4.210785865783691,1.6734380722045898,-4.606736660003662,-1.8540846109390259,2.676496982574463,-7.983051300048828,-5.627182483673096,-3.52003812789917,4.4946608543396,-4.901578903198242,-9.147405624389648,-3.5364413261413574,-7.271244049072266,6.551458358764648,-6.707332134246826,1.978687047958374,5.3939361572265625,4.544370651245117,9.652138710021973,7.685268402099609,-6.128427982330322,2.1847853660583496,-1.9173426628112793,-11.660600662231445,4.4055962562561035,8.803674697875977,2.687544345855713,-0.9241821765899658,0.8981849551200867,6.402801990509033,-1.8615055084228516,-2.6176364421844482,18.868040084838867,-4.555887222290039,-3.038036346435547,-19.654394149780273,-3.2960522174835205,-11.775476455688477,9.45178508758545,3.424320697784424,-11.849084854125977,0.6561237573623657,2.0759904384613037,-1.9124135971069336,3.4722373485565186,-6.243582248687744,3.28236722946167,-1.4457831382751465,-5.2412824630737305,-2.245306968688965,-3.101583242416382,-5.885574817657471,2.663273334503174,-5.176738739013672,-6.985592365264893,1.9646754264831543,0.2292742133140564,-2.454033613204956,0.6967886090278625,-5.362668514251709,-7.36777400970459,-1.136676549911499,3.8660614490509033,-7.157015323638916,3.4561057090759277,-0.3923775255680084,2.242156505584717,-0.24368253350257874,7.323861122131348,-5.3923444747924805,1.0913878679275513,-0.7882569432258606,-1.0131542682647705,-2.986482620239258,-0.1013743132352829,-2.4927282333374023,4.487013816833496,3.5444390773773193,-6.339334964752197,0.06594286113977432,-1.7415062189102173,4.162413597106934,-1.292517066001892,-2.4012303352355957,1.2851163148880005,0.6819287538528442,2.867244005203247,2.781480073928833,-1.7559139728546143,2.0883262157440186,5.877029895782471,-3.852829694747925,0.46972015500068665,-1.5163356065750122,1.9459482431411743,-3.243267297744751,8.518681526184082,1.9128297567367554,-13.905982971191406,3.418513298034668,-6.698297023773193,16.11083984375,4.5300822257995605,-8.478734016418457,11.223721504211426,1.8694578409194946,1.558966875076294,1.5676801204681396,2.7217342853546143,4.0925798416137695,1.8946285247802734,6.854248523712158,11.79603099822998,5.487839221954346,6.674590587615967,4.833205223083496,-2.890568971633911,11.13376235961914,4.000635147094727,5.717957973480225,6.141005039215088,-3.8361942768096924,6.004070281982422,5.525822639465332,-7.246073246002197,-0.01357373595237732,-5.027837753295898,14.983968734741211,-1.3854700326919556,-0.12450207024812698,9.395251274108887,-8.282788276672363,-1.0879703760147095,-2.657850503921509,-1.4679973125457764,5.6146955490112305,5.438392162322998,-7.831026077270508,9.93252182006836,-4.189114570617676,-11.877143859863281,-0.5370800495147705,1.0662111043930054,10.1380615234375,6.923969268798828,4.572853088378906,4.488160133361816,0.44108977913856506,-4.756813049316406,0.17452341318130493,10.201310157775879,-12.540177345275879,-2.885495662689209,2.882115364074707,9.466094017028809,3.2339212894439697,-5.482124328613281,-2.9253933429718018,-1.1284898519515991,4.07009744644165,-0.3206201493740082,-1.2157397270202637,-1.9063916206359863,-0.14756819605827332,-0.985120952129364,-4.055875301361084,-2.716881513595581,-3.047689437866211,1.3991321325302124,-2.0943243503570557,-0.5480900406837463,2.0457887649536133,-1.1884957551956177,2.5607986450195312,1.6543300151824951,-1.4041858911514282,0.1012665182352066,-2.332632303237915,-1.2313053607940674,-1.448882818222046,3.583285331726074,1.892400860786438,-1.3877454996109009,3.656754970550537,1.3171648979187012,-3.2950756549835205,1.981189489364624,1.8092061281204224,-2.806633949279785,-1.155792474746704,1.4306895732879639,1.142185926437378,0.0012850853381678462,0.08946449309587479,0.07994623482227325,-0.6697380542755127,-0.4965607225894928,-1.3543652296066284,0.004192046821117401,0.5484157204627991,0.15838418900966644,-0.18618789315223694,0.2897297143936157,1.4518755674362183,2.25006103515625,-0.6948002576828003,-0.5501397848129272,0.3722710907459259,0.005394852254539728,0.11297374963760376,-1.6804081201553345,-0.34099119901657104,-1.9232922792434692,2.8023438453674316,1.2440017461776733,-0.960668683052063,-0.033640291541814804,0.06940391659736633,2.867694616317749,0.12056021392345428,0.029990125447511673,0.039484139531850815,0.04525947943329811,0.0028804943431168795,-0.024905305355787277,0.06620606034994125,0.03101375885307789,0.0626215785741806,-0.021773314103484154,-0.04919034242630005,-0.06033169850707054,-0.02822919562458992,0.01560250110924244,-0.03882981091737747,-0.03963124752044678,0.020690398290753365,0.06383740901947021,0.009118176996707916,0.0516507625579834,0.029264695942401886,-0.06636645644903183,-0.014695925638079643,0.046547237783670425,-0.04829767346382141,-0.030137762427330017,0.02783498540520668,-0.0038500777445733547,0.0029672442469745874,-0.007513426709920168,-0.06846891343593597,0.06284409761428833]},"hiddenLayers":[{"inputMatrix":{"rows":20,"columns":31,"weights":[0.5210558772087097,0.8997907042503357,-0.9226487874984741,0.05208964645862579,1.2213889360427856,0.10884750634431839,0.5810292363166809,-0.14295616745948792,2.244185447692871,1.836086630821228,0.6903839111328125,0.8986906409263611,-1.823068380355835,0.1801389753818512,0.917272686958313,-1.794066309928894,2.0307629108428955,0.470814973115921,0.3584234416484833,2.0646753311157227,0.9781312346458435,-0.09391041845083237,0.3038375973701477,0.9268951416015625,-2.6195075511932373,-0.13637563586235046,1.7415759563446045,0.32896888256073,0.4090404212474823,-3.4925544261932373,-0.04009711369872093,0.3211023211479187,0.3663155138492584,-2.8780035972595215,0.5263969302177429,-2.329338788986206,2.0768887996673584,1.2084640264511108,0.2787655293941498,0.4293847978115082,1.3463144302368164,0.5480414032936096,0.6231505870819092,-0.44109073281288147,-1.5521972179412842,0.8971434235572815,-0.394306480884552,3.49397611618042,0.7191040515899658,0.9695744514465332,0.21020472049713135,1.1092503070831299,1.6607187986373901,-0.7001723051071167,-1.0484944581985474,0.6720758080482483,0.9638100266456604,1.3611758947372437,-0.010063921101391315,-0.566450834274292,-3.446993350982666,-0.7101696729660034,1.4031648635864258,-0.20949870347976685,-0.7596510052680969,2.403383493423462,-0.5759668350219727,1.5818084478378296,2.292781114578247,1.2912812232971191,-0.06749030947685242,2.3920540809631348,-3.3343729972839355,1.1103646755218506,-0.4153514802455902,-3.253535270690918,-0.7940667867660522,-0.8227832317352295,0.15964139997959137,2.2497851848602295,-0.08812298625707626,1.4096925258636475,1.1161983013153076,0.6364609003067017,0.0014113629003986716,-0.1006787046790123,1.1591154336929321,1.9063215255737305,-0.5024491548538208,0.6889075636863708,-1.6551682949066162,-0.013884508982300758,-0.4055451452732086,1.29054856300354,0.5367105603218079,-0.44087550044059753,0.916999340057373,-2.891632080078125,0.39415857195854187,1.8197766542434692,0.8628255724906921,-2.191870927810669,-0.6905878782272339,-3.4761223793029785,0.12766145169734955,-1.0029839277267456,-5.053112030029297,0.6953034996986389,-1.5742415189743042,-1.0922883749008179,-0.26846978068351746,-1.0776573419570923,0.13501861691474915,2.87548565864563,-0.9277263283729553,-1.6082470417022705,0.09439990669488907,0.752045214176178,0.26014822721481323,-2.035804033279419,-0.40070709586143494,0.23628847301006317,-0.724845826625824,-1.1105365753173828,0.25446265935897827,-2.3626677989959717,-1.7155035734176636,0.6092128157615662,1.08306884765625,1.7499637603759766,1.1415082216262817,0.15146403014659882,-0.5141873359680176,0.559958279132843,-0.6327400803565979,1.159715175628662,0.04304269328713417,-1.9181326627731323,0.9465722441673279,0.2910197377204895,-0.4696672260761261,-0.04540609195828438,0.006691331509500742,0.4709319770336151,0.25384214520454407,0.38806959986686707,0.9585933089256287,-2.3256874084472656,2.35646653175354,-0.9737381339073181,-0.8190373778343201,1.3045017719268799,-2.1020476818084717,0.6576903462409973,1.0776891708374023,-0.7773325443267822,-2.1138064861297607,0.7909204959869385,-1.4805392026901245,0.7482702732086182,-0.08422712236642838,-0.009300045669078827,-0.2351275384426117,-3.512155532836914,-0.6042702794075012,-1.2876253128051758,-2.546044111251831,0.6289243698120117,0.7320042848587036,-0.9918428063392639,-0.5908204913139343,-2.2913529872894287,-2.085873603820801,-0.07524903118610382,-1.5125313997268677,-1.4753739833831787,-1.749050259590149,-1.3388959169387817,-0.8562202453613281,0.6289559602737427,-0.381476491689682,-2.0821895599365234,-2.0924813747406006,0.1752895563840866,-1.7373700141906738,0.5298085808753967,-0.12867575883865356,-1.689992070198059,-1.8596627712249756,-1.3453794717788696,1.0572479963302612,-0.08326447755098343,-1.7309558391571045,-0.11126843839883804,1.6356525421142578,0.21173278987407684,-1.1451020240783691,1.5602185726165771,-0.04928408935666084,-0.8870761394500732,0.36440199613571167,-0.7164499759674072,-0.49310123920440674,0.8017932176589966,-0.966693103313446,1.7554278373718262,-0.03825484961271286,0.2662063539028168,-0.6918349862098694,0.21284471452236176,-0.059710580855607986,-0.3275643289089203,2.1974129676818848,0.9910794496536255,1.4856131076812744,0.02446819469332695,0.19410337507724762,0.6688048243522644,-1.9198771715164185,-0.30150657892227173,1.6994538307189941,2.493726968765259,0.12302324175834656,-0.7095806002616882,4.543080806732178,1.6281139850616455,0.9087702035903931,-0.917003333568573,1.945194959640503,-0.6700909733772278,-2.051720380783081,0.32997095584869385,-1.9745656251907349,-1.0284849405288696,0.511296808719635,-0.9961956739425659,1.2611827850341797,-0.8362159132957458,0.41555169224739075,1.1076030731201172,-0.7409992814064026,-0.41222110390663147,-1.878612756729126,-0.012522525154054165,1.716444969177246,-0.6560548543930054,-1.3831052780151367,3.2285778522491455,-0.1624475121498108,-1.0546035766601562,-1.5225199460983276,-1.2473387718200684,2.3094160556793213,-0.9534942507743835,-0.5070518851280212,-0.4243948459625244,0.5392763614654541,-0.8869114518165588,0.3861899673938751,-1.160691738128662,-1.0157827138900757,-0.30828359723091125,-2.9203622341156006,-1.3494540452957153,0.20338290929794312,-0.3266231119632721,0.07055236399173737,-0.7968490719795227,-1.5275319814682007,-0.2719615697860718,0.16649700701236725,1.7737672328948975,-1.7540004253387451,-0.41863739490509033,0.12679694592952728,-0.4453173875808716,1.5237358808517456,-2.796860694885254,0.6407376527786255,-1.0096566677093506,1.3792623281478882,-0.03983983024954796,-0.39995887875556946,0.16076500713825226,1.990005612373352,0.4002428948879242,-0.9397472143173218,-2.155164957046509,-0.898999035358429,0.10153605043888092,-0.4146222174167633,2.7678987979888916,1.8606140613555908,0.08222179114818573,1.1211975812911987,2.1177406311035156,-1.6107521057128906,-0.6880261898040771,-1.2764160633087158,-0.8358864188194275,1.4807922840118408,0.7909097671508789,-2.457613706588745,2.4912960529327393,0.6278312802314758,-0.670896053314209,-0.5533137917518616,-1.5325406789779663,2.8392679691314697,-0.5275964736938477,-0.7670882344245911,-2.0069403648376465,-0.8825207352638245,0.3407430946826935,-0.20554716885089874,0.9023192524909973,-0.5604111552238464,-0.03181537240743637,-0.3665180802345276,-0.7609696984291077,0.8291282653808594,-1.9548372030258179,0.8515989780426025,0.13288046419620514,-0.6311778426170349,-1.3561155796051025,0.8236404657363892,-0.6336319446563721,0.6052373647689819,-1.0058073997497559,-2.665677547454834,0.4952430725097656,1.3473050594329834,1.1126923561096191,-0.20548447966575623,0.2041790783405304,-1.1081756353378296,-1.4661930799484253,0.23418878018856049,-0.7471192479133606,0.1740385740995407,-0.9357286691665649,-0.06317576766014099,-1.9227486848831177,0.087568499147892,0.04592578485608101,-0.17325730621814728,-1.59316885471344,-1.2983453273773193,-1.1835904121398926,-2.2593464851379395,-0.7473836541175842,-0.2603897452354431,0.5007365345954895,0.1291332244873047,-0.5376990437507629,-2.0456154346466064,-0.014874833635985851,0.6447363495826721,-2.772367238998413,-0.9294259548187256,0.06694824248552322,0.7376860976219177,-0.8139466047286987,2.810817241668701,-1.5813860893249512,-0.3986909091472626,0.7132343053817749,-1.7142322063446045,0.5127516388893127,0.49738582968711853,-0.5751000642776489,-1.9442194700241089,-1.6525205373764038,-0.34260302782058716,-0.5730923414230347,0.30195754766464233,0.595937967300415,-1.3741214275360107,-0.777732253074646,-0.9352503418922424,-1.6764543056488037,1.99898362159729,-0.5649384260177612,1.7853872776031494,0.6028240919113159,-0.7386248707771301,2.157089948654175,0.8724353313446045,-1.1044368743896484,0.12304040044546127,-1.4386019706726074,-3.3500094413757324,-0.8855661749839783,1.534643530845642,-0.09172483533620834,0.6820892095565796,-0.2204008400440216,0.5194980502128601,-0.5550249814987183,0.3456207811832428,1.1680898666381836,-0.445650190114975,-1.0392439365386963,-1.6101018190383911,0.43498942255973816,-0.4342395067214966,-0.7420380115509033,1.2988930940628052,-2.231792688369751,-1.769193172454834,0.06692787259817123,-0.1946171075105667,1.6842595338821411,-1.0461645126342773,1.0614449977874756,2.547687292098999,-0.8448348045349121,-1.1334874629974365,2.061084270477295,0.6780924797058105,0.853905200958252,-0.4347330629825592,-2.697861909866333,-0.19891567528247833,0.8825697898864746,-0.09021733701229095,1.4592676162719727,0.3939206004142761,-1.0587702989578247,-1.9718222618103027,1.2774341106414795,-0.09063903987407684,-1.016333818435669,-1.0375101566314697,0.9032665491104126,0.8647038340568542,-2.056648015975952,0.32445183396339417,-0.7296392321586609,-4.082846164703369,-0.30326205492019653,0.016172943636775017,0.977671205997467,2.078700304031372,-1.0360221862792969,0.196506530046463,1.5974130630493164,-2.3912160396575928,-0.21793675422668457,1.5404444932937622,-0.9777153730392456,0.11907792091369629,-0.28457963466644287,-1.9379676580429077,-1.3373966217041016,2.574166774749756,0.4537849724292755,-0.07989995181560516,1.3036190271377563,-2.196647882461548,-1.5459582805633545,1.2887099981307983,-0.7239781022071838,-0.014508886262774467,1.7178723812103271,2.914297342300415,0.5348892211914062,-1.353690266609192,-2.832472324371338,0.505231499671936,0.9746614098548889,-0.81026291847229,-1.660747766494751,-0.7591021060943604,-1.7080358266830444,-0.9528452157974243,-0.18437591195106506,0.5472165942192078,0.2107197791337967,3.331965208053589,0.7624407410621643,0.1693871021270752,0.7489945888519287,-0.1619797945022583,0.019455060362815857,-0.05570925399661064,-0.2036748081445694,-1.6294201612472534,1.968100666999817,2.774428367614746,0.3488233983516693,-0.18110975623130798,-1.4203823804855347,0.13432152569293976,-1.0437920093536377,-0.7025885581970215,0.4839572012424469,-2.223163366317749,0.4204889237880707,0.8130040168762207,2.7554337978363037,0.49852386116981506,1.3222191333770752,0.7807067632675171,1.0112262964248657,-0.03378346562385559,0.7831215262413025,-0.5288610458374023,-1.3472636938095093,-0.5781905055046082,1.145366907119751,1.626315712928772,1.0545798540115356,0.25901415944099426,0.7527808547019958,0.5348135828971863,0.47826194763183594,-1.4462605714797974,1.1679877042770386,-0.46041205525398254,0.6127825975418091,2.3410632610321045,0.9868181943893433,-0.14067356288433075,-0.8172509670257568,0.19090303778648376,-0.2656387686729431,0.824493944644928,-0.5930221080780029,-0.18637092411518097,1.5339187383651733,-0.37362924218177795,-1.3937828540802002,0.1443478763103485,0.38748899102211,1.0237131118774414,0.39723387360572815,-0.23681972920894623,-2.1972603797912598,-0.48916319012641907,-0.618852436542511,-0.2762133479118347,0.7252131104469299,0.06547083705663681,0.05859304964542389,0.712979257106781,-0.24730099737644196,-0.8426656126976013,1.638044834136963,1.5624094009399414,-0.10705309361219406,0.14213444292545319,-1.0365421772003174,0.41165921092033386,0.8615483045578003,-0.7837584018707275,0.7130342721939087,0.6969460844993591,2.672006130218506,-0.10329391062259674,-0.020656894892454147,0.018105097115039825,-0.3528974652290344,-0.4193560481071472,-1.3409903049468994,-0.4928814470767975,-1.0586060285568237,2.35730242729187,-2.3452250957489014,-2.072587490081787,2.085179328918457,-0.4755420684814453,2.6213512420654297,1.619232416152954,0.13538672029972076,0.7872346043586731,-1.9727729558944702,-0.9369581341743469,-0.9858140349388123,1.619562029838562,0.6432150602340698,-1.310127854347229,1.3465498685836792,0.8707742691040039,-0.8534177541732788,0.08501832187175751,-0.9250255227088928,1.3705060482025146,2.1351606845855713,-1.1436724662780762,-0.5657293200492859,0.39406460523605347,1.1205382347106934,0.8687787652015686,-0.7077295780181885,1.67971670627594,1.9700133800506592,0.6920623183250427,-1.3133041858673096,0.48320651054382324,-2.486207962036133,-1.1154265403747559,1.1228750944137573,1.49064302444458,-1.4941092729568481,0.8604671955108643,-0.10740328580141068,2.8625524044036865,0.07514273375272751,0.20669212937355042,-2.300518035888672,1.5151736736297607,-0.5538964867591858,-1.271288275718689,1.7529215812683105,2.8927724361419678,0.5462741851806641,-1.3960835933685303,1.3631707429885864]},"inputHidden":{"rows":20,"columns":20,"weights":[2.345909357070923,0.40883827209472656,0.14483094215393066,-2.490846633911133,-1.5819201469421387,1.2149462699890137,-0.9663093090057373,1.8838715553283691,0.3004102408885956,-0.43458467721939087,0.02951132319867611,-0.7346636652946472,-0.8907424211502075,-0.8342226147651672,1.6503386497497559,-0.6584071516990662,0.793846070766449,0.3300860524177551,0.41056299209594727,0.45152831077575684,2.0295615196228027,-1.9867289066314697,0.619472086429596,0.16746363043785095,-0.2754497230052948,-0.3783363699913025,-0.08009620010852814,0.7509948015213013,-1.7134075164794922,0.07995069026947021,0.16074533760547638,1.7017760276794434,1.5891541242599487,-1.0806597471237183,1.1476022005081177,2.031419038772583,-0.9293042421340942,1.768248200416565,-0.3412170708179474,-2.268476963043213,2.6516470909118652,0.4209584593772888,-0.8493225574493408,0.21398602426052094,-1.2462393045425415,-0.8845773339271545,-1.2137839794158936,-0.6400675177574158,-0.0616232305765152,-1.1589018106460571,-0.21239089965820312,6.073955535888672,2.470773220062256,-0.26844659447669983,3.3574931621551514,1.076265811920166,-0.417023628950119,-0.6266319155693054,2.544863700866699,-1.1414169073104858,0.23546074330806732,0.10069958120584488,0.6728483438491821,-0.12431097775697708,-0.34949058294296265,0.8389177322387695,-1.515047311782837,1.9053939580917358,-0.6390233039855957,-1.8730504512786865,-2.1016502380371094,-1.1062774658203125,1.0486102104187012,-1.36890709400177,-0.40756285190582275,-0.8291887640953064,-0.2015809863805771,-1.6294922828674316,0.9136723279953003,-0.2015649974346161,1.909218668937683,-0.7495350241661072,-0.6856417655944824,2.0177783966064453,-0.5761862993240356,1.6314144134521484,-2.0604681968688965,-1.8542428016662598,-1.4658308029174805,-0.2269902527332306,0.7263422608375549,4.2666144371032715,3.7210729122161865,0.4888421297073364,0.18888169527053833,0.02034023217856884,-1.8070194721221924,2.7217679023742676,0.0992477536201477,-0.8793724775314331,1.3461130857467651,0.15655779838562012,-2.348874807357788,-1.5539183616638184,2.2546184062957764,1.8123732805252075,2.663815975189209,0.6476718783378601,1.6439659595489502,0.5280802249908447,-0.7512143850326538,-0.8743124604225159,-2.372114419937134,0.19713854789733887,0.34751540422439575,-4.504093647003174,0.8925753235816956,-2.6392412185668945,-2.90643048286438,1.5746028423309326,-3.2626821994781494,5.883019924163818,0.13146381080150604,-3.6813652515411377,1.2272175550460815,-0.3036938011646271,0.6981766819953918,3.0046544075012207,0.08767401427030563,1.2388585805892944,-0.6944661736488342,1.6651610136032104,-0.11175844073295593,0.4441338777542114,-2.3988335132598877,2.937439203262329,3.517455816268921,1.6862831115722656,-0.4039399027824402,1.7872438430786133,0.4510042667388916,-1.155598521232605,1.09629487991333,-0.42926478385925293,1.437001347541809,0.14254416525363922,0.0060514528304338455,-1.5301969051361084,-0.04903334379196167,0.48202142119407654,1.466751217842102,-0.11508919298648834,-1.8851855993270874,-0.9638526439666748,1.5205018520355225,-2.224989175796509,1.167802333831787,-1.989120364189148,-1.542328119277954,0.12564757466316223,0.007250071968883276,-1.9055784940719604,-0.6128180027008057,0.17651860415935516,-1.3299654722213745,0.41379404067993164,-1.3265807628631592,-0.10976816713809967,1.8198245763778687,1.2571886777877808,0.8623906373977661,-0.033116307109594345,-0.6645116209983826,-0.03788037970662117,1.8050377368927002,1.1174100637435913,-0.4574553668498993,2.2494258880615234,0.7202689051628113,1.3538832664489746,1.5201611518859863,0.2637259066104889,-0.05098610371351242,-0.9525797963142395,1.0535904169082642,0.06400354206562042,0.6779210567474365,0.21811486780643463,0.2286454141139984,0.47851383686065674,0.8556669354438782,-0.5938963890075684,0.7425591349601746,-0.29929348826408386,-0.7001000642776489,0.7771481871604919,0.3037653863430023,0.5357768535614014,0.3015303611755371,-1.177639365196228,1.7560052871704102,-1.7954753637313843,2.6275432109832764,4.988667964935303,-1.0895824432373047,2.9508779048919678,-3.262336015701294,-3.1536881923675537,-1.789643406867981,-2.1116273403167725,-2.9535434246063232,2.6866915225982666,2.0961005687713623,-2.6461992263793945,1.587618112564087,-1.234431505203247,-2.1972787380218506,1.7416102886199951,-0.19662030041217804,-1.9812259674072266,2.549896240234375,-3.6386711597442627,3.2604963779449463,1.274054765701294,-0.5048985481262207,-1.5696133375167847,1.0835492610931396,-1.9297899007797241,0.23812134563922882,0.8304413557052612,-0.05113355442881584,0.1309700310230255,-0.6446577310562134,0.6657479405403137,-1.1302720308303833,0.7278996706008911,2.5248658657073975,0.3873094916343689,0.4439190924167633,0.6497024297714233,-2.489673376083374,4.941009044647217,-0.7169160842895508,-0.0846208706498146,-0.31572970747947693,0.18663755059242249,1.7229913473129272,0.7142466306686401,1.5465437173843384,0.21717482805252075,1.616331934928894,-0.08377518504858017,1.3871965408325195,1.0677151679992676,1.0385768413543701,0.61048823595047,1.3839163780212402,-0.3478149175643921,0.6022751927375793,2.2093276977539062,-1.0768558979034424,0.24479050934314728,0.9182524085044861,-0.07826028764247894,2.686352014541626,-1.3098279237747192,-0.23613622784614563,-1.183529257774353,0.5163785815238953,0.6384348273277283,2.431204080581665,1.136053204536438,-1.411813735961914,2.1846399307250977,-1.3746434450149536,-0.3467611074447632,-1.0132904052734375,0.833337664604187,-0.9718114733695984,-2.2031800746917725,0.23569722473621368,-0.9960382580757141,3.047205686569214,1.7690606117248535,-0.2329055368900299,-1.5070384740829468,-1.908440113067627,-2.689363479614258,-1.7380701303482056,-0.9449400305747986,1.2487659454345703,1.0661488771438599,2.021934747695923,1.0899863243103027,0.1484111249446869,2.3406424522399902,-2.6046924591064453,2.051492929458618,-1.3927817344665527,-2.5640034675598145,4.015772819519043,-2.3936526775360107,-1.6599808931350708,1.3740513324737549,2.613528251647949,0.49144676327705383,-1.8539849519729614,-0.3036171495914459,-2.786630630493164,-3.142390251159668,-3.6041183471679688,-0.334428071975708,0.20817065238952637,-1.9368236064910889,1.916860580444336,-1.273928165435791,-0.7691288590431213,1.984185814857483,2.087674856185913,-3.5787646770477295,1.4124119281768799,-0.06914518773555756,0.7757865190505981,-0.33208033442497253,-0.4462890625,-0.24949896335601807,0.6000049710273743,-1.273447871208191,0.34798920154571533,0.29063984751701355,-0.7100142240524292,0.3047814667224884,-0.15250618755817413,-1.1503907442092896,1.8288607597351074,1.6084052324295044,-0.8393782377243042,0.9541306495666504,-0.5353404879570007,-1.1947698593139648,3.713928699493408,-1.9645261764526367,1.8253660202026367,1.8798091411590576,0.16632474958896637,3.9397943019866943,-2.535691022872925,-3.510972499847412,0.2529870569705963,-0.6810464859008789,-0.41129979491233826,1.154949426651001,-0.6373372077941895,-2.233560085296631,5.0336995124816895,-2.433058500289917,-5.711840629577637,4.056488037109375,-2.3073222637176514,1.1616251468658447,3.538548231124878,5.194811820983887,-2.037402629852295,-0.20128782093524933,2.6215624809265137,3.6316657066345215,2.4514307975769043,1.3963474035263062,2.8116414546966553,3.917820453643799,1.409676432609558,1.9311455488204956,-1.3109174966812134,0.29053348302841187,-0.8568633198738098,2.3590855598449707,0.6580175757408142,-0.8589624762535095,-0.8404704928398132,4.109748363494873,0.7233728766441345,0.5963754653930664,-2.9010860919952393,0.17841458320617676,-1.594773530960083,0.6196078062057495,-1.153197169303894,0.6659852266311646,-2.7049970626831055,-2.131047010421753,-0.8629623651504517,-1.315481424331665,2.3571300506591797,-0.2717961072921753,2.648637056350708,0.5529318451881409,0.9476360082626343,0.712458074092865,1.6965885162353516,0.1182471439242363]},"inputBias":{"rows":20,"columns":1,"weights":[2.616452217102051,-1.48019540309906,2.0393457412719727,-0.030129408463835716,0.05988772213459015,-0.676600992679596,-0.10998670011758804,-0.47034087777137756,-0.7434052228927612,-0.849298894405365,-1.2728813886642456,-0.5237529873847961,-1.7744611501693726,-0.3886919319629669,0.4418542981147766,0.08002641797065735,-2.989359140396118,-0.47768890857696533,-0.5528154373168945,-0.2821267247200012]},"forgetMatrix":{"rows":20,"columns":31,"weights":[-1.2456910610198975,0.989776611328125,0.9201749563217163,-1.3652070760726929,-0.3795675039291382,-1.4007059335708618,-0.3094831705093384,-0.3887626826763153,0.019173143431544304,0.12250348180532455,2.0829336643218994,-2.8032586574554443,0.7336577773094177,2.0515832901000977,-1.042718768119812,-0.8360034823417664,0.8204624056816101,1.5538334846496582,1.1128445863723755,0.20591267943382263,-0.1920902132987976,-0.3222903311252594,1.5237300395965576,0.5005837082862854,-0.30237603187561035,2.5366573333740234,-1.3465561866760254,-2.0662972927093506,1.3446033000946045,-3.5699172019958496,-0.4500497877597809,1.9715116024017334,1.3263359069824219,-0.11615746468305588,4.041139125823975,-0.4836317300796509,0.17839781939983368,1.3745945692062378,0.42871901392936707,-0.4625087380409241,0.405307412147522,-0.6137821674346924,1.6042314767837524,-1.9589322805404663,-2.8637630939483643,0.5233485698699951,-2.0643868446350098,-1.1961275339126587,0.35365691781044006,-2.008312940597534,1.0646843910217285,2.2501890659332275,0.6912638545036316,-1.314779281616211,-0.03749261796474457,-0.6304758191108704,0.3643474876880646,-0.2894265949726105,1.1094629764556885,-0.7754360437393188,1.184937596321106,0.3813638985157013,-0.4181798994541168,-0.2637007236480713,1.0712966918945312,0.21223735809326172,-0.41172581911087036,-2.9654905796051025,-1.72065269947052,0.5959177613258362,2.0711169242858887,2.7338173389434814,0.004665437154471874,1.81999933719635,0.9333858489990234,-0.7073653340339661,-0.36526036262512207,-0.4734790325164795,-0.8998997807502747,1.941005825996399,-0.6729615926742554,2.476440191268921,1.1055939197540283,-2.5390923023223877,-1.317599892616272,0.16800718009471893,-1.2401881217956543,-0.5151412487030029,1.4826878309249878,1.9324405193328857,2.318103551864624,-1.0198488235473633,1.3343901634216309,-0.9799110293388367,-0.590055525302887,-0.0160960853099823,0.6321215629577637,0.10138534754514694,-1.7137949466705322,-0.410091370344162,1.3156696557998657,-2.315962553024292,-1.9332119226455688,-0.6203168034553528,-1.123473048210144,0.862102210521698,-0.8404368162155151,-1.8012218475341797,-0.2092636078596115,0.7899017930030823,-2.8044629096984863,-1.25528085231781,-1.3043769598007202,-2.6950457096099854,-1.089730978012085,1.1525545120239258,0.46152615547180176,-0.6949734091758728,-0.3710671067237854,-0.7140339016914368,-0.6281450390815735,1.4159481525421143,-0.3698689043521881,-0.6934186816215515,-1.2156561613082886,1.399442195892334,2.887849807739258,-0.5177273750305176,-0.11119086295366287,-2.652088165283203,-2.243117094039917,-0.145197793841362,-0.05073375254869461,1.434139609336853,1.8354740142822266,-0.22153529524803162,0.6155861020088196,1.6321942806243896,-1.9023131132125854,2.8374531269073486,1.0016493797302246,0.40359964966773987,1.2090767621994019,2.1560492515563965,-0.9477965831756592,-2.6246135234832764,-0.3549622893333435,0.7899610996246338,-0.22575600445270538,1.6694389581680298,-0.24299150705337524,0.2054545134305954,2.281735420227051,-0.6269412040710449,-0.5026474595069885,0.40096384286880493,1.6177948713302612,0.4143221974372864,0.1219010204076767,-0.6402262449264526,-1.0130701065063477,-0.4788799285888672,-2.0670690536499023,0.19989070296287537,-0.9266331195831299,-0.8037144541740417,-1.227128028869629,-0.22437502443790436,0.2872273921966553,-1.977952003479004,-0.0258489903062582,-2.6503853797912598,-0.11531487852334976,-0.562904953956604,-0.7341592907905579,0.06053178012371063,0.06412801891565323,-0.8567705750465393,3.20237398147583,-2.611177444458008,0.16976016759872437,-0.23997946083545685,-1.2308279275894165,3.023374319076538,-0.11080897599458694,-1.0357502698898315,-1.7133312225341797,-1.8431551456451416,2.448068380355835,-0.39626994729042053,2.9899399280548096,-1.2342290878295898,-0.8282532095909119,1.6532561779022217,1.4751267433166504,1.3786754608154297,0.7398461103439331,-0.014875520020723343,0.3918793797492981,1.973381757736206,-1.2789332866668701,0.11463245004415512,-1.4605579376220703,0.13734640181064606,-0.519914448261261,0.44298428297042847,-0.32425951957702637,-0.4073008894920349,2.7109007835388184,-0.318776398897171,1.5575587749481201,-0.1727856546640396,-2.5363032817840576,0.1876489371061325,-0.16537420451641083,-0.9242556095123291,1.3846184015274048,2.1747453212738037,1.640437126159668,-1.2245124578475952,2.163358688354492,0.8264442682266235,1.3466041088104248,0.4550289809703827,-1.3577947616577148,-1.9732235670089722,2.261744499206543,-0.9328262209892273,1.092341661453247,-1.1940338611602783,-2.061767339706421,-1.9613699913024902,-0.6372940540313721,1.3893145322799683,1.4971649646759033,0.26766592264175415,1.2447278499603271,0.29892829060554504,0.622657299041748,-0.0028823947068303823,-0.5534800887107849,0.25658541917800903,0.8608163595199585,1.1113290786743164,0.9466065168380737,0.8311877846717834,-1.6031163930892944,-1.1899069547653198,1.6056468486785889,0.9999171495437622,-1.6684819459915161,1.5484464168548584,-0.047294143587350845,2.583639621734619,2.794940233230591,0.04503900930285454,-0.7222309112548828,-0.13355906307697296,-0.2046426683664322,-0.23934516310691833,-1.4728248119354248,-0.91897052526474,3.377490997314453,-0.49600115418434143,-0.6000992655754089,-1.5305920839309692,-0.7378386855125427,-0.48278504610061646,-0.17347405850887299,1.0404729843139648,2.76843523979187,-2.611703872680664,1.8252841234207153,-1.727453589439392,-1.7226033210754395,0.8062842488288879,-2.1525018215179443,-0.005258167162537575,0.7805635929107666,-0.768238365650177,-3.1225426197052,-0.03366795927286148,0.12885183095932007,0.14544817805290222,-1.2703741788864136,0.1199590191245079,1.6277529001235962,-1.3174906969070435,-1.062958002090454,-0.2891598641872406,-0.26882585883140564,-0.4017571210861206,-0.6286197900772095,3.2778468132019043,2.5584607124328613,-1.5965956449508667,-3.93644380569458,-3.7748799324035645,-0.6641473770141602,-1.672386884689331,-0.0026242879685014486,2.6115100383758545,-2.5987319946289062,1.5285778045654297,-2.292280435562134,-1.2099735736846924,1.5588500499725342,-0.36032167077064514,2.9309496879577637,1.4962494373321533,0.44023397564888,-0.25323957204818726,-0.008932888507843018,1.5388481616973877,0.13216915726661682,-2.759401559829712,1.540203332901001,-1.0216858386993408,-0.8212758302688599,-0.29835525155067444,0.38334545493125916,0.7336615324020386,-0.7387375831604004,-0.5655034184455872,2.896038293838501,-2.468994379043579,-1.4390977621078491,-2.1995251178741455,-3.228604316711426,0.17193768918514252,0.24555933475494385,-1.4845553636550903,0.32590702176094055,0.42992740869522095,-0.6946889162063599,-2.6512978076934814,0.04402676224708557,0.28428342938423157,1.6632871627807617,1.3547929525375366,0.4384233057498932,-0.1313270479440689,-0.9320984482765198,0.9720891118049622,1.7789140939712524,0.1671057790517807,-1.1187363862991333,0.2264786660671234,1.4161113500595093,-0.6131594181060791,1.5403436422348022,-1.33808434009552,0.8337940573692322,1.8779374361038208,-1.7425481081008911,-0.3377961218357086,-3.6776440143585205,-2.254570484161377,0.8362824320793152,-3.118159770965576,0.16425728797912598,1.5891870260238647,-1.0115214586257935,-0.7619403600692749,0.4572560787200928,-1.6408438682556152,-1.2538059949874878,-1.5857484340667725,-0.8763052821159363,-0.4427211880683899,0.3580459952354431,0.6829133629798889,-0.9019518494606018,-0.9350848197937012,3.0998623371124268,-0.4323238432407379,-1.4647296667099,-1.4852172136306763,-1.113714337348938,-0.8486122488975525,-0.8958942890167236,-0.8248185515403748,-0.030840130522847176,-0.3101697564125061,-0.7250576615333557,0.33472195267677307,-0.2327343076467514,-0.1385507732629776,0.35723915696144104,-1.3246641159057617,-1.9312245845794678,-1.5661420822143555,-2.0919504165649414,-1.5604454278945923,0.716796338558197,0.5397652387619019,-0.0722949430346489,0.6488743424415588,-1.7071541547775269,-1.823313593864441,1.4162771701812744,-1.8811482191085815,-2.2609469890594482,-2.661410331726074,-0.7445282340049744,-0.4599584937095642,-1.0087823867797852,-0.008648044429719448,-1.0198338031768799,-1.137453317642212,-0.6297963261604309,0.8082641363143921,0.46756666898727417,0.8135726451873779,1.0816324949264526,4.425906658172607,1.1858981847763062,2.7701847553253174,-0.919671893119812,1.5407941341400146,-2.945030927658081,-1.359614372253418,0.40271997451782227,-1.8901249170303345,0.46165159344673157,3.2585971355438232,-3.586562156677246,1.724951148033142,-0.680138885974884,-0.7087708711624146,1.2469056844711304,0.16847749054431915,-0.6263555884361267,0.3652394115924835,-1.1028695106506348,-1.2737153768539429,2.2521181106567383,-2.7434794902801514,-0.6755518913269043,-2.3190746307373047,-1.159978985786438,-0.806198000907898,-1.211006760597229,-0.5622199177742004,-0.3512199819087982,-1.6346702575683594,0.3403724133968353,1.4086148738861084,-2.185363531112671,1.140079140663147,0.8187888264656067,0.2228807508945465,-0.3602136969566345,-1.800925612449646,-1.7070010900497437,-0.8684698343276978,-0.5288082361221313,0.9357728958129883,-0.3422989845275879,0.05426904931664467,1.4452296495437622,-1.2149444818496704,1.9686636924743652,0.07870549708604813,-1.4314662218093872,1.5407943725585938,1.3989081382751465,-0.715228259563446,2.0663187503814697,0.179278165102005,0.16662736237049103,-0.05819012597203255,0.5491089820861816,0.5960873365402222,1.9643077850341797,-1.5471699237823486,0.8066200017929077,-1.5266282558441162,-1.4139150381088257,-0.21093082427978516,-0.8823019862174988,-0.5101416110992432,1.4110227823257446,-0.6827176809310913,2.4819953441619873,1.5543369054794312,0.34487470984458923,-0.9437353610992432,-0.7456799745559692,-1.655160665512085,0.351614773273468,0.3528602719306946,1.6979819536209106,1.2701563835144043,0.42979419231414795,1.197408676147461,-0.6386898159980774,-1.4849636554718018,0.29376545548439026,2.1040539741516113,-1.612821340560913,-0.004718721378594637,-1.8065248727798462,0.5585647821426392,-0.98284512758255,1.6822223663330078,1.1968145370483398,0.2619020342826843,-0.17061710357666016,-1.66246497631073,-1.1332755088806152,-0.9952236413955688,-0.5106905102729797,0.1885794848203659,0.5442778468132019,-0.3258344233036041,-0.48942509293556213,-1.5509123802185059,-0.4206501841545105,0.777545154094696,-2.047365427017212,0.8141523599624634,-0.12301517277956009,-0.3258727490901947,3.2099902629852295,-0.6796157956123352,0.37507039308547974,0.22161848843097687,-4.8730034828186035,0.5029457807540894,1.8480974435806274,-0.2786795496940613,1.3539409637451172,2.440544843673706,1.2131012678146362,-0.1283094882965088,0.45554545521736145,-0.9073465466499329,0.9007606506347656,0.9781771898269653,-1.1980395317077637,2.849578857421875,-2.9935593605041504,-1.5410586595535278,1.0946054458618164,-2.878416061401367,-0.33106231689453125,-0.7992539405822754,1.3251677751541138,-0.2215202897787094,-1.1231449842453003,1.136413335800171,-2.3622868061065674,0.6623397469520569,0.43553829193115234,-1.8680694103240967,0.7898528575897217,2.021897554397583,-2.0142781734466553,0.3870495557785034,0.05003485456109047,-0.9652230739593506,-0.17680606245994568,-2.0171010494232178,0.5222506523132324,-1.782826542854309,-1.896463394165039,-1.8913613557815552,0.9332343339920044,-0.7546206116676331,1.6885660886764526,1.1781224012374878,2.880667209625244,0.6093389987945557,0.501804769039154,-0.7064360976219177,-1.683767318725586,-0.4475478529930115,-1.5218610763549805,-1.5914026498794556,1.0797654390335083,-0.1583874672651291,0.7294555902481079,-1.189645767211914,1.2840328216552734,-0.3271099925041199,1.3952932357788086,1.6435953378677368,-1.2321364879608154,-0.14868389070034027,1.5217318534851074,-1.33833646774292,-1.5298980474472046,-0.9156454205513,1.916021704673767,1.5202323198318481,-1.278968334197998,-0.9839394688606262,-0.08373937755823135,-0.25095030665397644,-1.5905009508132935,0.07520741969347,-0.014166763052344322,0.08472540229558945,0.6324900984764099,1.8316770792007446,-2.007632255554199,0.5397944450378418,-0.8429542779922485,-2.3718209266662598,2.242283582687378,0.9793282151222229,-2.8358099460601807,2.6496872901916504,2.0724234580993652,-0.9766573309898376,-0.5779569149017334,0.0903138518333435,0.6915349960327148,-0.6879853010177612]},"forgetHidden":{"rows":20,"columns":20,"weights":[0.6150864958763123,-0.2563715875148773,-2.2436091899871826,-1.3728957176208496,0.4891088008880615,1.1173750162124634,-2.4641640186309814,1.1860852241516113,0.06236662715673447,0.4407995939254761,0.32332533597946167,0.1223272979259491,-0.4393352270126343,-0.7050657868385315,3.091478109359741,0.888456404209137,0.32605013251304626,2.461514711380005,-0.7765513062477112,4.075486660003662,-0.6582458019256592,-0.05952681601047516,-0.47814348340034485,-0.22628913819789886,-0.3550161123275757,3.454237461090088,-1.4561371803283691,0.6312233805656433,-0.9871982336044312,0.8404214382171631,-0.8600596189498901,-0.032665956765413284,-0.16378715634346008,-0.6932390332221985,0.5167741775512695,-0.30360329151153564,-1.6318726539611816,0.2468225061893463,1.0752958059310913,1.0685118436813354,-0.25220710039138794,0.2868291437625885,-0.591964602470398,-1.9095799922943115,1.4429429769515991,-0.012594165280461311,0.5216209292411804,0.9588530659675598,-1.2932190895080566,-0.46119073033332825,-0.15654729306697845,0.17564450204372406,-0.9710754752159119,-0.46063485741615295,-1.9094797372817993,1.17964506149292,-0.7701723575592041,-0.6054407358169556,0.08275996893644333,0.715450644493103,-2.1446714401245117,1.4084831476211548,1.610623836517334,-1.7058994770050049,-0.7806227803230286,2.763793706893921,5.4606709480285645,-0.2654302418231964,0.7632020711898804,-1.0639499425888062,-1.7603687047958374,-0.49714598059654236,0.5845909118652344,-1.2293107509613037,0.4582923650741577,0.8968749642372131,-0.8332773447036743,0.6912149786949158,0.8881884217262268,2.6068296432495117,-1.9473397731781006,2.2365500926971436,-0.8317282199859619,0.0390099473297596,1.5603718757629395,-3.2516188621520996,-2.0684988498687744,-0.5716474056243896,-0.34672436118125916,1.193027377128601,-0.18120968341827393,1.5956487655639648,0.23832173645496368,-0.5810466408729553,-2.8140318393707275,3.2651290893554688,-1.7605949640274048,-0.36380600929260254,-0.3005478084087372,2.034123659133911,-0.2231234610080719,-0.7009005546569824,0.9836719632148743,0.4086509346961975,0.3907012343406677,-0.45545047521591187,-0.1349831521511078,-0.8703479170799255,0.1725255697965622,-0.7878568768501282,0.2829025983810425,-0.3652302026748657,-0.4610874652862549,0.1327533721923828,-0.5241047739982605,1.3446521759033203,-0.09505359828472137,-0.8404552340507507,-0.05988505110144615,0.1576218456029892,-0.8258094787597656,-1.3711930513381958,3.851686477661133,1.6392754316329956,1.940927267074585,-0.8072723746299744,-0.8382194638252258,-1.6241415739059448,-0.0021693401504307985,-0.970822274684906,-0.27626746892929077,1.1582084894180298,0.9876495003700256,0.06046896055340767,0.7455917596817017,2.275784492492676,-0.33405330777168274,1.6324167251586914,0.4614918529987335,-1.6950054168701172,-0.4983241558074951,0.0700920969247818,0.04207146167755127,-2.8670477867126465,1.8324165344238281,0.587398111820221,2.36787748336792,1.9288334846496582,0.6634252667427063,0.34981024265289307,0.5789796113967896,-1.6054813861846924,-0.1858818084001541,0.7834858298301697,-0.9921132922172546,0.09737278521060944,1.3125419616699219,0.08000855892896652,0.8006882667541504,2.322756290435791,-4.539749622344971,0.31195011734962463,0.5596979260444641,2.3217902183532715,-2.101101875305176,-1.921208381652832,1.4800740480422974,-1.2024043798446655,-0.19552035629749298,-1.9140866994857788,1.3384387493133545,-4.306495666503906,1.4422497749328613,2.541877269744873,0.2063010334968567,-0.5841192007064819,0.143563374876976,-2.470928192138672,0.0018025488825514913,0.4048873484134674,-0.05106864497065544,1.867299199104309,-0.9456377625465393,-1.7747429609298706,-1.18110191822052,1.103265404701233,-2.519286870956421,-0.4264051020145416,0.6671862602233887,1.2940635681152344,0.9417675733566284,-1.524259090423584,-0.06824103742837906,-2.287346839904785,-0.5700047612190247,-0.8592368960380554,-2.0359787940979004,0.621426522731781,-0.11119697242975235,2.0538125038146973,-2.547544002532959,3.1377358436584473,-1.2611334323883057,-0.37289848923683167,1.2649359703063965,-2.403290271759033,2.247302532196045,0.8297218084335327,-1.7916678190231323,0.03809396177530289,-0.9018316864967346,-4.659763813018799,-0.8195668458938599,-0.5079253315925598,-3.5712344646453857,0.3815551698207855,1.6309130191802979,0.4915226101875305,-2.6201212406158447,2.0205352306365967,-1.6109137535095215,0.1183433011174202,-0.7132787108421326,0.9261004328727722,2.0947866439819336,-1.65410578250885,-0.003009343985468149,-1.2635258436203003,-0.8022124767303467,0.9997066855430603,0.9065954089164734,0.5133043527603149,0.1326349973678589,-0.09602248668670654,0.12050297856330872,0.22092367708683014,-3.0943305492401123,0.741646409034729,0.5543829202651978,-0.7174776792526245,-1.675046682357788,-0.44376683235168457,0.849321186542511,1.0510982275009155,1.10696542263031,-3.5763983726501465,3.6951444149017334,-0.27490824460983276,-1.5527820587158203,1.9569562673568726,0.6489894390106201,-1.2467221021652222,-1.5404179096221924,3.578809976577759,-2.0678343772888184,0.7664710283279419,0.7538676857948303,-2.5822336673736572,0.011858480982482433,1.5100983381271362,1.4513673782348633,-1.8718832731246948,2.5263381004333496,2.106684684753418,-2.7093636989593506,-0.3432373106479645,-0.5157971382141113,-2.4631781578063965,1.0739442110061646,-1.422824740409851,0.45960554480552673,0.7225751876831055,-1.0190505981445312,1.1801666021347046,1.178053617477417,0.8754971623420715,-2.26185941696167,2.8025662899017334,2.4488298892974854,-0.47438299655914307,0.8588768243789673,1.4799480438232422,0.2655802369117737,0.22647269070148468,-0.07511831820011139,-0.8468075394630432,-1.5758702754974365,-1.7342329025268555,-0.1583442986011505,-1.286241888999939,-1.017481803894043,-0.13548490405082703,2.155284881591797,0.2987942099571228,0.18636439740657806,0.07027557492256165,-0.018746640533208847,-0.7715421319007874,-0.13732297718524933,0.7910012602806091,1.0250786542892456,0.7556626200675964,-1.69148588180542,-1.7018433809280396,1.289817452430725,-0.1402510404586792,1.917377233505249,1.312912940979004,-0.4072055220603943,0.560446560382843,-0.5551294088363647,-0.5115616917610168,-1.3429548740386963,0.18174347281455994,1.0481154918670654,-3.802433967590332,-0.0573885478079319,-1.0782157182693481,1.1113770008087158,1.7827565670013428,2.9722182750701904,4.61274528503418,1.6621860265731812,-1.0203173160552979,-0.1253211498260498,-1.9623483419418335,1.6255815029144287,-0.15984396636486053,2.2314133644104004,5.41546630859375,3.6120104789733887,-2.608313798904419,0.15499092638492584,1.0005879402160645,-4.268675804138184,-3.0055418014526367,0.9365825057029724,-1.0107553005218506,-2.856245756149292,1.5751183032989502,-1.27834153175354,0.4141005873680115,-2.3541290760040283,-1.5356444120407104,0.14393319189548492,-1.0585846900939941,1.6435091495513916,-0.022735891863703728,-0.33449476957321167,-0.7052730917930603,-0.3117639124393463,0.3750321567058563,-1.8797662258148193,0.7326691150665283,-2.0696074962615967,-0.41046321392059326,2.5275979042053223,-1.837890386581421,-0.06427275389432907,-0.4985065758228302,1.1968443393707275,2.9468140602111816,0.40361282229423523,-0.12548473477363586,-0.8357583284378052,-4.0544867515563965,-1.3378245830535889,0.28653818368911743,-2.2944958209991455,-1.278363823890686,-1.1030066013336182,-3.3057827949523926,2.992006540298462,-2.2964155673980713,-1.7961140871047974,0.08106845617294312,0.8021684288978577,-2.499497175216675,-3.2619032859802246,1.0458439588546753,-1.7867449522018433,-0.9048485159873962,-0.0020838193595409393,1.4201897382736206,-0.9388391375541687,2.2962822914123535,-2.784822463989258,-0.8845955729484558,-1.1431617736816406,-0.5143005847930908,-0.7099066972732544,-1.7328678369522095,0.9641152024269104,-3.356262445449829,2.084017276763916,1.1323107481002808,-0.7629640698432922,-0.8182868361473083,1.921201467514038,-1.3913307189941406]},"forgetBias":{"rows":20,"columns":1,"weights":[0,0,0,0,0,0,0,0,0,0,0,0,0,0,0,0,0,0,0,0]},"outputMatrix":{"rows":20,"columns":31,"weights":[1.4807109832763672,-1.7599295377731323,1.6427695751190186,1.0159348249435425,1.82465660572052,-2.5982072353363037,-2.2380919456481934,1.8896758556365967,1.042078971862793,0.8899351358413696,0.780689537525177,0.916756272315979,-0.44707202911376953,-1.7784970998764038,-0.08308202773332596,-1.0723376274108887,0.4406261444091797,0.5584490299224854,-0.31397369503974915,1.1750227212905884,0.4042614996433258,-1.9702790975570679,0.13442526757717133,0.08191871643066406,-1.085572600364685,-2.173643112182617,0.2420111894607544,1.737912893295288,0.2613823413848877,-3.516796827316284,2.71032452583313,0.9458506107330322,0.8655845522880554,-0.32416218519210815,-1.7207869291305542,-0.29919666051864624,-0.3559376299381256,-3.6520743370056152,1.068082571029663,-0.15940599143505096,-0.14247584342956543,-0.17310906946659088,1.0473450422286987,-0.02059122361242771,-0.7503781318664551,1.1255732774734497,-0.04286078363656998,1.3588885068893433,2.5897319316864014,1.3828102350234985,1.1407614946365356,0.7197988629341125,-0.847842276096344,-0.3663942813873291,1.3069766759872437,-3.2139127254486084,0.1677337884902954,4.68606424331665,1.1909054517745972,1.81032395362854,-0.2262696623802185,0.9826077818870544,2.3799936771392822,-0.5853917002677917,-0.3661908805370331,-0.20068611204624176,0.37140342593193054,1.23783540725708,2.179110527038574,0.20802253484725952,1.1356991529464722,-0.7334572672843933,-0.5279877781867981,-0.7977656722068787,-0.41282907128334045,0.7084261178970337,2.8300321102142334,0.23187266290187836,0.3087109923362732,0.13081087172031403,0.9339424967765808,0.7199975252151489,0.8023518323898315,0.27596721053123474,1.1317580938339233,0.1296210139989853,-0.2135409414768219,-0.26224762201309204,-0.07205643504858017,0.7541715502738953,-0.8855233788490295,-1.757179617881775,0.4475898742675781,1.8596473932266235,-0.7984631061553955,-1.6840028762817383,1.5432264804840088,-0.8873811364173889,1.2127184867858887,2.2155282497406006,1.3292484283447266,0.46760010719299316,1.9878488779067993,-3.787297010421753,1.2181899547576904,-0.5636955499649048,-4.219013214111328,0.5693455338478088,-2.1406350135803223,-0.3377183973789215,1.512576937675476,-1.005005121231079,1.5045089721679688,0.22390933334827423,1.2027077674865723,0.13970252871513367,-2.2496731281280518,2.5517656803131104,-0.6239141225814819,-0.3238276243209839,0.8088994026184082,-1.2936657667160034,-2.094578742980957,-0.05202769860625267,-1.9673454761505127,-1.0620094537734985,-1.1819062232971191,0.6030845046043396,0.38304510712623596,0.9080649018287659,0.22165116667747498,-0.5749433040618896,-0.15910884737968445,-0.7783485054969788,0.1630542129278183,-0.6586132645606995,0.4519365131855011,0.4672698378562927,0.7899006009101868,-1.3860764503479004,0.1505502611398697,-1.95426607131958,0.631533145904541,-1.1389342546463013,-1.7738343477249146,1.5887869596481323,2.3701634407043457,-1.4380322694778442,1.1385334730148315,0.3214021325111389,-2.6856186389923096,-1.8213200569152832,-1.3640164136886597,-0.5159100294113159,-0.10749915987253189,0.6118353009223938,-0.41875308752059937,-1.8455853462219238,-0.14117054641246796,-0.051003459841012955,-0.4866684079170227,-2.8310084342956543,0.11294034868478775,0.728024959564209,0.3240260183811188,-1.2961745262145996,-0.054865770041942596,1.489715814590454,-1.6680467128753662,-1.169191598892212,-2.0850470066070557,-0.4957023561000824,0.4814620316028595,1.9435746669769287,0.7781930565834045,0.8238688111305237,0.39075225591659546,-1.5319427251815796,1.3046581745147705,-2.128115653991699,1.1046767234802246,0.7054112553596497,0.26191920042037964,4.28331995010376,-3.5603790283203125,-0.7728680372238159,-0.7130297422409058,1.1279956102371216,-0.1430557519197464,-0.7250152230262756,-2.0803096294403076,2.416165351867676,-0.37532126903533936,0.39869222044944763,0.12445700168609619,0.19675277173519135,-0.46303895115852356,0.2915216386318207,-0.14076291024684906,-0.7950289845466614,-0.3446735441684723,1.1976141929626465,2.2668604850769043,0.7569133639335632,2.051914691925049,-0.18007606267929077,0.8792644143104553,0.749880313873291,-1.3431720733642578,-0.4931369125843048,0.4528149366378784,3.622542381286621,1.0041391849517822,-0.6414560079574585,-0.09150650352239609,-1.1092857122421265,-0.7415450215339661,1.4983422756195068,-0.8771882057189941,-0.7629533410072327,0.991278350353241,-1.6675899028778076,0.17826761305332184,1.5763113498687744,1.9911136627197266,-1.6856143474578857,0.5885050892829895,-2.8055031299591064,1.0052623748779297,-1.2612266540527344,-5.215083599090576,0.09670836478471756,-2.388359785079956,-0.2171308696269989,-0.4292980134487152,-1.3777459859848022,0.3669111728668213,1.1602532863616943,0.8280314207077026,-1.0352392196655273,-0.16385604441165924,0.5151568651199341,0.09744869917631149,-0.6024911999702454,0.07697372883558273,-0.16208332777023315,-0.7210322022438049,-0.32918840646743774,0.9020635485649109,-2.0965383052825928,-0.03772101551294327,-0.48644110560417175,0.6374326944351196,0.7079610228538513,0.12227103114128113,-0.1772189438343048,0.9383238554000854,-0.6633439064025879,-0.48266497254371643,-0.293266236782074,1.4072015285491943,0.99710613489151,1.8043488264083862,-0.04308273270726204,-2.061309337615967,-0.48584654927253723,-0.35331621766090393,-0.09549590945243835,-0.12653428316116333,-0.8996695876121521,1.3673474788665771,0.8815440535545349,-0.5529624223709106,-2.250657558441162,-0.2562052309513092,0.06746712327003479,-1.5867453813552856,0.48004624247550964,-0.050281837582588196,-1.405301570892334,1.8652534484863281,-1.4677666425704956,0.6789690852165222,-0.16680827736854553,1.9233781099319458,-1.241288661956787,-1.3515857458114624,1.0578694343566895,0.14610695838928223,2.075221538543701,-0.40414518117904663,-1.4056501388549805,2.821941375732422,-0.2174808233976364,1.177243947982788,1.278998851776123,-1.267122507095337,1.4914442300796509,-0.6325728893280029,-1.6886937618255615,2.6163625717163086,2.285806655883789,-0.8866075277328491,1.0438133478164673,2.248152494430542,-0.06054813414812088,-0.23516491055488586,-1.1963084936141968,-0.2911168336868286,-0.7191199064254761,-1.3995556831359863,-0.5197721123695374,0.9181106686592102,-1.9040136337280273,0.001854905509389937,-1.4261658191680908,0.07432996481657028,-1.2659822702407837,0.5761694312095642,-1.2342543601989746,0.5760923027992249,-1.5235023498535156,-0.02005748637020588,2.899538993835449,1.022465467453003,-0.3922942280769348,-1.887248158454895,0.43607115745544434,-1.8173668384552002,-1.9481894969940186,-1.2197680473327637,-1.7906900644302368,-1.3963570594787598,0.2511901557445526,-0.7481727004051208,-0.8142523765563965,0.17965932190418243,-2.563450336456299,-0.2374342679977417,1.7517050504684448,0.5704351663589478,-1.8535113334655762,1.7077945470809937,0.15963642299175262,-0.6826132535934448,-3.049751043319702,1.0191247463226318,-1.206912875175476,-2.933004856109619,0.45827555656433105,-1.1367794275283813,1.8161417245864868,-0.5629622936248779,-0.5902389883995056,0.9136227965354919,-0.7758577466011047,0.2537558674812317,1.3219194412231445,-0.7533344626426697,-0.40980198979377747,-0.20113015174865723,0.08625846356153488,0.24818910658359528,-0.22450467944145203,1.2231782674789429,-1.08358895778656,1.2294228076934814,0.6785514950752258,-1.360613465309143,2.0413618087768555,1.3998003005981445,-1.977444052696228,0.5845144987106323,-0.562180757522583,-0.2232052981853485,0.7829620242118835,0.8550990223884583,-0.5172167420387268,-0.5390022993087769,0.44572165608406067,0.9362539052963257,1.244471788406372,-1.2928128242492676,0.7935718894004822,-0.8176282048225403,-1.2118229866027832,0.8000036478042603,-1.4933476448059082,-1.7714364528656006,0.6290504932403564,1.0727003812789917,-0.12555235624313354,0.04053548723459244,0.21645884215831757,-0.16168946027755737,-1.9503490924835205,2.1306681632995605,-0.9440455436706543,-1.7512059211730957,0.3884671926498413,0.4431723654270172,-1.2971030473709106,0.49697232246398926,0.013370581902563572,-1.4997286796569824,-0.9417570233345032,-0.30157169699668884,1.6950136423110962,0.3002638518810272,-2.0943562984466553,-1.253582239151001,0.985554575920105,-0.2003781795501709,2.062856912612915,-0.5123628377914429,0.2669166028499603,1.9268558025360107,-0.4974305033683777,-0.5593135952949524,0.6443091034889221,0.689834713935852,0.8261784315109253,-0.4687398672103882,-2.3185312747955322,-0.16664080321788788,0.9527514576911926,1.0931248664855957,-2.0851147174835205,-1.5567317008972168,2.4208431243896484,0.10683883726596832,1.0460309982299805,0.21492551267147064,0.8851510286331177,-0.6322855949401855,2.6797573566436768,-0.4545956254005432,-1.6684414148330688,-0.48969465494155884,-2.203317642211914,-0.4144101142883301,-1.2245441675186157,0.8572636842727661,-0.43411096930503845,0.4748636484146118,-1.4406650066375732,-1.1700156927108765,1.9391640424728394,-2.202815532684326,-0.41526365280151367,0.00403341930359602,0.25180622935295105,0.7409271001815796,-0.9633773565292358,-0.6132605671882629,0.1981276422739029,-0.39622730016708374,1.7900580167770386,-1.621496319770813,1.8065580129623413,0.01111351978033781,-1.55438232421875,3.337362051010132,-0.8736723065376282,-0.5217007398605347,-1.6503602266311646,-1.198490858078003,0.640021562576294,-1.2709012031555176,0.32523253560066223,-2.594536542892456,-2.0024352073669434,0.38044473528862,0.2944468557834625,-1.1828126907348633,0.04136835038661957,-1.964846134185791,0.4931207299232483,2.389284610748291,0.9032196402549744,-1.5741921663284302,-1.8465858697891235,-0.6949638724327087,-1.1786845922470093,-2.0279006958007812,0.48494666814804077,-1.5577306747436523,-1.0546010732650757,-0.23359300196170807,-0.798028826713562,0.977769672870636,-1.6471692323684692,-3.0326600074768066,1.6674981117248535,-0.6650660037994385,0.3950275182723999,1.0770574808120728,-1.2193176746368408,0.923864483833313,1.0526388883590698,-0.09857234358787537,0.5834738612174988,1.5030626058578491,0.6340237855911255,-1.2408496141433716,-1.0048178434371948,-1.0208230018615723,0.2317752093076706,0.7650202512741089,-1.6921179294586182,-0.918156623840332,2.383798122406006,-0.187283456325531,0.6463921666145325,0.7961913347244263,-0.17975270748138428,0.32334625720977783,-1.1411712169647217,-3.136845827102661,1.1832177639007568,-1.321045160293579,-1.1420552730560303,3.416816234588623,1.3579418659210205,-1.1802252531051636,-0.2287990301847458,-0.22060155868530273,-2.577982187271118,-1.5143115520477295,0.6900936365127563,-3.0784912109375,1.5625807046890259,-2.335012435913086,-1.7982782125473022,-0.8359563946723938,-1.3272298574447632,-1.1658170223236084,0.7754625082015991,-0.2583228647708893,-0.8733950853347778,0.7578720450401306,-0.9342488646507263,0.6119796633720398,-1.6639879941940308,0.36757734417915344,-1.9096957445144653,-0.683732807636261,-1.2260814905166626,-1.850093126296997,-1.78977370262146,-0.6624878644943237,0.7136785984039307,0.5211432576179504,0.03880063816905022,-1.4390190839767456,1.755682349205017,0.7881360054016113,0.002607017522677779,-0.5160800814628601,0.26125141978263855,-2.7111868858337402,-0.28592249751091003,0.462496817111969,1.857836365699768,-0.6246925592422485,-2.1859564781188965,-0.8603640794754028,0.5986207127571106,0.2429681420326233,1.4609323740005493,2.8838157653808594,-0.15935979783535004,0.37134507298469543,3.1073877811431885,1.6288405656814575,-0.2309008091688156,0.6201256513595581,1.0672825574874878,-0.29278603196144104,0.1045088991522789,0.1145084798336029,0.6734790205955505,-0.08396009355783463,0.5460093021392822,2.686155319213867,2.0055289268493652,-0.4573233425617218,1.956585168838501,1.124510407447815,-0.7149956822395325,0.6989107131958008,-0.8021562099456787,-2.3142685890197754,-2.0655324459075928,0.4805021286010742,1.9361298084259033,-1.057605504989624,-0.6856003999710083,-1.1642471551895142,-1.0755196809768677,-2.088217258453369,0.6294284462928772,0.40787097811698914,-0.0357714518904686,-0.5817884802818298,-0.638902485370636,-0.3046722710132599,-0.5874379277229309,-1.0896180868148804,-0.3382323086261749,3.319936752319336,-1.2517234086990356,0.953166663646698,0.2083626538515091,1.762009859085083,0.3024168610572815,-1.5969187021255493,0.6261671781539917,0.3608875274658203,-1.8043636083602905]},"outputHidden":{"rows":20,"columns":20,"weights":[2.387779951095581,-0.6410583257675171,1.4004098176956177,0.5301085710525513,-0.21134160459041595,1.2184375524520874,-1.6507821083068848,-1.8446882963180542,-3.439940929412842,-0.679104745388031,-2.2069480419158936,1.838322401046753,1.0439409017562866,-2.826188802719116,1.5942977666854858,0.5349043011665344,-0.07186020910739899,-0.41840440034866333,-0.18315903842449188,-0.020454170182347298,2.2730212211608887,-2.438495635986328,-0.11645540595054626,-0.8499362468719482,0.46530425548553467,0.6295961141586304,-2.38508677482605,-0.8108370304107666,-1.2320138216018677,2.8479762077331543,1.2660493850708008,-1.1995128393173218,2.9445641040802,-0.908450186252594,-2.7354013919830322,-1.4124343395233154,2.6014955043792725,-0.6411737203598022,1.7465908527374268,-0.4750467538833618,0.6816709041595459,-3.391228437423706,-3.734707832336426,-2.5708000659942627,-3.51955509185791,1.7488999366760254,-1.750842809677124,2.237433671951294,1.1482678651809692,-1.7807080745697021,2.104316473007202,3.667962074279785,-0.03541116043925285,2.70658540725708,3.585340976715088,1.7046349048614502,-2.747429609298706,-3.0943167209625244,5.372618675231934,1.0802603960037231,-1.4194358587265015,-1.6200575828552246,1.5079448223114014,1.164626955986023,-0.37419015169143677,0.25246575474739075,-0.3638230562210083,0.6915315985679626,-0.8795050978660583,-2.782999277114868,-0.310541570186615,0.36339011788368225,1.8440618515014648,0.20437519252300262,-0.420741468667984,0.2401459664106369,0.023404337465763092,-2.0295536518096924,0.24156662821769714,-1.2660434246063232,3.542658567428589,-1.0817790031433105,1.0759645700454712,1.6902168989181519,-1.3437066078186035,1.4288232326507568,1.5996664762496948,0.26162460446357727,-1.073599100112915,0.8096762299537659,1.3258994817733765,1.9587852954864502,-1.2620720863342285,-0.1550426036119461,-1.4159775972366333,-0.8270334005355835,0.09765295684337616,5.197788238525391,-1.6924738883972168,-1.5899578332901,-1.1224019527435303,-0.3497852087020874,-0.17114801704883575,0.06726684421300888,0.13111554086208344,0.7907680869102478,-1.7311317920684814,0.017049556598067284,-0.33627185225486755,-0.9801949858665466,-0.5247387886047363,0.17704463005065918,0.169629767537117,1.0056052207946777,-0.2505534589290619,0.7602028250694275,1.2339195013046265,-1.1334012746810913,-0.19386330246925354,-0.6560367345809937,-4.011514186859131,0.5833759903907776,0.6500774025917053,-1.4227677583694458,0.8473030924797058,-0.08899742364883423,1.701256275177002,2.3105084896087646,4.172921657562256,1.3001972436904907,1.4531227350234985,-2.0982720851898193,-5.215509414672852,0.5606123805046082,-1.5782971382141113,-2.2166099548339844,1.7768080234527588,1.0573160648345947,-3.6892778873443604,1.2579853534698486,1.0663467645645142,-1.732727289199829,0.9487411975860596,-0.3718719482421875,0.8949520587921143,-0.04824255779385567,-2.461049795150757,0.20819012820720673,-0.9648350477218628,-0.17204751074314117,-0.8765984177589417,-0.6635695695877075,-1.209762454032898,-1.6565966606140137,0.9297558665275574,-2.1693825721740723,0.0004970699083060026,-0.935361921787262,-1.0037938356399536,1.4988675117492676,-3.193204641342163,4.411293029785156,1.3429248332977295,-2.774989604949951,-3.2537195682525635,-2.9182403087615967,2.4251019954681396,0.8723289966583252,4.312528133392334,-1.1474605798721313,3.6481447219848633,-0.380190372467041,-0.25413596630096436,5.262328624725342,-1.1513104438781738,0.33123525977134705,4.039340496063232,-1.8450030088424683,0.2515115737915039,2.6586153507232666,0.8079349398612976,1.356919527053833,1.050923466682434,-1.2262775897979736,0.5921837091445923,-0.5572028160095215,0.28500986099243164,-1.673603892326355,2.987182378768921,0.37939077615737915,4.595387935638428,0.5490685105323792,0.9514817595481873,4.8001885414123535,-1.5411826372146606,1.4694470167160034,0.3340698778629303,3.727513074874878,-0.9198057651519775,-2.224591016769409,0.4895426034927368,0.28356894850730896,2.0941944122314453,-1.516493558883667,-0.4424404799938202,1.9472368955612183,-1.9756832122802734,1.7728545665740967,-0.12325462698936462,-0.7791247963905334,-0.6970861554145813,1.4075045585632324,1.6997110843658447,0.5887832641601562,0.5375449061393738,1.7969683408737183,1.4126968383789062,-0.17744308710098267,0.7220635414123535,-0.7282492518424988,0.8538854122161865,0.06974469125270844,1.4553906917572021,1.686195969581604,4.09194278717041,0.5138705372810364,1.6247557401657104,-2.1170904636383057,-1.6503973007202148,1.0891828536987305,-0.3625366687774658,0.6930311322212219,-3.0282278060913086,-1.2026164531707764,-0.07106174528598785,2.6252808570861816,-0.7151216268539429,-2.3118481636047363,-1.6640805006027222,-0.09339668601751328,-2.9094386100769043,5.679872035980225,1.4214478731155396,2.0425844192504883,-0.34665635228157043,-2.6692557334899902,3.3245368003845215,-1.1613467931747437,1.8471370935440063,1.0026377439498901,1.6785709857940674,-1.10390305519104,0.5156594514846802,6.012156009674072,-3.302518367767334,-0.13378384709358215,1.9522470235824585,-1.6066467761993408,-3.778693675994873,4.150694847106934,2.763422966003418,2.815925359725952,1.4812625646591187,0.9039143323898315,4.12125825881958,0.8465777039527893,-0.1442059725522995,-1.9267641305923462,1.9331411123275757,-0.052499920129776,1.531520962715149,3.5991103649139404,-0.7028988599777222,1.0801283121109009,1.2221617698669434,3.0235517024993896,-2.9192910194396973,0.9245147705078125,-1.9347494840621948,-2.782396078109741,-4.356082916259766,2.078317403793335,1.4629244804382324,-0.29760968685150146,-0.6167818307876587,0.27731025218963623,1.5234824419021606,0.1715402752161026,-1.717545747756958,-3.033566951751709,-1.3103783130645752,1.1335277557373047,-0.7012226581573486,-1.59861159324646,0.6239164471626282,-1.0641615390777588,-1.100264310836792,0.915273904800415,0.7004814743995667,1.9760401248931885,4.404311180114746,-2.94978666305542,2.666471481323242,1.4150718450546265,-0.12565572559833527,1.054618239402771,-0.05747935175895691,-4.13326358795166,-3.440737247467041,-2.383305311203003,-3.402967691421509,3.0600781440734863,-1.4058356285095215,-3.5509159564971924,3.179384708404541,-3.26875638961792,-3.8845369815826416,-1.0036755800247192,1.4074944257736206,-0.285992294549942,1.9026888608932495,0.8170586228370667,-2.1704154014587402,1.0885162353515625,-1.5712493658065796,-3.136197805404663,-0.5830902457237244,-0.5338770747184753,-0.5650632977485657,-1.3772196769714355,-2.0372300148010254,-0.6864213347434998,1.0239343643188477,-1.8714194297790527,0.45262569189071655,-1.7318570613861084,-2.011427402496338,-1.1660231351852417,-1.2372499704360962,2.2458362579345703,-0.6006931066513062,0.277920663356781,0.5515279173851013,1.8273825645446777,1.1475176811218262,-1.179736614227295,-0.17221824824810028,-1.2273226976394653,-2.2549917697906494,1.1698758602142334,-1.7113536596298218,-3.2766494750976562,1.2059930562973022,-0.835461437702179,-1.4350990056991577,-1.497023344039917,-2.3133041858673096,-2.478231191635132,-1.8337589502334595,-2.2899088859558105,3.141753911972046,3.5306713581085205,-0.2463897168636322,-1.4580210447311401,-2.7137691974639893,-0.2732463479042053,-2.7883598804473877,1.1955174207687378,-0.6776951551437378,-0.48388671875,0.5989477038383484,1.3475728034973145,3.0519087314605713,0.8002760410308838,-1.2843807935714722,-0.13406884670257568,0.9776936173439026,0.14320802688598633,0.11480271816253662,2.212585926055908,-1.1119831800460815,-1.6393646001815796,-1.247081995010376,-1.5542973279953003,1.3106564283370972,-0.8878888487815857,1.8298349380493164,2.2820401191711426,-2.9178192615509033,-3.0021438598632812,-2.5767650604248047,2.3792738914489746,1.7607020139694214,-0.02253623865544796,1.3129743337631226,2.8858375549316406,3.042660713195801,0.4759399890899658,1.5994155406951904,-2.0044028759002686]},"outputBias":{"rows":20,"columns":1,"weights":[0.05253283679485321,-0.14176253974437714,1.3506965637207031,0.09828193485736847,-0.33429181575775146,-1.0098745822906494,-0.020201778039336205,-0.19881825149059296,-0.7461333274841309,-1.0779424905776978,-0.4156067371368408,-0.4792153835296631,-2.005307197570801,-0.3444054424762726,0.1702878326177597,-0.113991878926754,-0.49913686513900757,-0.6586748361587524,-0.761638879776001,-0.6816313862800598]},"cellActivationMatrix":{"rows":20,"columns":31,"weights":[1.3709615468978882,1.0688368082046509,0.27055537700653076,1.0611746311187744,-0.31452080607414246,-0.23237191140651703,0.7425126433372498,-0.6307954788208008,-0.7970958948135376,0.1737290322780609,-1.4384757280349731,1.5331717729568481,-0.21852010488510132,-1.0308061838150024,0.38979408144950867,-0.5279085040092468,-0.31191855669021606,-0.2528102397918701,-1.0483307838439941,0.7480048537254333,1.048349380493164,-0.09390918165445328,-0.6661249995231628,0.40002545714378357,-1.473507285118103,0.24484366178512573,1.1364002227783203,0.5126075148582458,-0.37448105216026306,1.32725191116333,0.17557986080646515,-2.3603291511535645,-0.5061510801315308,0.9687963724136353,-1.3822531700134277,1.5924245119094849,-1.1875265836715698,-1.03617525100708,-0.21684367954730988,-0.6379262804985046,-0.36371782422065735,0.8013169169425964,-1.783717155456543,1.4412753582000732,1.7577818632125854,-0.8386848568916321,0.5923585295677185,-0.5796480178833008,-0.15658122301101685,0.7096719145774841,-0.9513774514198303,-0.9774557948112488,-1.122723937034607,-0.9466942548751831,-0.4674617350101471,0.9872670769691467,0.20935869216918945,-0.5234861969947815,-1.6684305667877197,1.2171292304992676,-0.5479533076286316,0.09933122992515564,-0.5750658512115479,1.9612427949905396,0.37453770637512207,1.0755360126495361,-1.47895348072052,-2.498100519180298,-0.6732091307640076,0.8525367975234985,-0.4864799976348877,0.01410609669983387,0.41238367557525635,-1.5051906108856201,-0.6537495851516724,-0.48068174719810486,0.1812092661857605,1.1369261741638184,0.3993438482284546,-0.3464610278606415,0.6288930773735046,-0.1585712730884552,0.6491896510124207,-2.3245651721954346,-2.135455369949341,0.6574286222457886,-1.6561386585235596,1.8457361459732056,0.6659805178642273,-0.47775840759277344,2.0157525539398193,0.22564741969108582,0.22626717388629913,0.8073189854621887,0.6937377452850342,0.6296082139015198,-0.6558158993721008,-1.2514125108718872,-1.4812904596328735,0.8547423481941223,1.1031020879745483,1.1605778932571411,0.3246474266052246,0.03379375487565994,0.5506474375724792,-1.1489609479904175,-0.080940380692482,1.31810462474823,0.27867385745048523,-1.1088695526123047,0.8258351683616638,-0.008299603126943111,1.1034941673278809,1.2178356647491455,-1.3153655529022217,-1.9232220649719238,0.9853922128677368,-0.9351770281791687,-0.15725505352020264,1.9257512092590332,2.59140944480896,1.3842363357543945,1.4306987524032593,0.5199447870254517,-0.5744524002075195,-1.080389380455017,-0.7292008996009827,0.4543018043041229,0.2738604247570038,0.6469808220863342,-0.4737371504306793,0.3098543584346771,-1.3895195722579956,-0.1555604338645935,-0.8008447885513306,-0.3728955090045929,1.9917385578155518,-0.9608306288719177,-0.5634288191795349,-0.6985802054405212,-0.9289929270744324,-0.5592012405395508,0.10166800767183304,-0.7823819518089294,-0.9968673586845398,0.9387180209159851,1.0980465412139893,-2.98248291015625,1.4378033876419067,-0.2819302976131439,-1.257405400276184,-0.793566882610321,-0.5350782871246338,0.8361666798591614,-0.013046142645180225,0.9498764872550964,0.5689268112182617,-1.3928319215774536,1.1556122303009033,-0.15301303565502167,1.4218851327896118,0.3133375346660614,0.39912497997283936,-0.43185195326805115,1.6800062656402588,-0.49866533279418945,1.2444349527359009,-0.4120504856109619,-0.7237191200256348,-0.08344392478466034,-0.798819363117218,0.7133532166481018,0.6175441145896912,-0.03653721511363983,1.2731332778930664,0.346769243478775,0.7098765969276428,0.11585550755262375,0.4962711036205292,0.22643129527568817,-0.15101118385791779,0.8504766225814819,0.582875669002533,0.2529464364051819,-0.15615834295749664,0.07717063277959824,-1.6871345043182373,0.1333935707807541,0.24231593310832977,-2.2244908809661865,0.5611327290534973,-0.8966872692108154,-1.0045846700668335,-0.18655169010162354,1.6273596286773682,0.3538290560245514,3.407709836959839,-0.4760068953037262,0.4564964771270752,3.5828309059143066,0.9141896367073059,1.8734058141708374,-0.5688188076019287,0.2287866473197937,0.8441579937934875,-0.10409346967935562,0.13647262752056122,0.5648212432861328,0.28050410747528076,-0.3281923532485962,1.1324251890182495,-0.3152191638946533,-1.136663556098938,0.05539277195930481,-0.47868436574935913,0.30214443802833557,0.49799323081970215,0.652542769908905,-1.1253477334976196,0.22786302864551544,-0.35194510221481323,1.0910587310791016,0.011248184368014336,2.3658454418182373,0.9542291164398193,0.111370749771595,-0.2467510998249054,-2.149740695953369,-0.8779318928718567,0.2457246482372284,0.3565117120742798,0.565891683101654,-1.0764943361282349,-1.5607260465621948,-1.0161614418029785,-1.3699710369110107,-0.8084712028503418,-0.508526086807251,1.2845865488052368,0.36710453033447266,-0.5797863602638245,1.4081943035125732,-1.7003593444824219,-1.8835800886154175,-0.5728523135185242,-0.35204052925109863,-1.3031749725341797,0.5270786285400391,-2.301710367202759,-1.1644221544265747,-1.3027042150497437,-0.8052729964256287,-0.28629863262176514,0.27417251467704773,-1.110120415687561,-0.5164435505867004,-0.5213534235954285,-1.3258085250854492,1.677281141281128,-0.43187499046325684,1.6355319023132324,0.21545077860355377,-0.46319884061813354,-0.4674111604690552,0.37306877970695496,-2.0252435207366943,-0.10942114889621735,-2.297224998474121,-2.0861244201660156,0.456097275018692,1.4608522653579712,-1.2388728857040405,0.5882197022438049,-0.2592714726924896,0.8817204833030701,-0.7124994993209839,-0.18249772489070892,1.2541016340255737,-0.17527762055397034,-1.1900691986083984,-0.23913151025772095,0.3821582794189453,0.8173320293426514,-0.44207894802093506,0.1052609458565712,-1.1544512510299683,-1.1062588691711426,-2.614630937576294,-1.475126028060913,-0.34318017959594727,-0.41968151926994324,1.651665449142456,-0.35667988657951355,-1.3801003694534302,-0.014419350773096085,0.27742886543273926,0.26816633343696594,0.5375189781188965,-1.7549251317977905,-0.8918659687042236,-1.0016263723373413,0.4107182025909424,-1.0935144424438477,1.731680989265442,0.11832600831985474,-0.8646594285964966,-1.1112796068191528,0.6756259202957153,0.542400062084198,-0.7592638731002808,-2.1700823307037354,-0.296396940946579,1.9404457807540894,-1.572479248046875,-0.4067669212818146,-0.6901941299438477,-0.4473422169685364,-1.6241788864135742,-1.0976276397705078,-0.9963181018829346,1.056990623474121,-0.7355464100837708,2.7743186950683594,0.7844085097312927,-0.21880023181438446,-1.0212643146514893,-0.8535828590393066,0.5141944885253906,0.24208451807498932,-1.5497125387191772,-1.1736630201339722,-2.0258677005767822,-0.13507983088493347,0.48214593529701233,-0.6265688538551331,0.11162590980529785,-0.5086086988449097,-1.6900395154953003,0.872049868106842,0.12259682267904282,-0.8346799612045288,-0.11011767387390137,-0.44335994124412537,-0.940819263458252,0.1396985948085785,-0.024138223379850388,1.7830605506896973,1.009744644165039,-0.5512658953666687,0.23481497168540955,-0.12567690014839172,0.6655669808387756,-0.5599936246871948,-0.11681497097015381,0.453790545463562,1.327859878540039,-1.0710556507110596,-0.45009180903434753,1.270158290863037,0.6019222736358643,-0.3904660642147064,0.04375079274177551,1.6507642269134521,-1.1680054664611816,0.18821993470191956,0.8481459617614746,-0.45998477935791016,1.5945652723312378,0.2570682168006897,-0.5999950170516968,0.5324041247367859,0.021196572110056877,0.2387225478887558,0.9656820297241211,1.002199411392212,0.6054681539535522,0.4714844226837158,-1.5270577669143677,0.28648626804351807,1.3867675065994263,0.32988420128822327,0.03665268421173096,-0.7299907207489014,0.28456512093544006,-1.9174432754516602,-0.04847310110926628,-0.8745834231376648,-0.4179615378379822,-0.9293479919433594,1.9243791103363037,-1.0506209135055542,1.4200832843780518,1.7985055446624756,-0.5324296951293945,-2.070958375930786,1.8254263401031494,-2.169135808944702,-0.5944309234619141,0.9110708832740784,0.4047168791294098,0.5906082987785339,0.09154436737298965,0.05485643446445465,-1.178821325302124,-0.3217596113681793,0.959597110748291,-1.6005109548568726,0.516027569770813,-0.260212242603302,-2.6119868755340576,-0.8809380531311035,-0.9150970578193665,-0.6618766784667969,3.3373770713806152,-0.9870629906654358,1.9534118175506592,2.038360834121704,0.27894172072410583,0.8067799806594849,-0.022965535521507263,-1.6335729360580444,-0.19280925393104553,-1.3154996633529663,-0.4283845126628876,-1.267810344696045,-0.0028113818261772394,-0.5883628129959106,-0.27828848361968994,0.29181820154190063,0.5755258798599243,-1.0640883445739746,1.8069896697998047,1.5019137859344482,0.31675830483436584,-0.12413262575864792,-1.254807710647583,-0.09223693609237671,0.46185675263404846,-0.08392355591058731,-1.7569737434387207,0.4017426371574402,-0.8553469777107239,-0.9226192235946655,1.093772053718567,-1.6392533779144287,1.7803906202316284,0.7814891338348389,-1.6302053928375244,1.2814849615097046,0.3335011899471283,-0.7055486440658569,1.2106964588165283,0.3569682538509369,1.150064468383789,1.5758230686187744,-1.0053491592407227,-0.7496464848518372,-0.6117582321166992,0.7056893110275269,-0.7953287959098816,1.2191177606582642,1.6617498397827148,-0.12706315517425537,1.7011874914169312,0.10776390880346298,0.38458114862442017,1.6310354471206665,-1.9212912321090698,0.14180566370487213,-0.3653549551963806,-0.4510263502597809,0.1382148116827011,-1.2912524938583374,0.7885444760322571,-0.4067794382572174,0.42044198513031006,-0.4404307007789612,-0.6608226299285889,0.027247576043009758,0.4284064471721649,-1.5484890937805176,0.9674401879310608,-0.5306429862976074,0.2156851887702942,0.37179166078567505,-0.8191767334938049,0.6813620924949646,1.1110750436782837,-0.4152747690677643,0.9224041104316711,0.9418318867683411,-0.8362243175506592,0.07564100623130798,0.49076175689697266,-0.5192114114761353,-0.5496798753738403,1.1901813745498657,-0.048896510154008865,0.2658022940158844,-0.8174906373023987,-2.1808764934539795,1.2180756330490112,-0.3505559265613556,-1.7706637382507324,0.4392700493335724,-0.7801843285560608,-0.9902450442314148,-0.6229707598686218,0.48075273633003235,0.7400721907615662,-0.14028839766979218,-0.30548545718193054,1.5839293003082275,0.03290517255663872,2.3350651264190674,-1.0559672117233276,-0.9112558960914612,-0.2497236430644989,1.9356578588485718,0.7269847393035889,-0.09425542503595352,1.056792140007019,-0.3264228105545044,-1.1936671733856201,0.6472586393356323,-0.8256892561912537,-2.5396368503570557,0.6657406687736511,1.6565840244293213,0.13293400406837463,-0.9614414572715759,-1.863649606704712,-0.34799671173095703,0.12909062206745148,-0.66655033826828,-0.3942990303039551,0.3243275284767151,0.06274872273206711,0.04142816737294197,0.2932793200016022,0.7027586698532104,1.0017828941345215,-0.2119758278131485,-0.7977449297904968,0.32528987526893616,-0.5200719237327576,-0.14708584547042847,-0.34585410356521606,-0.17795348167419434,-0.47451144456863403,-0.48998770117759705,0.6621345281600952,-0.4735008180141449,0.33518269658088684,-0.7848381400108337,-0.23193004727363586,1.5271283388137817,-0.37520575523376465,2.6276021003723145,-1.273211121559143,0.018529212102293968,-0.07285207509994507,1.7685688734054565,-1.2581385374069214,1.4547404050827026,-0.6570330262184143,-1.18173086643219,-1.3827340602874756,-1.2447483539581299,-0.7960930466651917,-2.076428174972534,-2.085479974746704,-0.5722527503967285,-3.204770088195801,-0.34189358353614807,-1.4017430543899536,-0.35922321677207947,-1.7703185081481934,1.4242993593215942,1.142315149307251,-0.6372222304344177,-0.06427702307701111,0.17018194496631622,-2.508842945098877,-1.8617268800735474,-1.4552922248840332,-0.11478563398122787,-1.627111792564392,1.3376820087432861,-1.4082190990447998,-0.7441504001617432,1.504380226135254,-0.10010311007499695,-0.9631518125534058,-1.2646478414535522,0.7288934588432312,-0.5557093620300293,-2.826528549194336,-2.015697479248047,0.972822368144989,-1.9649204015731812,1.1299681663513184,0.5819021463394165,0.07419121265411377,0.022645600140094757,-0.08643415570259094,-2.2630906105041504,-0.4562780261039734,-2.4030325412750244,0.1754346787929535,-1.746047019958496,0.5338473320007324,0.12255236506462097,0.31785115599632263,1.062078833580017,-0.7301774621009827,-0.8606270551681519,-0.33358290791511536,1.2361960411071777,0.09287971258163452]},"cellActivationHidden":{"rows":20,"columns":20,"weights":[-0.026305634528398514,0.9156444668769836,1.002213478088379,-0.41148608922958374,-0.9059436917304993,-0.3424736559391022,1.204968810081482,0.3338332176208496,-1.2868683338165283,-0.9887155890464783,-1.0975654125213623,-1.157400131225586,0.9692549109458923,-0.8215288519859314,1.2029043436050415,-0.613120436668396,-0.3954868018627167,-1.3764184713363647,2.127707004547119,1.7697720527648926,-0.026458391919732094,-0.2892543375492096,0.3441189229488373,-0.040501147508621216,0.16455383598804474,1.3103364706039429,-0.8166789412498474,-1.2518246173858643,0.9625798463821411,0.7928258776664734,0.7001405954360962,-0.01647312380373478,1.0306978225708008,0.34004122018814087,3.1245598793029785,0.5079355835914612,-1.6651155948638916,1.3920183181762695,0.2349241077899933,0.38565564155578613,-2.4274680614471436,0.6478328108787537,0.7637413144111633,-0.1788061112165451,1.0512138605117798,-2.832724094390869,1.7177938222885132,-0.25068071484565735,-0.6401333212852478,-0.32772335410118103,-1.2173231840133667,0.1800287961959839,1.3236515522003174,1.01064932346344,-1.365569829940796,1.7252429723739624,1.6240990161895752,-1.017970323562622,-0.34174609184265137,-0.5889381170272827,-1.4620697498321533,1.5697810649871826,-0.2859874665737152,-1.1714577674865723,-0.10682187974452972,-0.8253498673439026,1.5514968633651733,-0.10198202729225159,0.6804583072662354,-0.1744842231273651,0.24293257296085358,-2.2258572578430176,-0.3705123960971832,-0.1865982711315155,-1.5979154109954834,-0.3004283308982849,1.0122827291488647,-1.0310016870498657,-1.9320663213729858,1.7459337711334229,1.0367417335510254,-0.6128964424133301,1.819124460220337,0.7306632399559021,-2.3438820838928223,-2.0215606689453125,-1.548072338104248,0.23047584295272827,0.7304458618164062,-0.8208452463150024,1.0048829317092896,1.1130508184432983,1.0510239601135254,0.3936392068862915,-1.8510123491287231,1.0644614696502686,-1.0241423845291138,1.5658142566680908,-0.5929210186004639,0.4764470160007477,-0.5800238251686096,1.8979125022888184,0.6893935799598694,1.024162769317627,0.715099573135376,-0.2449018508195877,-0.14572346210479736,-0.547931969165802,1.1324522495269775,1.7578058242797852,1.5559332370758057,-0.41600853204727173,0.5105144381523132,1.0146490335464478,1.2110530138015747,-0.27884459495544434,0.45444339513778687,0.4543663263320923,-1.3462870121002197,0.7372589111328125,-1.777622103691101,1.3892691135406494,-2.4254660606384277,-2.500880002975464,1.5185397863388062,-1.2313696146011353,0.5594998002052307,0.5426682829856873,0.7761149406433105,0.7491198778152466,0.5285510420799255,-1.0068283081054688,-1.70685875415802,-0.34001678228378296,-0.13771753013134003,-1.2276939153671265,2.1609606742858887,1.6962144374847412,-1.5926350355148315,-0.5118257999420166,-0.6130234003067017,-1.9623342752456665,-0.5395460724830627,0.6514814496040344,-1.8704792261123657,0.3694421350955963,0.07313556969165802,-0.7767617106437683,0.0667220801115036,-0.905954897403717,0.363336443901062,1.625485897064209,-2.4405694007873535,-0.08461067080497742,1.5948375463485718,-0.4909185767173767,0.6952244639396667,0.03013255074620247,1.5529112815856934,-0.909549355506897,-1.6570158004760742,-1.051093339920044,-0.045422010123729706,0.24667562544345856,-0.17297720909118652,-0.9807785749435425,0.35554733872413635,0.37694793939590454,-0.554889976978302,-0.04489670321345329,0.25186383724212646,0.3864145874977112,0.050058357417583466,0.06807709485292435,-0.23652634024620056,0.6084030866622925,-1.4290069341659546,0.012640000320971012,-1.7450309991836548,-0.9373968839645386,-0.1931115686893463,2.3074517250061035,0.521894097328186,0.9098829030990601,-1.0418652296066284,-2.2461307048797607,0.34883913397789,-1.5564929246902466,2.2563772201538086,0.3399702310562134,0.694461464881897,2.1123759746551514,0.8465317487716675,2.5067086219787598,-3.4429945945739746,2.254700183868408,0.32760384678840637,1.414562463760376,0.6479184627532959,-0.8506118059158325,-0.03672783821821213,-1.0001990795135498,0.5490525960922241,1.1614036560058594,1.0684635639190674,-0.10098859667778015,-2.63588547706604,0.9540112018585205,-0.40332889556884766,0.009910039603710175,0.13098692893981934,2.113654136657715,-0.36948278546333313,0.25872111320495605,-0.9795799255371094,1.9693371057510376,1.5698682069778442,-1.5858969688415527,1.1773757934570312,-0.8259724974632263,0.024526692926883698,-0.8852152824401855,-0.4168034493923187,-0.9841272234916687,2.5492477416992188,-1.803688406944275,2.1694328784942627,-0.34309467673301697,-1.003119945526123,0.380243182182312,-0.06390529870986938,-2.3368353843688965,-1.2385333776474,0.537509024143219,-2.5350379943847656,2.6569271087646484,-1.093531847000122,-1.218705415725708,0.3498099148273468,-0.6124411225318909,1.2593848705291748,-0.3217563331127167,-0.14361771941184998,0.45474421977996826,-0.025751318782567978,0.7466282248497009,-0.5860632658004761,-0.433099627494812,-1.771978497505188,-0.167552188038826,-0.2766708433628082,-2.6035289764404297,0.39135152101516724,-1.1440008878707886,1.00858473777771,-0.280037522315979,-2.2390997409820557,0.9689185619354248,-0.06076326593756676,1.8018205165863037,-0.3342384696006775,0.2582549452781677,-0.10380386561155319,0.15435852110385895,0.3640143871307373,-0.968729555606842,1.1559412479400635,-0.22406601905822754,0.9274895191192627,0.9487343430519104,-0.13463245332241058,0.1311848759651184,0.6207396984100342,0.6830238103866577,0.03136906027793884,1.4998469352722168,