{"type":"LSTM","options":{"inputSize":48,"inputRange":48,"hiddenLayers":[20,20],"outputSize":48,"decayRate":0.999,"smoothEps":1e-8,"regc":0.000001,"clipval":5,"maxPredictionLength":100,"dataFormatter":{"indexTable":{"1":39,"2":42,"I":0," ":1,"e":2,"n":3,"j":4,"o":5,"y":6,"d":7,"m":8,"t":9,"i":10,"g":11,"h":12,"r":13,"p":14,"l":15,"a":16,"u":17,":":18,")":19,"P":20,"R":21,"s":22,"M":23,"v":24,"J":25,"c":26,"!":27,"S":28,"F":29,"x":30,"w":31,"b":32,".":33,"q":34,"T":35,"k":36,"f":37,"B":38,"W":40,"L":41,"'":43,"C":44,"stop-input":45,"start-output":46,"unrecognized":47},"characterTable":{"0":"I","1":" ","2":"e","3":"n","4":"j","5":"o","6":"y","7":"d","8":"m","9":"t","10":"i","11":"g","12":"h","13":"r","14":"p","15":"l","16":"a","17":"u","18":":","19":")","20":"P","21":"R","22":"s","23":"M","24":"v","25":"J","26":"c","27":"!","28":"S","29":"F","30":"x","31":"w","32":"b","33":".","34":"q","35":"T","36":"k","37":"f","38":"B","39":"1","40":"W","41":"L","42":"2","43":"'","44":"C","45":null,"46":null,"47":null},"values":[{"input":"I enjoyed meeting other people and helping them out :)","output":"Peer Relations"},{"input":"I enjoyed meeting other people and helping them out :)","output":"Peer Relations"},{"input":"Meeting everyone and learning Javascript!","output":"Peer Relations"},{"input":"Starting the Flixster project","output":"Material"},{"input":"I enjoyed meeting other people and helping them out :)","output":"Peer Relations"},{"input":"Meeting everyone and learning Javascript!","output":"Peer Relations"},{"input":"Starting the Flixster project","output":"Material"},{"input":"I enjoyed meeting other people and helping them out :)","output":"Peer Relations"},{"input":"Meeting everyone and learning Javascript!","output":"Peer Relations"},{"input":"It was great being in person again and being able to collaborate with other interns in person.","output":"Peer Relations"},{"input":"Starting the Flixster project","output":"Material"},{"input":"Starting the project and learning debugging techniques throughout the lab","output":"Material"},{"input":"I enjoyed meeting other people and helping them out :)","output":"Peer Relations"},{"input":"Meeting everyone and learning Javascript!","output":"Peer Relations"},{"input":"It was great being in person again and being able to collaborate with other interns in person.","output":"Peer Relations"},{"input":"Starting the Flixster project","output":"Material"},{"input":"Starting the project and learning debugging techniques throughout the lab","output":"Material"},{"input":"The walkthroughs are useful","output":"Material"},{"input":"I enjoyed meeting other people and helping them out :)","output":"Peer Relations"},{"input":"Meeting everyone and learning Javascript!","output":"Peer Relations"},{"input":"It was great being in person again and being able to collaborate with other interns in person.","output":"Peer Relations"},{"input":"Starting the Flixster project","output":"Material"},{"input":"Starting the project and learning debugging techniques throughout the lab","output":"Material"},{"input":"The walkthroughs are useful","output":"Material"},{"input":"Being able to make pretty good progress on Project 1","output":"Material"},{"input":"I enjoyed meeting other people and helping them out :)","output":"Peer Relations"},{"input":"Meeting everyone and learning Javascript!","output":"Peer Relations"},{"input":"It was great being in person again and being able to collaborate with other interns in person.","output":"Peer Relations"},{"input":"Starting the Flixster project","output":"Material"},{"input":"Starting the project and learning debugging techniques throughout the lab","output":"Material"},{"input":"The walkthroughs are useful","output":"Material"},{"input":"Being able to make pretty good progress on Project 1","output":"Material"},{"input":"I enjoyed meeting other people and helping them out :)","output":"Peer Relations"},{"input":"Meeting everyone and learning Javascript!","output":"Peer Relations"},{"input":"It was great being in person again and being able to collaborate with other interns in person.","output":"Peer Relations"},{"input":"Working in groups on the Flixter assignment","output":"Peer Relations"},{"input":"Starting the Flixster project","output":"Material"},{"input":"Starting the project and learning debugging techniques throughout the lab","output":"Material"},{"input":"The walkthroughs are useful","output":"Material"},{"input":"Being able to make pretty good progress on Project 1","output":"Material"},{"input":"I enjoyed meeting other people and helping them out :)","output":"Peer Relations"},{"input":"Meeting everyone and learning Javascript!","output":"Peer Relations"},{"input":"It was great being in person again and being able to collaborate with other interns in person.","output":"Peer Relations"},{"input":"Working in groups on the Flixter assignment","output":"Peer Relations"},{"input":"Brainstorming in groups","output":"Peer Relations"},{"input":"Starting the Flixster project","output":"Material"},{"input":"Starting the project and learning debugging techniques throughout the lab","output":"Material"},{"input":"The walkthroughs are useful","output":"Material"},{"input":"Being able to make pretty good progress on Project 1","output":"Material"},{"input":"Working on Lab 2","output":"Material"},{"input":"I enjoyed meeting other people and helping them out :)","output":"Peer Relations"},{"input":"Meeting everyone and learning Javascript!","output":"Peer Relations"},{"input":"It was great being in person again and being able to collaborate with other interns in person.","output":"Peer Relations"},{"input":"Working in groups on the Flixter assignment","output":"Peer Relations"},{"input":"Brainstorming in groups","output":"Peer Relations"},{"input":"Starting the Flixster project","output":"Material"},{"input":"Starting the project and learning debugging techniques throughout the lab","output":"Material"},{"input":"The walkthroughs are useful","output":"Material"},{"input":"Being able to make pretty good progress on Project 1","output":"Material"},{"input":"Working on Lab 2","output":"Material"},{"input":"That I could finish the Lab and solve many questions that I had","output":"Material"},{"input":"I enjoyed meeting other people and helping them out :)","output":"Peer Relations"},{"input":"Meeting everyone and learning Javascript!","output":"Peer Relations"},{"input":"It was great being in person again and being able to collaborate with other interns in person.","output":"Peer Relations"},{"input":"Working in groups on the Flixter assignment","output":"Peer Relations"},{"input":"Brainstorming in groups","output":"Peer Relations"},{"input":"Starting the Flixster project","output":"Material"},{"input":"Starting the project and learning debugging techniques throughout the lab","output":"Material"},{"input":"The walkthroughs are useful","output":"Material"},{"input":"Being able to make pretty good progress on Project 1","output":"Material"},{"input":"Working on Lab 2","output":"Material"},{"input":"That I could finish the Lab and solve many questions that I had","output":"Material"},{"input":"That we could work on wathever we want of this week's projects","output":"Material"},{"input":"I enjoyed meeting other people and helping them out :)","output":"Peer Relations"},{"input":"Meeting everyone and learning Javascript!","output":"Peer Relations"},{"input":"It was great being in person again and being able to collaborate with other interns in person.","output":"Peer Relations"},{"input":"Working in groups on the Flixter assignment","output":"Peer Relations"},{"input":"Brainstorming in groups","output":"Peer Relations"},{"input":"Starting the Flixster project","output":"Material"},{"input":"Starting the project and learning debugging techniques throughout the lab","output":"Material"},{"input":"The walkthroughs are useful","output":"Material"},{"input":"Being able to make pretty good progress on Project 1","output":"Material"},{"input":"Working on Lab 2","output":"Material"},{"input":"That I could finish the Lab and solve many questions that I had","output":"Material"},{"input":"That we could work on wathever we want of this week's projects","output":"Material"},{"input":"I enjoyed meeting other people and helping them out :)","output":"Peer Relations"},{"input":"Meeting everyone and learning Javascript!","output":"Peer Relations"},{"input":"It was great being in person again and being able to collaborate with other interns in person.","output":"Peer Relations"},{"input":"Working in groups on the Flixter assignment","output":"Peer Relations"},{"input":"Brainstorming in groups","output":"Peer Relations"},{"input":"our group is bonding! j vibin w everyone","output":"Peer Relations"},{"input":"Starting the Flixster project","output":"Material"},{"input":"Starting the project and learning debugging techniques throughout the lab","output":"Material"},{"input":"The walkthroughs are useful","output":"Material"},{"input":"Being able to make pretty good progress on Project 1","output":"Material"},{"input":"Working on Lab 2","output":"Material"},{"input":"That I could finish the Lab and solve many questions that I had","output":"Material"},{"input":"That we could work on wathever we want of this week's projects","output":"Material"},{"input":"The demos","output":"Material"},{"input":"I enjoyed meeting other people and helping them out :)","output":"Peer Relations"},{"input":"Meeting everyone and learning Javascript!","output":"Peer Relations"},{"input":"It was great being in person again and being able to collaborate with other interns in person.","output":"Peer Relations"},{"input":"Working in groups on the Flixter assignment","output":"Peer Relations"},{"input":"Brainstorming in groups","output":"Peer Relations"},{"input":"our group is bonding! j vibin w everyone","output":"Peer Relations"},{"input":"Starting the Flixster project","output":"Material"},{"input":"Starting the project and learning debugging techniques throughout the lab","output":"Material"},{"input":"The walkthroughs are useful","output":"Material"},{"input":"Being able to make pretty good progress on Project 1","output":"Material"},{"input":"Working on Lab 2","output":"Material"},{"input":"That I could finish the Lab and solve many questions that I had","output":"Material"},{"input":"That we could work on wathever we want of this week's projects","output":"Material"},{"input":"The demos","output":"Material"},{"input":"Working on the project's CSS!","output":"Material"},{"input":"I enjoyed meeting other people and helping them out :)","output":"Peer Relations"},{"input":"Meeting everyone and learning Javascript!","output":"Peer Relations"},{"input":"It was great being in person again and being able to collaborate with other interns in person.","output":"Peer Relations"},{"input":"Working in groups on the Flixter assignment","output":"Peer Relations"},{"input":"Brainstorming in groups","output":"Peer Relations"},{"input":"our group is bonding! j vibin w everyone","output":"Peer Relations"}],"characters":["I"," ","e","n","j","o","y","d","m","t","i","g","h","r","p","l","a","u",":",")","P","R","s","M","v","J","c","!","S","F","x","w","b",".","q","T","k","f","B","1","W","L","2","'","C","stop-input","start-output","unrecognized"],"specialIndexes":[45,46,47]}},"trainOpts":{"iterations":100,"errorThresh":0.005,"log":true,"logPeriod":10,"learningRate":0.01,"callbackPeriod":10,"timeout":"Infinity"},"input":{"rows":49,"columns":48,"weights":[0.11897574365139008,0.6636404395103455,0.8023057579994202,1.0954692363739014,0.8549091815948486,-0.09775867313146591,0.3619915544986725,1.0419384241104126,0.5247933268547058,-0.4068416357040405,-0.8948259949684143,0.49218234419822693,0.5793572664260864,-1.4435685873031616,-1.4784040451049805,1.0472277402877808,0.32269561290740967,0.915664553642273,-0.679522693157196,-0.37319833040237427,-1.7238986492156982,0.9455353021621704,0.05716095492243767,0.6420037746429443,0.36380016803741455,-0.8250058889389038,-1.0252327919006348,0.2465064376592636,0.9064287543296814,0.7505717277526855,0.505617618560791,0.5262389779090881,-1.064961552619934,-1.0768110752105713,0.797208845615387,-0.6679522395133972,0.8435797691345215,0.18548469245433807,1.4058761596679688,0.13920828700065613,1.389419436454773,0.44598275423049927,0.3406580984592438,1.9547010660171509,-1.2437106370925903,-0.2520902156829834,-0.2945864498615265,0.1571705937385559,1.1664458513259888,-2.7749149799346924,-1.9715888500213623,-2.9636573791503906,1.3021345138549805,1.176791787147522,4.916240692138672,1.0609263181686401,0.38562873005867004,1.8522474765777588,7.145452499389648,5.378772258758545,2.002815008163452,0.6478743553161621,2.9819207191467285,-0.06488344073295593,4.184497356414795,1.5182117223739624,0.6661676168441772,-5.572011947631836,0.7548977732658386,-2.2394556999206543,1.013658881187439,-0.7628237009048462,-0.07125135511159897,0.9850964546203613,4.811854839324951,-3.1005420684814453,-1.8489584922790527,0.4183551073074341,0.3147374093532562,-0.38628143072128296,1.1613965034484863,1.9511891603469849,1.6441158056259155,-4.489566802978516,0.14897386729717255,-1.195683479309082,-0.549164891242981,-4.562679290771484,-0.21423818171024323,-0.29057013988494873,-0.944527804851532,-2.2551071643829346,-3.6791391372680664,-1.3781856298446655,-1.4440367221832275,-0.8469421863555908,0.20657622814178467,0.5880751609802246,2.9514882564544678,0.6360816359519958,-0.0522262305021286,0.08528950065374374,-0.5421010851860046,0.025036385282874107,-0.2584608197212219,-0.5764857530593872,-1.0873277187347412,-1.4588139057159424,-0.1225973591208458,0.4842364490032196,0.8481839299201965,-1.7599073648452759,-0.3821756839752197,-0.2945573031902313,0.3325921297073364,-0.9147880673408508,-2.8243677616119385,2.9665462970733643,-0.8635926842689514,-0.07720110565423965,0.6476700305938721,1.0014747381210327,-0.003125534625723958,2.674485921859741,0.9755591750144958,1.2534661293029785,0.08493561297655106,-1.0320805311203003,-0.12225115299224854,-1.3755829334259033,1.514555811882019,1.838332176208496,1.7287722826004028,0.01920405775308609,0.8973449468612671,1.1387966871261597,0.22539202868938446,1.1720399856567383,0.16224300861358643,0.48702144622802734,-1.067695140838623,-0.14075826108455658,1.417253851890564,-0.3355822265148163,0.3852386474609375,3.4454212188720703,0.3468150794506073,2.2479007244110107,0.03130069375038147,-0.026930326595902443,-0.6291925311088562,0.5573036670684814,-2.7141823768615723,-0.2942553460597992,0.2939683794975281,-0.6921385526657104,0.27332863211631775,-0.13537375628948212,0.19595611095428467,-1.8062046766281128,-0.5509178042411804,1.351622462272644,1.933111310005188,-0.3886401057243347,-0.1488124281167984,-0.0033393085468560457,-2.6848363876342773,0.17480745911598206,1.9044349193572998,-0.1323380321264267,-0.30166953802108765,0.5223051905632019,1.9847315549850464,0.6364066004753113,1.1272673606872559,-0.17351077497005463,-0.3152410089969635,-0.09855835139751434,-1.2872487306594849,1.0532164573669434,0.6555823087692261,0.6909083724021912,1.6192184686660767,2.3299920558929443,-0.5612689852714539,0.13216842710971832,0.17163720726966858,2.34867787361145,-1.4843809604644775,0.17477157711982727,0.6461414098739624,-0.34510934352874756,0.07338137179613113,2.0623691082000732,0.43542546033859253,0.3249926269054413,-0.16576163470745087,0.6288433074951172,0.12901821732521057,-0.44152671098709106,-0.8185566663742065,-0.41386279463768005,1.4877358675003052,-1.5567933320999146,0.10515616834163666,0.47362953424453735,0.363596111536026,-0.8269784450531006,-0.36211398243904114,-1.4507737159729004,0.8297346830368042,-0.19761726260185242,0.5336812734603882,1.4846155643463135,-3.2883005142211914,-0.11476932466030121,-0.6238119602203369,0.8318607211112976,0.3878321051597595,0.7005866169929504,0.4969311058521271,1.2696948051452637,-1.3277947902679443,-0.21475614607334137,0.6141133904457092,-0.7013553380966187,-1.010198950767517,1.675416111946106,0.5856132507324219,0.6396222710609436,-0.7274850010871887,2.4936747550964355,-1.0715861320495605,0.6220553517341614,0.2951861321926117,-0.33395031094551086,-0.36908432841300964,-1.0783144235610962,1.0819042921066284,-1.2220171689987183,-0.33690235018730164,-3.5659546852111816,0.021676676347851753,-4.479228496551514,-0.8006895184516907,0.9668490886688232,-0.18479402363300323,-2.743194580078125,3.941483736038208,-0.25547289848327637,-0.21158012747764587,-0.09124407172203064,-0.5874115228652954,0.6197755336761475,0.7440295219421387,1.4423363208770752,-1.6000385284423828,-2.6920697689056396,-1.1946020126342773,1.1583906412124634,-0.5112419128417969,-1.0783334970474243,5.39639139175415,0.8962041735649109,0.49767959117889404,-2.4592127799987793,-1.1927217245101929,1.6772152185440063,-1.832848072052002,-1.3558862209320068,-2.7414772510528564,0.9954135417938232,0.37706875801086426,2.540154457092285,-1.3147838115692139,1.1108769178390503,-0.7470172643661499,0.38199999928474426,-3.030698537826538,-1.1977713108062744,-0.8981989026069641,0.6958858370780945,-1.0809096097946167,-2.9946341514587402,1.2822595834732056,-0.5124361515045166,0.20527291297912598,1.6581544876098633,-0.2308371514081955,-0.9727789759635925,0.006078148260712624,-0.5036620497703552,-0.28429895639419556,0.4975043535232544,0.2967930734157562,-0.3845973610877991,-0.7296379208564758,0.22778412699699402,-0.08802641928195953,-0.4063090980052948,0.4758286774158478,-0.4641213119029999,0.017444217577576637,-0.29111161828041077,-0.13513517379760742,0.7364445328712463,0.7731286883354187,-1.4202953577041626,0.006767644081264734,0.13079999387264252,-0.7815954089164734,-0.24678221344947815,0.9028902053833008,0.7873347401618958,0.7273595929145813,0.5216385126113892,0.8359086513519287,0.9922499656677246,1.5757875442504883,-0.12438890337944031,-0.2305608093738556,-0.17548231780529022,1.181448221206665,0.45769768953323364,-0.13399723172187805,0.36744046211242676,1.3788758516311646,-0.005380893591791391,0.13819758594036102,0.25921061635017395,-0.33416643738746643,-0.24993933737277985,-0.5836278200149536,-0.20920592546463013,0.7347169518470764,-0.3305233418941498,0.411243200302124,4.617580413818359,-0.20546506345272064,0.8464668989181519,-2.4602160453796387,-4.11485481262207,-2.511535406112671,1.0718321800231934,0.3963366448879242,-1.6076325178146362,-2.877668857574463,-2.090285539627075,-3.7230336666107178,-2.5398032665252686,-0.3030138313770294,-3.895448923110962,-3.9875757694244385,-1.0969467163085938,-3.538938522338867,0.9467913508415222,1.1418859958648682,1.0294519662857056,-1.636468768119812,0.8188280463218689,1.3123478889465332,-1.8105632066726685,-2.1516153812408447,-0.5085689425468445,2.524005889892578,2.1904566287994385,-0.2986161410808563,1.1869033575057983,-2.7280185222625732,-1.177038311958313,-3.2179758548736572,-0.3919452726840973,1.6580750942230225,0.42930519580841064,3.3340494632720947,1.9302741289138794,0.6435651779174805,0.6935992240905762,-0.14737282693386078,0.8592658042907715,1.8189146518707275,0.37939581274986267,-1.7023588418960571,2.305999755859375,-0.41454070806503296,0.399197518825531,1.1144459247589111,-0.03556201979517937,2.329638957977295,-0.715253472328186,2.162611722946167,-0.17224237322807312,-0.2121896594762802,0.5125237107276917,2.720808267593384,-0.4595507085323334,-2.1179633140563965,2.4817006587982178,2.475705862045288,-3.3989555835723877,3.857478380203247,-0.4154479205608368,-0.5591825842857361,-0.9773897528648376,-0.23330652713775635,-4.190427303314209,-0.011706706136465073,-3.144172191619873,-0.7143158316612244,0.17384806275367737,5.642234802246094,-0.06046069413423538,-0.06702287495136261,0.34059518575668335,0.1728479266166687,-1.9362701177597046,5.325852870941162,2.5596742630004883,-0.764636218547821,0.912630021572113,2.124842882156372,-1.0614807605743408,-1.7397856712341309,0.8058678507804871,-4.089385986328125,-1.2632865905761719,-2.763000726699829,-1.2419472932815552,0.4592205286026001,3.173760175704956,1.5370124578475952,-3.4398341178894043,-1.752223014831543,-4.036466598510742,-2.3378942012786865,0.10751667618751526,0.1597953736782074,2.284792900085449,3.9489424228668213,-0.7127191424369812,4.664524078369141,1.0613576173782349,2.1643242835998535,2.801332712173462,2.5619325637817383,-5.568341255187988,-1.9264259338378906,3.9031014442443848,3.151557445526123,0.24795220792293549,-0.3138796389102936,-2.3455846309661865,2.249053716659546,-0.18777598440647125,1.5496398210525513,0.5593150854110718,-2.749871253967285,-2.118974447250366,0.8296366333961487,-1.924593448638916,-2.80442476272583,-0.3560958802700043,0.1860681027173996,1.6516282558441162,-1.260590672492981,1.5783525705337524,1.0498284101486206,-3.4957070350646973,-1.7040473222732544,-0.6238226890563965,-1.9313538074493408,-3.458376884460449,2.5530316829681396,1.4289915561676025,-1.5492053031921387,-1.5765691995620728,-2.5893595218658447,-0.1464867740869522,-1.1064311265945435,1.0409812927246094,-0.023028729483485222,2.6592864990234375,0.5576814413070679,1.5671072006225586,3.832292079925537,0.12148389965295792,1.029903531074524,-0.24984848499298096,-0.23686851561069489,1.499837040901184,-0.19700121879577637,0.9562767744064331,-0.594883382320404,0.3480367362499237,1.9523435831069946,-1.4100624322891235,0.3583778738975525,0.1175759881734848,-0.8051740527153015,0.7518675327301025,0.9626193046569824,0.2899988889694214,0.39639854431152344,-0.02040318213403225,0.4592266082763672,-1.33733069896698,2.6353700160980225,0.666301429271698,0.26091429591178894,-1.0108578205108643,-0.2879275679588318,-1.3253904581069946,5.15618896484375,-0.08576337993144989,-1.1706057786941528,1.096384048461914,2.4802520275115967,-0.02792011760175228,-0.4065558612346649,-0.0657060369849205,0.09686346352100372,-2.600661039352417,1.0029537677764893,0.11698143184185028,-0.003339886199682951,3.787970542907715,-1.829870581626892,-2.559065341949463,-0.676548182964325,-0.01081224624067545,2.461603879928589,2.996450185775757,1.2089043855667114,1.201900601387024,0.053215134888887405,0.6187540888786316,-0.4682927429676056,0.20388847589492798,-0.7823699116706848,0.01296329963952303,-0.6157839894294739,0.798115074634552,0.690199077129364,-2.3397350311279297,0.40455448627471924,0.5099741816520691,-0.2531644105911255,-1.7710697650909424,-1.4100309610366821,-0.08316954970359802,-0.45159149169921875,-0.005419202148914337,0.6572288274765015,0.321289598941803,2.8628790378570557,-0.668818473815918,1.8470022678375244,1.2156420946121216,0.5676584243774414,-1.2998777627944946,4.705827713012695,-0.021649472415447235,-0.10108955204486847,-0.5685027241706848,2.2369675636291504,0.9841664433479309,0.6425435543060303,1.3010786771774292,-0.9927669763565063,-1.0771015882492065,-0.9664216041564941,0.6084839701652527,-0.5063560009002686,3.2848174571990967,0.2498370110988617,-1.7624787092208862,-0.2257026880979538,-0.522547721862793,0.5280478000640869,-0.051361218094825745,-0.30904629826545715,0.9561260938644409,0.033819083124399185,-0.007959790527820587,0.33868709206581116,0.28852957487106323,-1.323960781097412,0.26261621713638306,0.6299248933792114,3.514401435852051,-0.511818528175354,-0.9285873770713806,0.364351749420166,-0.7254980206489563,-0.6703826785087585,2.0249648094177246,0.5350103974342346,0.020989209413528442,2.024883985519409,-0.16830508410930634,0.3321584463119507,-1.5671377182006836,0.5277941823005676,0.46404626965522766,0.07354285567998886,-2.4597504138946533,-0.30539682507514954,0.10830580443143845,2.536142587661743,-0.21499918401241302,0.40129533410072327,-0.37100648880004883,1.61387038230896,0.9058728814125061,-1.2587898969650269,-1.0384892225265503,-0.3880475163459778,-2.408921957015991,-0.4476187229156494,-0.7287055253982544,1.0560133457183838,2.5648763179779053,-1.9237362146377563,0.7548006772994995,0.4142915606498718,-3.12170147895813,-0.6694267988204956,0.48441168665885925,-0.1914001852273941,-0.42214471101760864,0.5849582552909851,1.1350970268249512,-0.7808069586753845,0.8721995949745178,-0.3301989734172821,-0.14403179287910461,-0.2524385452270508,-0.5373149514198303,-0.36714643239974976,-0.49912214279174805,0.16448825597763062,1.9649300575256348,-0.03786034509539604,-3.1710031032562256,0.7728443741798401,-1.6638031005859375,1.0194900035858154,-0.05265797674655914,0.8239482641220093,0.41946274042129517,3.0984742641448975,-2.910449504852295,-0.18826010823249817,0.8436505198478699,2.1288440227508545,2.766007900238037,3.659524917602539,0.9557284712791443,-2.7008354663848877,-3.228531837463379,1.6330868005752563,-0.49205201864242554,1.270786166191101,0.42821386456489563,1.7257217168807983,1.480590581893921,-0.13494202494621277,1.4352452754974365,-0.8746006488800049,1.8458470106124878,-0.2770386040210724,-0.9114397168159485,-0.15531471371650696,0.5987237691879272,1.0144585371017456,0.060536377131938934,-0.3122265934944153,-0.5403487086296082,-0.4774743914604187,1.0983787775039673,0.06253039836883545,-0.22598758339881897,-0.5427844524383545,-0.2591856122016907,-0.2526977062225342,-1.4777697324752808,-0.5962814688682556,-0.9876664280891418,0.5515364408493042,0.12212668359279633,-0.0803576409816742,0.24643723666667938,-1.232768177986145,-0.36273282766342163,-0.14682511985301971,0.2824668884277344,-1.0174256563186646,-0.39580976963043213,-0.2508481442928314,-0.3969229757785797,-0.06124107912182808,0.6112993359565735,0.4718851149082184,-0.18496522307395935,-1.1724494695663452,1.0504021644592285,0.5289697647094727,-0.0800904706120491,1.5637258291244507,-0.7175279259681702,-0.13368293642997742,0.15658780932426453,1.0926870107650757,1.8669379949569702,-0.16863608360290527,0.016123535111546516,-0.7036433815956116,-1.2780448198318481,-0.1724347174167633,-0.36645185947418213,-1.0031667947769165,-0.7829449772834778,0.9648589491844177,2.5942044258117676,-1.878458857536316,-0.13713644444942474,-0.9246530532836914,-0.2566012442111969,-1.2858835458755493,-1.5053242444992065,-1.5204142332077026,-2.5463290214538574,-0.3805271089076996,0.8224822282791138,-1.5260941982269287,0.49243777990341187,0.361011803150177,0.1525123119354248,0.31161558628082275,0.3302667438983917,-1.538282036781311,-0.9938063025474548,-0.64982008934021,-0.27017951011657715,0.5136371850967407,0.633438229560852,0.03181547299027443,0.009547586552798748,2.515650510787964,0.4906843900680542,0.8186562061309814,0.7094670534133911,1.6645020246505737,-0.2065630406141281,0.7640306353569031,0.8810401558876038,-1.5328611135482788,1.2389311790466309,1.8208640813827515,0.22587384283542633,-0.8602559566497803,-1.1079719066619873,-0.2657190263271332,0.5312316417694092,2.881624937057495,1.9263445138931274,1.8743410110473633,0.7846266627311707,0.21752052009105682,-2.057224750518799,-1.4225902557373047,-0.9845637679100037,0.1301637887954712,0.49977657198905945,0.8450111150741577,-1.3336880207061768,0.5583681464195251,0.7320808172225952,-1.0042407512664795,-0.03314576297998428,-0.1184747964143753,0.39987096190452576,0.26228514313697815,1.3993067741394043,0.07057935744524002,-0.6427714824676514,-0.17765386402606964,-0.8452747464179993,0.6705775260925293,-0.7772108912467957,1.7033792734146118,-1.1010829210281372,-1.2965600490570068,-0.5396684408187866,0.8583365678787231,0.47621485590934753,-2.785673141479492,-1.415764331817627,-0.7071713805198669,-0.3062423765659332,0.4294051229953766,1.216017246246338,-0.6773697733879089,0.35787495970726013,-1.4520620107650757,-2.112614393234253,-1.0700066089630127,-0.29942652583122253,0.9965851306915283,0.78547602891922,0.6687981486320496,-1.568128228187561,0.540067732334137,0.06590577960014343,0.2886025011539459,0.5493058562278748,-1.1875336170196533,-0.598727285861969,-0.5489954352378845,1.08131742477417,1.9615018367767334,1.2267909049987793,0.24206669628620148,-0.32721126079559326,-2.68103289604187,1.4226305484771729,-0.05682558938860893,-1.166749358177185,1.0838602781295776,0.007865112274885178,0.41820937395095825,-1.7377232313156128,-0.6052531003952026,1.1120600700378418,1.6220937967300415,-1.1207919120788574,0.9154755473136902,0.9600932598114014,-1.2930643558502197,-0.49125728011131287,2.2239019870758057,1.8608914613723755,2.379869222640991,-0.44196587800979614,1.6753652095794678,0.5247331261634827,1.9631497859954834,-0.9462251663208008,2.903195381164551,-2.0301480293273926,-1.4357632398605347,0.6615222096443176,0.5986852645874023,1.6445064544677734,0.2570902407169342,0.6362361311912537,-1.0779231786727905,-0.23876003921031952,-0.940369188785553,1.1438266038894653,-0.6502139568328857,0.7535117864608765,-0.8766335844993591,-2.065621852874756,-0.9113011360168457,4.317596435546875,0.5846315026283264,1.0088574886322021,2.458251476287842,1.9478480815887451,-1.0997607707977295,0.4971827566623688,-2.57979679107666,1.9914864301681519,-2.0268495082855225,0.4473148286342621,1.4227043390274048,0.9972044229507446,2.253196954727173,-1.3237916231155396,-1.0654847621917725,0.24125166237354279,1.5429409742355347,-2.6352529525756836,0.5920383334159851,0.9695234298706055,-1.4138323068618774,-1.175506591796875,2.328918933868408,2.920881509780884,1.9231717586517334,-0.13962864875793457,0.5662914514541626,-2.0293197631835938,-0.038710154592990875,0.5480138063430786,-0.7791000008583069,-2.190495252609253,0.680205762386322,0.47240155935287476,1.601810097694397,1.3222694396972656,3.467571496963501,2.66424298286438,-2.735198736190796,1.2911683320999146,-0.11412348598241806,2.132037401199341,-3.3825409412384033,-0.11486130952835083,-0.16201329231262207,-1.969264268875122,3.5734870433807373,2.1086151599884033,-2.2984468936920166,-5.993776321411133,-6.137967586517334,-2.1400387287139893,-3.200021982192993,0.060319215059280396,-2.7080416679382324,-7.7082600593566895,-0.4687044322490692,-7.56278133392334,0.8553330302238464,-4.099910259246826,3.7101972103118896,-1.862338900566101,-5.838067054748535,2.7216579914093018,4.621140956878662,-6.919793128967285,3.274646043777466,7.529320240020752,0.44194698333740234,7.180911540985107,5.752111911773682,4.719724178314209,-5.619752883911133,-5.06780481338501,3.652813673019409,3.939589262008667,2.39788556098938,2.157966136932373,-5.291285514831543,-3.1545817852020264,-1.5822778940200806,-7.012303829193115,-2.660790205001831,-0.1522892266511917,5.651495933532715,1.992492914199829,1.646504282951355,5.987895965576172,1.992973804473877,5.5900959968566895,-3.075425624847412,-13.320322036743164,-3.099609375,5.612205982208252,4.0855937004089355,-3.4752678871154785,3.382453203201294,-0.959080696105957,-5.64919900894165,-2.6430294513702393,-4.044719696044922,-1.3231031894683838,1.9999346733093262,-6.488316059112549,0.02070576883852482,-7.41998291015625,0.8257014155387878,-3.8781893253326416,-9.236800193786621,5.056480407714844,-4.398569583892822,0.06347355991601944,1.2989107370376587,-1.820041537284851,-3.2229344844818115,0.658954918384552,3.112848997116089,5.893171787261963,2.3644113540649414,0.34721970558166504,-4.5271220207214355,3.001044511795044,4.828231334686279,2.282257556915283,2.2226438522338867,4.282569885253906,-2.6877896785736084,2.899182081222534,0.25010374188423157,2.1357619762420654,0.214659184217453,2.787841796875,3.5635387897491455,-0.8172526955604553,1.3805360794067383,1.3108881711959839,0.12428128719329834,3.988522529602051,-0.8714209794998169,-4.766486167907715,4.909425258636475,3.936291456222534,-0.5894882082939148,1.8906923532485962,-0.09068617969751358,-1.164793610572815,-1.7192083597183228,-1.3012439012527466,0.3592434227466583,1.9019436836242676,2.223802328109741,-0.5143323540687561,0.9228783249855042,0.6301164031028748,-0.9913727641105652,0.3857044279575348,-0.6876890063285828,-1.6911901235580444,0.4887329041957855,-1.1914838552474976,-2.2203423976898193,-1.5478278398513794,-0.37682655453681946,-2.821613073348999,2.295361042022705,-0.22547046840190887,-1.7142605781555176,-2.099492073059082,0.20994462072849274,-3.6221940517425537,-0.06124208867549896,-1.4674631357192993,-0.6611858010292053,1.2276968955993652,-1.2678003311157227,2.6304147243499756,1.4943259954452515,-3.5195693969726562,0.9584050178527832,-0.8672195672988892,1.974124789237976,-1.379355549812317,-1.3380359411239624,1.4605883359909058,-1.276816964149475,2.007890224456787,-2.2184557914733887,-3.207921266555786,-1.8003225326538086,1.0599879026412964,1.7548719644546509,-1.8918828964233398,1.1813688278198242,-2.3683652877807617,-2.033958911895752,-1.55693781375885,-2.0163230895996094,0.9212125539779663,-0.3070957660675049,-0.23633532226085663,0.3749599754810333,0.13883136212825775,-0.7302528619766235,-0.090959832072258,0.11556301265954971,2.436283826828003,-0.9814069867134094,-0.4924238324165344,-0.5624714493751526,1.0931061506271362,-1.7078889608383179,1.1657748222351074,2.0037882328033447,-0.38934528827667236,-0.4853569269180298,-0.741534948348999,0.13966603577136993,1.2945853471755981,-2.013420820236206,-0.5693486928939819,-0.45807594060897827,0.7037013173103333,-1.2017247676849365,0.6527519226074219,0.3073127269744873,0.6490147709846497,-1.9210920333862305,-1.009874701499939,-1.8429676294326782,-0.4468931555747986,0.17334415018558502,2.1143503189086914,2.072878360748291,-1.2883728742599487,0.6401193141937256,0.28201329708099365,1.940460205078125,1.0980027914047241,-0.34039926528930664,3.0844271183013916,1.9326443672180176,1.262582778930664,-1.1792411804199219,-0.33387452363967896,-1.6672877073287964,-0.10861215740442276,-0.8973214030265808,-1.0052447319030762,0.6530521512031555,-1.6596425771713257,-0.04671154543757439,-0.09553986042737961,-0.5654318332672119,-1.8484989404678345,-1.1245497465133667,-0.0932597890496254,0.8877295255661011,-0.14254790544509888,-1.4592689275741577,-0.9055501818656921,-3.3453900814056396,0.6630948185920715,0.36013561487197876,0.8420187830924988,-0.9417258501052856,0.8934618830680847,4.873392105102539,1.26961088180542,-0.3345637023448944,-0.3986496329307556,-1.465841293334961,-0.956387996673584,0.3524188995361328,2.2758772373199463,0.3309692144393921,2.4524707794189453,2.0393877029418945,2.2569308280944824,-1.1893048286437988,0.9285833239555359,-0.4085998833179474,0.6146190762519836,-0.4512310028076172,-1.0678913593292236,1.0381946563720703,0.20416156947612762,1.137549638748169,-1.9984424114227295,1.037086009979248,-0.23176071047782898,-4.295198917388916,-4.110032081604004,-0.9997851252555847,-2.9615414142608643,-0.8721604943275452,-1.5634815692901611,-0.6339648365974426,-1.7999109029769897,-2.779388427734375,-0.6686339974403381,-1.3048076629638672,1.1447981595993042,0.22375339269638062,-1.4071241617202759,-0.813360869884491,1.4202783107757568,-2.6973342895507812,-0.023878885433077812,3.0751874446868896,0.5226916670799255,-0.8562684655189514,-2.9831910133361816,0.1943441480398178,0.7259485125541687,-0.04369340091943741,2.1896660327911377,-0.7217050194740295,1.623365879058838,2.4997899532318115,1.6774159669876099,-3.418081283569336,-0.14316609501838684,-4.0483622550964355,-1.3715068101882935,1.3970093727111816,-2.1280577182769775,4.154478549957275,-1.728014349937439,1.1858361959457397,-1.1513524055480957,3.273042678833008,2.6192033290863037,1.7620031833648682,-0.31875407695770264,-0.2912382185459137,2.544680118560791,-5.248897552490234,-0.35819634795188904,4.129350185394287,-1.4400843381881714,2.8657009601593018,0.22262254357337952,5.526427745819092,1.6775333881378174,3.3084778785705566,2.454641580581665,-4.032341003417969,-3.538827657699585,1.341699481010437,-4.113673210144043,5.126155376434326,-1.627106785774231,-3.99729585647583,0.6243475675582886,2.172194004058838,-0.07199614495038986,0.3069198429584503,-2.4935667514801025,-6.656330108642578,-0.4689628481864929,0.17641356587409973,-2.165010452270508,-2.5119540691375732,-0.23961110413074493,-5.069934844970703,0.7919996380805969,-3.5096817016601562,1.3366382122039795,-0.5128774642944336,-1.802907109260559,2.5622029304504395,-5.089554309844971,-1.103532075881958,-1.471144676208496,-1.3750044107437134,2.300443410873413,-0.923711359500885,-1.1786243915557861,-0.26181551814079285,-3.1137588024139404,-2.3300838470458984,-2.6370606422424316,1.054600477218628,-1.7673848867416382,9.063650131225586,-0.9369317293167114,-6.2851738929748535,-4.500425338745117,-5.37529993057251,4.134491920471191,3.5201339721679688,-4.736171245574951,-3.949061393737793,-3.7130885124206543,-3.390110731124878,-6.678071975708008,-2.8719046115875244,3.9372496604919434,-1.5355125665664673,0.4924635887145996,-3.2594268321990967,4.8726725578308105,-7.256105899810791,-1.2188036441802979,1.2951308488845825,4.038727283477783,-0.657480001449585,-3.0093584060668945,-1.032960057258606,0.8336583375930786,2.9449334144592285,5.906904697418213,5.179914474487305,2.5552732944488525,-4.404698371887207,-0.39614570140838623,-1.2984424829483032,-1.1360522508621216,-3.7973945140838623,4.437347412109375,1.445961356163025,1.6326355934143066,6.9033637046813965,7.354335784912109,2.6382298469543457,1.3757131099700928,2.9072651863098145,0.796491265296936,3.824434757232666,6.177153587341309,0.9553171396255493,0.0486774742603302,1.1484375,0.09798877686262131,1.1430647373199463,1.8698402643203735,-2.0715763568878174,-0.6438118815422058,-2.871090888977051,-0.022426310926675797,0.2962324023246765,0.030256783589720726,0.5488297939300537,1.946109414100647,0.5010724067687988,0.4124268591403961,-2.363990068435669,0.7379477620124817,1.9497036933898926,0.2799283266067505,-1.3959492444992065,1.2319904565811157,-2.9017257690429688,1.4885579347610474,3.3815572261810303,1.5389751195907593,-0.40996024012565613,2.279888391494751,0.3863917291164398,-0.40430617332458496,0.01826934702694416,-1.296556830406189,-0.6883682608604431,-1.4661693572998047,0.8282637596130371,2.52510404586792,-0.8530389666557312,-0.6712257266044617,1.522438406944275,-0.7309382557868958,0.3768501877784729,-0.36298128962516785,1.2354836463928223,2.5205612182617188,-1.8498221635818481,1.0966267585754395,2.588359832763672,0.1169988140463829,4.115009307861328,4.846853256225586,-1.0559041500091553,3.062396764755249,6.877080917358398,-3.306358814239502,-8.535691261291504,-1.1089779138565063,-3.4592385292053223,3.7400550842285156,-5.740340709686279,-7.819027900695801,-0.027301305904984474,-4.081593990325928,1.2666372060775757,-6.548490524291992,-5.8217878341674805,-0.1620006263256073,-1.5014032125473022,0.41755127906799316,2.417933225631714,9.986101150512695,-3.5110340118408203,5.810210227966309,2.714595079421997,-2.908431053161621,-9.140702247619629,3.9174106121063232,0.13034799695014954,7.203438758850098,-1.3012983798980713,-2.951975107192993,-0.10703661292791367,-5.039196491241455,-6.75132417678833,3.203758478164673,5.370891571044922,-4.494797229766846,-4.198435306549072,1.2531830072402954,-0.17188751697540283,-1.2944430112838745,4.793179988861084,-1.5552911758422852,0.8994027972221375,-1.2461758852005005,1.7049435377120972,-0.28499844670295715,-0.6816661357879639,-0.17974244058132172,0.7744811773300171,1.4999370574951172,-0.5101927518844604,0.9342371225357056,-0.7912795543670654,-0.5699408650398254,3.672823667526245,0.4765695035457611,0.3563072085380554,2.094775676727295,-2.506345510482788,-8.216531753540039,1.542190670967102,1.5192919969558716,0.030196145176887512,-5.062892913818359,-2.466183662414551,-4.076648235321045,-1.4548147916793823,3.8074162006378174,0.40537601709365845,1.5657004117965698,-4.513355731964111,-1.0195120573043823,-0.9518287777900696,2.5887868404388428,1.9969215393066406,-1.8890361785888672,-7.369141101837158,-1.961277723312378,-3.141691207885742,0.2981570363044739,-3.6995484828948975,0.14040152728557587,-0.056485921144485474,-2.5520472526550293,-1.9100946187973022,-1.6015753746032715,4.901916980743408,4.849470138549805,0.42753586173057556,-1.8101803064346313,-2.969599962234497,-7.168646812438965,0.24594438076019287,-0.22485119104385376,-1.68222975730896,-0.28138992190361023,2.206037998199463,1.0786337852478027,1.475099802017212,-3.114976406097412,2.18831205368042,4.5321502685546875,2.4346864223480225,1.4085309505462646,1.9176511764526367,2.259485960006714,-2.1782894134521484,1.831474781036377,0.5999219417572021,-0.18151257932186127,0.556671142578125,-4.46051549911499,-1.0687377452850342,4.136867523193359,3.2030718326568604,-3.9186763763427734,-2.6677160263061523,-2.4676754474639893,-3.3785667419433594,-2.2999491691589355,2.976672410964966,-3.0942957401275635,0.32852619886398315,0.15545330941677094,-2.486222982406616,-1.669743299484253,0.3776843547821045,2.8881900310516357,-4.53324556350708,-2.3404700756073,0.19851484894752502,-1.0226601362228394,-2.081724166870117,3.474205732345581,-3.308231830596924,-2.752401351928711,-1.36770498752594,3.8496034145355225,1.4369685649871826,4.341982364654541,0.09653449803590775,-3.099025249481201,-0.7520754933357239,0.8619685173034668,1.6266942024230957,-2.6882309913635254,1.3052966594696045,-1.1163543462753296,0.8077760338783264,3.1157028675079346,4.2238688468933105,1.955322265625,0.44944238662719727,0.813987672328949,-2.046884536743164,2.7995786666870117,3.27994966506958,-0.1782439649105072,1.0257933139801025,-4.1782121658325195,-2.879908800125122,4.712289333343506,-1.1108454465866089,-0.44169577956199646,1.2322331666946411,-1.8896198272705078,-4.235342502593994,-4.724882125854492,3.538269281387329,1.3339717388153076,-4.172729969024658,0.583997905254364,-3.3668906688690186,-1.7550275325775146,-0.6451221108436584,2.458949089050293,0.42423301935195923,0.7584922313690186,0.2700325548648834,-2.8583011627197266,-2.223752975463867,-0.4070480763912201,-3.717390775680542,1.0520814657211304,-2.363731861114502,-2.512144088745117,0.9080029726028442,3.1033639907836914,0.22513259947299957,-1.447115182876587,-3.2347984313964844,-5.2940802574157715,-0.07489984482526779,0.17022325098514557,-0.7900171875953674,-1.3049192428588867,5.381821632385254,0.1610010415315628,7.565603733062744,0.7498302459716797,1.1766399145126343,3.0829219818115234,1.9471886157989502,-3.1778857707977295,-2.1650946140289307,3.4554250240325928,3.5548582077026367,-2.5441792011260986,-1.3249824047088623,-0.08621355891227722,-0.47642239928245544,-2.9272096157073975,-0.5180148482322693,-2.391037940979004,-0.9622442722320557,-3.692904472351074,3.023350954055786,-1.2304438352584839,-0.8947370648384094,4.0892767906188965,0.31874847412109375,4.738156795501709,0.2988506555557251,0.6794038414955139,0.12479134649038315,-0.3506729006767273,-3.445361614227295,-0.13356582820415497,-0.7878950238227844,-2.3312554359436035,0.02043246477842331,-0.680385172367096,-3.3441240787506104,1.3276394605636597,0.21694253385066986,-0.507818341255188,3.263829231262207,-0.6380466222763062,-0.512521505355835,0.7493921518325806,-0.33107489347457886,0.3566388189792633,0.2144947350025177,2.4481029510498047,4.183208465576172,-0.8208721280097961,1.748097538948059,0.4309067130088806,4.26673698425293,2.701659917831421,1.6897101402282715,4.1814188957214355,2.779897451400757,-0.8655673265457153,3.4213125705718994,0.014363612048327923,1.1089096069335938,-0.9298316836357117,0.6329252123832703,-3.459348678588867,-1.6827163696289062,-3.2014832496643066,-1.7316992282867432,0.6784476637840271,5.257442474365234,1.1962052583694458,0.42505329847335815,-1.2030847072601318,-0.6795021891593933,-1.1944423913955688,1.0573410987854004,2.0234901905059814,2.7427849769592285,0.7539610266685486,-0.7932382225990295,0.9595962762832642,-1.6376616954803467,3.1000189781188965,-5.92293643951416,-0.7033730149269104,-4.128661632537842,-1.006750464439392,-1.566895842552185,1.43100905418396,3.2249553203582764,-1.8422983884811401,-2.229600667953491,8.654214859008789,5.699618816375732,5.0068135261535645,-2.493541717529297,-0.7073819637298584,2.4702861309051514,2.2108376026153564,1.009392261505127,-2.6633055210113525,3.1947476863861084,2.415208339691162,1.53763747215271,0.4192504286766052,2.1954345703125,-5.9828057289123535,1.6392290592193604,-1.8495814800262451,-1.0901868343353271,-2.9469423294067383,-1.8120769262313843,-2.796736717224121,-7.694938659667969,-1.757973551750183,0.060322850942611694,-0.5844534635543823,5.330917835235596,6.462458610534668,4.951217174530029,1.710220456123352,-2.0708792209625244,-1.0064098834991455,-1.7600915431976318,-0.9448816776275635,-0.8907089829444885,7.679086208343506,5.108549118041992,7.348901748657227,7.737893581390381,4.829444408416748,-1.149235725402832,-0.39176684617996216,-1.9338493347167969,0.31899598240852356,-2.133730173110962,-2.4219729900360107,5.935271739959717,-4.676059246063232,-2.8776683807373047,0.011847586371004581,-0.12805137038230896,1.9125796556472778,1.7534059286117554,0.24047325551509857,3.176440715789795,3.492687463760376,7.7906174659729,3.031028985977173,-2.146620035171509,1.8753677606582642,2.1251604557037354,1.2966235876083374,-0.9181364178657532,0.15941393375396729,2.631648063659668,-0.19041496515274048,-2.6691701412200928,4.158231258392334,-0.8922370076179504,-2.777926206588745,1.476624846458435,-2.2885897159576416,-1.6575015783309937,-6.178776741027832,1.7645151615142822,1.981136679649353,-0.34909379482269287,-3.060943603515625,-0.040991730988025665,0.1504259556531906,1.8809905052185059,2.156505584716797,3.41477632522583,-1.727733850479126,3.0448572635650635,-0.8754806518554688,-1.6157530546188354,-1.2093884944915771,-0.46515390276908875,-1.674320936203003,-3.760519504547119,-1.468816876411438,2.5455029010772705,2.444375991821289,-0.598135769367218,-1.2365888357162476,2.618055582046509,0.08925259113311768,-1.2786953449249268,-3.497889280319214,-5.716298580169678,-2.2697649002075195,-2.5606348514556885,-3.174354314804077,0.03784208744764328,-3.5091304779052734,1.523787021636963,-1.74136483669281,1.660788655281067,-1.496718168258667,-0.9710541367530823,0.3174669146537781,-1.7701352834701538,1.1301348209381104,1.7423237562179565,-0.8665987849235535,0.4086020290851593,-2.8688268661499023,3.5618178844451904,2.2590091228485107,-1.8844640254974365,3.823770523071289,-1.5635102987289429,-1.5721017122268677,-1.2092766761779785,-2.3398776054382324,0.9784858822822571,-1.2307357788085938,2.360966444015503,1.7973195314407349,2.603731870651245,-0.9956232905387878,-4.637676239013672,-1.6601275205612183,0.5618923902511597,2.380249500274658,-1.207523226737976,5.16832160949707,0.9321045875549316,-2.334883451461792,-1.2528551816940308,-3.457921028137207,1.5266296863555908,4.4400739669799805,-4.247252941131592,-0.3214980363845825,2.0024924278259277,2.918630838394165,-0.32392340898513794,3.6380012035369873,-1.0413590669631958,4.4951581954956055,-2.4250540733337402,-0.10068729519844055,-1.8887455463409424,-0.5910399556159973,2.9155397415161133,1.6275134086608887,-1.1201083660125732,0.24221748113632202,-0.11790787428617477,3.2671194076538086,2.532780170440674,-2.666750192642212,-0.46962738037109375,-3.6940696239471436,-0.16046863794326782,-4.355594635009766,2.125190496444702,2.3516976833343506,3.575503349304199,-0.8191981315612793,1.9003448486328125,-2.3672943115234375,0.7318097949028015,-1.0410637855529785,2.5805869102478027,-4.095760345458984,6.5468645095825195,0.6800369620323181,0.9527196884155273,3.5423738956451416,2.5870440006256104,-1.5820602178573608,-2.4623115062713623,0.7923057675361633,0.11948198825120926,-1.6595194339752197,-0.6779492497444153,-1.3417974710464478,1.2177903652191162,-2.2908551692962646,-2.0520877838134766,2.7873291969299316,-3.313870906829834,1.7692066431045532,3.746741533279419,1.060228943824768,3.522636651992798,1.850856900215149,2.098559617996216,0.7340859770774841,3.5835628509521484,3.063647985458374,-4.887244701385498,0.9294034838676453,2.553039789199829,-3.210308313369751,-0.6556844711303711,-2.903623104095459,-2.9525558948516846,0.9270546436309814,2.9720609188079834,-7.031430244445801,-2.3783133029937744,-1.7678747177124023,-2.6066901683807373,-1.0585377216339111,6.033100605010986,-2.411978244781494,2.4320640563964844,-3.593994379043579,-5.323680877685547,-2.1396725177764893,2.7020103931427,2.832247018814087,1.0443395376205444,-2.928467035293579,2.2079334259033203,1.6262435913085938,1.3870564699172974,1.60220205783844,-7.846263885498047,-3.793569326400757,-0.08870390802621841,0.6930760741233826,2.482682228088379,3.1583292484283447,-1.604609727859497,-3.476437568664551,-1.3638445138931274,5.8123860359191895,-0.8735153675079346,4.09308385848999,6.824004173278809,-2.5133779048919678,1.7926446199417114,0.09740068763494492,1.6376878023147583,7.696170330047607,0.16357751190662384,1.626254916191101,-3.8756062984466553,3.0123555660247803,0.8779292106628418,-1.8702768087387085,4.310437202453613,-1.3414546251296997,-3.7688918113708496,-0.355342298746109,5.185067653656006,2.095268964767456,-4.379517078399658,-1.4906264543533325,-1.8208225965499878,-0.5768617987632751,1.6743223667144775,1.041597604751587,-2.6681931018829346,-3.910855770111084,-3.988746166229248,2.168602228164673,7.694734573364258,0.5315046310424805,-5.25705623626709,-0.6478139758110046,2.5465986728668213,-2.557509660720825,0.8983045816421509,-1.0022151470184326,-5.154666900634766,-5.527282238006592,-0.13665829598903656,-1.9334008693695068,1.8505626916885376,2.2123870849609375,-0.045508407056331635,-7.827294826507568,-2.920672655105591,-3.248894453048706,-0.007397342007607222,10.728452682495117,-0.33331525325775146,4.9576921463012695,3.0586652755737305,0.715855062007904,-5.628610610961914,0.06607595086097717,-7.042349815368652,0.7015660405158997,7.045398712158203,-3.25429105758667,-3.562326669692993,1.1786390542984009,-0.05242079868912697,5.880503177642822,3.0434834957122803,-5.407251834869385,-0.5591453313827515,-0.47905826568603516,-6.357187747955322,-1.7347187995910645,5.478048801422119,6.147891998291016,-0.354390412569046,1.2352054119110107,7.443453788757324,2.078955888748169,-1.7770628929138184,4.291051387786865,-3.3604676723480225,-6.772706985473633,3.962313413619995,-0.7011263966560364,3.1027019023895264,8.70187759399414,4.149909019470215,-2.0525829792022705,0.4878721535205841,-1.9567797183990479,-1.2551779747009277,2.782139778137207,-5.009655952453613,-3.6546943187713623,-0.9262584447860718,-2.989497184753418,6.087758541107178,-2.0409963130950928,5.962526798248291,1.183512568473816,-2.483518362045288,1.6609101295471191,-3.714049816131592,-5.726682186126709,-0.4611749053001404,-3.1409125328063965,-7.683955669403076,-4.863156795501709,1.3479177951812744,-3.4534590244293213,-0.9189422130584717,4.755517482757568,-3.1646502017974854,-0.5286259055137634,-0.2623087763786316,-2.515230655670166,-6.6783342361450195,1.7311959266662598,-3.893594980239868,6.486006259918213,1.0009806156158447,-2.320218801498413,-3.842383861541748,7.197636604309082,3.830355405807495,3.1563267707824707,0.35626325011253357,5.3718085289001465,-1.2738656997680664,-0.3176422119140625,2.7912752628326416,5.651503562927246,-2.8876378536224365,0.29359087347984314,1.5323371887207031,2.3413290977478027,2.320099353790283,1.2526735067367554,7.351986408233643,6.750080585479736,-2.2503578662872314,-2.859494924545288,9.418739318847656,1.992295503616333,4.272194862365723,-3.852184772491455,-0.03843725472688675,-6.04094934463501,-0.6549638509750366,-0.9814819693565369,-9.346302032470703,-3.268259048461914,2.253700017929077,-3.4512078762054443,-3.4144208431243896,-2.8646318912506104,-0.5680285692214966,-7.0930867195129395,-4.840686321258545,5.8801679611206055,-9.012365341186523,1.2521227598190308,-0.4703806936740875,-0.916616678237915,-0.9533647894859314,2.939678430557251,3.064257860183716,5.282959461212158,1.1155229806900024,-1.468327522277832,-7.054946422576904,3.6300137042999268,0.7393317222595215,1.3315985202789307,5.460335731506348,11.012901306152344,-7.166759490966797,3.857649803161621,0.7193403244018555,1.8233683109283447,-1.0880048274993896,-2.354799747467041,1.1839258670806885,-3.0881145000457764,4.641671657562256,7.823123931884766,9.923386573791504,1.2862592935562134,-0.9231358170509338,-4.694517135620117,-1.297167181968689,3.4132344722747803,-0.9994767904281616,3.8940787315368652,7.549400806427002,-6.249485492706299,-4.7678751945495605,-5.812331676483154,-7.96049165725708,6.118143558502197,2.9886722564697266,-2.500251054763794,0.5206793546676636,-1.7578301429748535,-2.4217236042022705,-10.231551170349121,0.7213557958602905,3.3678221702575684,-7.047847270965576,-0.6483696103096008,-2.906369686126709,-0.34735020995140076,-5.368404865264893,7.627579689025879,-0.1442376971244812,-4.126708507537842,-0.8059789538383484,1.4852734804153442,-2.7044878005981445,2.5882956981658936,4.245145320892334,2.301943778991699,5.676286697387695,4.516773700714111,-10.488517761230469,4.383880138397217,-7.590602397918701,0.4884912967681885,-0.10767024755477905,-0.7715811133384705,2.1487069129943848,4.868612289428711,5.536317825317383,11.610175132751465,0.631649911403656,1.636552095413208,1.5197207927703857,-7.513989448547363,6.796582221984863,0.7570991516113281,-6.690517902374268,6.314675331115723,-7.1153883934021,-0.2962198555469513,9.916370391845703,4.305068016052246,5.321075916290283,2.330632448196411,-5.819758415222168,6.659768581390381,4.4045634269714355,8.996489524841309,4.908894062042236,1.414212703704834,0.9881839752197266,3.0774002075195312,0.17764955759048462,9.623559951782227,4.833602428436279,-4.159660816192627,7.41795015335083,-0.2589443325996399,-1.5586007833480835,-3.256648063659668,4.724255084991455,8.35974407196045,-2.636561155319214,-5.181003570556641,-2.829841136932373,-6.9483323097229,1.7639460563659668,-5.9697113037109375,-2.444884777069092,-6.005353927612305,-6.536352634429932,-5.6691365242004395,-2.4229793548583984,-0.24817168712615967,-1.3655381202697754,0.05820297449827194,-1.4522590637207031,-3.8223719596862793,-8.078764915466309,3.553370952606201,-7.945804119110107,-7.6719651222229,-6.991684913635254,-6.259817600250244,-1.8933608531951904,-17.564374923706055,10.534855842590332,18.46759033203125,-0.07488135993480682,0.3212311565876007,-9.839852333068848,11.12298583984375,3.5512633323669434,13.24744701385498,-23.827566146850586,3.443014144897461,5.953493595123291,15.864272117614746,-6.607141017913818,-2.8802390098571777,-4.209833145141602,-2.2377004623413086,-6.048834323883057,15.842240333557129,-13.711447715759277,-10.973849296569824,6.904160022735596,-1.529053807258606,-3.10853910446167,-4.455827713012695,0.7886006236076355,7.6205291748046875,8.18613052368164,-13.301797866821289,8.392485618591309,6.210495471954346,15.673181533813477,3.128345489501953,0.6392555832862854,6.832683086395264,-1.8900434970855713,7.75239896774292,-13.282299041748047,-7.218745231628418,-9.297493934631348,-7.04880428314209,-1.5929384231567383,-9.322983741760254,12.580615997314453,24.436763763427734,3.144073009490967,2.69264554977417,1.2946460247039795,0.5068215131759644,0.7047539949417114,2.6832191944122314,-2.349813938140869,-1.740458369255066,-4.361595630645752,0.22574405372142792,-1.290518879890442,-2.4312806129455566,-1.3476815223693848,-3.253112554550171,-1.0679826736450195,-1.8171472549438477,-0.01190991047769785,-1.9718397855758667,-2.859144449234009,-0.9794855713844299,-1.253704309463501,1.5156183242797852,0.43879327178001404,2.2323999404907227,-1.3195761442184448,2.275895357131958,-0.3032021224498749,-0.17296554148197174,-1.8023688793182373,-0.6454358696937561,1.3487560749053955,3.083998203277588,0.35043975710868835,-0.6696654558181763,-2.1363611221313477,-1.1214276552200317,-1.9068489074707031,0.7853285670280457,-2.615777015686035,-0.2194853276014328,1.9362363815307617,3.9788668155670166,0.9134364128112793,2.280412435531616,-0.8319063186645508,0.04263110086321831,1.4426203966140747,1.1435985565185547,-0.8696172833442688,0.8710023164749146,1.64437997341156,-0.2622967064380646,0.9824055433273315,-0.04728984832763672,-2.2740373611450195,0.523393452167511,-0.7670407295227051,-2.0127956867218018,0.48406800627708435,-2.3718247413635254,-1.4102293252944946,-0.4809441864490509,1.3264037370681763,-1.5845980644226074,-0.3353191018104553,0.8985976576805115,-1.3512874841690063,0.7484932541847229,1.2355482578277588,-0.16810064017772675,-1.4683722257614136,0.808996319770813,-0.6911353468894958,1.9177441596984863,0.471259206533432,0.7272884845733643,-1.6681511402130127,1.076269268989563,0.9224857687950134,2.06877064704895,-0.1456911712884903,0.17462605237960815,-1.608418583869934,-0.7917355895042419,-0.0340617336332798,0.8736386895179749,-2.399653673171997,0.6150497794151306,0.4295402765274048,2.085869789123535,0.5320627093315125,1.1877065896987915,1.1870864629745483,-0.3327257037162781,-1.1196787357330322,-0.4987547695636749,-0.4869804084300995,1.4729502201080322,0.002297174884006381,0.07780763506889343,0.014435230754315853,-0.018352188169956207,0.05518627166748047,0.044010475277900696,0.04473472386598587,0.029079068452119827,0.04187376797199249,-0.04488862305879593,0.06652463227510452,0.002154274145141244,0.02084783837199211,0.03863981366157532,0.05800054222345352,-0.07131947576999664,0.03308244049549103,-0.03744128346443176,-0.005943849682807922,0.023870661854743958,-0.00319663155823946,0.06427495181560516,-0.06050967052578926,-0.03237750008702278,-0.019869506359100342,-0.020725462585687637,-0.06100637838244438,-0.06314291805028915,0.010513558983802795,0.012996692210435867,-0.025472572073340416,-0.032293371856212616,0.0783412829041481,-0.043369606137275696,-0.033551402390003204,-0.047167014330625534,-0.03627438098192215,-0.024268731474876404,0.06914957612752914,-0.04184876009821892,-0.0030857285019010305,-0.0009498029248788953,-0.04284469038248062,-0.026657994836568832,0.043673090636730194,-0.037678733468055725,0.05554487556219101,-0.06451807171106339]},"hiddenLayers":[{"inputMatrix":{"rows":20,"columns":48,"weights":[0.11879093199968338,-0.24487757682800293,0.39121803641319275,-0.8666254281997681,-0.665713369846344,0.13009943068027496,-0.4096355140209198,-0.07807641476392746,1.5071169137954712,-0.3117341995239258,0.6833035945892334,-0.6078253388404846,-0.18555907905101776,-2.154428243637085,-0.7013849020004272,-1.3202096223831177,0.3509341776371002,-0.41134074330329895,-0.7499719262123108,0.1792307049036026,-0.36237820982933044,1.424355149269104,0.22371771931648254,0.19550630450248718,-0.7336719632148743,-0.2757507860660553,-1.6098486185073853,0.19824326038360596,0.9299647212028503,2.4958412647247314,-0.7157644033432007,0.3283114433288574,-3.245333433151245,0.42123809456825256,1.6587170362472534,0.7780805230140686,1.9385579824447632,1.0901317596435547,0.017504818737506866,0.5148511528968811,-1.3477230072021484,1.3573613166809082,-0.7373584508895874,0.041014883667230606,-1.0545060634613037,-3.140010356903076,0.20897746086120605,0.6209725141525269,-0.2663024663925171,-0.8726985454559326,0.9462709426879883,-0.9212924838066101,-0.014704556204378605,-0.5589913129806519,-0.44832679629325867,1.1845561265945435,1.6649830341339111,0.2666530907154083,-0.0026971613988280296,-0.40441015362739563,-0.5286547541618347,-2.4865427017211914,1.2476673126220703,-0.6118572950363159,-0.25911539793014526,-0.9695924520492554,-1.068189024925232,0.6432428956031799,-0.5553299188613892,1.34455406665802,-0.10724745690822601,0.4306197464466095,-0.012833982706069946,-0.9173165559768677,-0.9222160577774048,1.6632295846939087,0.5094262361526489,1.4534767866134644,-0.6903239488601685,1.3223251104354858,-2.8310794830322266,0.32110607624053955,2.0997307300567627,0.22325487434864044,1.6352542638778687,-0.021042952314019203,-0.26292312145233154,0.5311103463172913,-0.316185861825943,1.4231147766113281,-0.8108511567115784,-0.733390748500824,-1.6749738454818726,-2.855403184890747,0.9740444421768188,-0.7826581001281738,0.12663963437080383,-0.08435102552175522,0.07963047921657562,0.9679215550422668,0.30361685156822205,-0.8182201385498047,-0.5248863101005554,0.6890374422073364,1.2876092195510864,1.5367951393127441,-2.192281484603882,0.15834838151931763,-2.1670119762420654,0.18656408786773682,-0.6614286303520203,-0.3543432354927063,0.020991308614611626,-1.0711759328842163,-2.1186814308166504,1.1496672630310059,-0.912178635597229,0.3634428381919861,0.9845888018608093,0.40592411160469055,-0.8644843697547913,-2.0870249271392822,0.2228160798549652,0.4216456115245819,-0.8160163760185242,0.2026098221540451,-1.1729201078414917,0.6551105380058289,1.100034475326538,0.9646279215812683,-1.443091869354248,0.4617156684398651,0.2947918772697449,-1.657231330871582,-0.7788346409797668,-0.9483018517494202,-0.31380990147590637,-1.1327584981918335,1.064968466758728,-1.0178439617156982,2.994262218475342,2.790111541748047,-0.474123477935791,-0.2867395877838135,-0.12453918904066086,2.0153048038482666,0.04028833657503128,0.6280943155288696,1.9252249002456665,-0.6034212112426758,0.6721670627593994,1.0201456546783447,-1.0179641246795654,-0.12181799113750458,0.7790486812591553,1.050418496131897,0.3915702700614929,-1.2472597360610962,0.2926955819129944,-0.29222285747528076,0.7176610231399536,0.18626950681209564,0.1875462532043457,-0.17624810338020325,0.5688037276268005,1.2490873336791992,-1.1504307985305786,-0.6740552186965942,-0.4804062247276306,0.5395038723945618,-0.16730058193206787,-0.5330076813697815,-0.6713073253631592,0.9474844336509705,0.3943871557712555,-0.26630765199661255,-0.27696919441223145,-0.14598114788532257,-2.9296560287475586,-1.2299866676330566,0.3670733571052551,-1.637927770614624,-0.6508046984672546,0.35698598623275757,0.13825319707393646,-0.2931964695453644,0.23324380815029144,0.5343207716941833,-0.284195214509964,-0.9708465337753296,-0.6901215314865112,-0.9716736078262329,-0.0832095593214035,-1.6809587478637695,2.663534641265869,-0.655988335609436,-1.3864177465438843,0.9180774688720703,0.11809822916984558,-0.5504006147384644,0.602226197719574,-1.3732248544692993,0.31420791149139404,-1.526961326599121,0.3340384364128113,-1.1594668626785278,-2.3028502464294434,1.9798589944839478,0.10813800990581512,-0.7269490957260132,-0.22787396609783173,-0.13727827370166779,-1.7317273616790771,1.1851617097854614,-0.7709773778915405,-0.7741026282310486,-0.9104253649711609,0.033033587038517,-0.16587768495082855,1.4540314674377441,0.12416958808898926,1.4916139841079712,-1.2278696298599243,1.1616637706756592,-1.22982919216156,-0.4297083616256714,2.4286885261535645,1.272983431816101,-0.45650535821914673,0.954496443271637,-0.3088604211807251,-0.11552000045776367,0.7385441064834595,2.7230124473571777,1.4518557786941528,-1.3179478645324707,-0.37653210759162903,-2.7025058269500732,1.673587679862976,1.1133410930633545,0.2107800990343094,1.028477668762207,-1.8867894411087036,0.04421423375606537,1.2988204956054688,0.5435664057731628,0.48644718527793884,-0.13693977892398834,-1.3530263900756836,1.2690306901931763,0.9489317536354065,0.8214640617370605,0.3198451101779938,1.2791587114334106,1.1283366680145264,-1.5540525913238525,0.04798707738518715,0.7870100140571594,1.0979818105697632,0.4509854018688202,1.8609553575515747,0.6558313369750977,-0.5774579048156738,0.01080841664224863,0.8262963891029358,0.756576418876648,0.40613505244255066,-0.4403320550918579,-0.7174411416053772,0.013076378032565117,0.83803790807724,-1.0451157093048096,0.5152526497840881,0.3724643886089325,-2.0189273357391357,-0.15580037236213684,-0.20520225167274475,-0.6924070715904236,-0.24473145604133606,0.7065261602401733,-0.5975366234779358,-2.2484636306762695,-1.364080548286438,0.035066526383161545,-0.5914571285247803,1.8424235582351685,-0.5574773550033569,-0.5415551662445068,1.1287004947662354,2.749258279800415,1.3256756067276,3.922168254852295,0.47530224919319153,-0.7476333975791931,-1.9281859397888184,-0.31845009326934814,-0.6054314970970154,-0.5858504772186279,-0.6675781607627869,-2.070214033126831,-1.0542080402374268,-0.23475021123886108,-0.34570997953414917,-0.10492905229330063,-0.23655995726585388,-0.27335283160209656,-0.05162709206342697,-0.39818620681762695,-1.9820674657821655,3.2718889713287354,-2.4614861011505127,2.014465093612671,-0.010487183928489685,0.2642119526863098,-1.1862238645553589,0.04588894546031952,0.5014339685440063,-0.9266988039016724,-0.4330601990222931,-0.6409984230995178,0.30077868700027466,-1.5043370723724365,-1.5124256610870361,0.7444763779640198,-0.2182541787624359,-0.5831044912338257,-0.1743120700120926,0.7506958246231079,-0.05000502988696098,0.3739640712738037,0.9473465085029602,1.7864402532577515,-0.6264830231666565,0.39127668738365173,0.12291209399700165,-0.520816445350647,0.8370288014411926,-0.9198470711708069,1.1844537258148193,0.05197695642709732,-0.6912335157394409,-1.1615763902664185,-1.6506339311599731,0.07644829154014587,0.8258881568908691,-0.5815118551254272,-2.0871989727020264,-1.981382131576538,-1.7392945289611816,0.3262391686439514,0.3898265063762665,-0.9363917112350464,-1.0649139881134033,-0.5320711135864258,-1.0522401332855225,2.371890068054199,-1.229286789894104,-0.7797067165374756,0.6260191202163696,0.145758256316185,-1.3431205749511719,-1.8109841346740723,-0.3498207926750183,1.1333587169647217,-0.7309495806694031,0.7432125806808472,-1.068708062171936,-0.7030751705169678,0.21280772984027863,1.2777361869812012,0.462666392326355,2.159562587738037,0.24106301367282867,-0.4967811405658722,-0.49688011407852173,1.2269803285598755,0.9171372652053833,1.4096958637237549,0.7231806516647339,-2.818842887878418,1.0031405687332153,1.5519814491271973,0.5860435962677002,0.2394433170557022,-0.015420222654938698,-0.6406275033950806,-0.32367846369743347,-1.3278478384017944,-0.1386144608259201,0.10031125694513321,0.5031925439834595,0.46896806359291077,-0.03683442622423172,0.3561888635158539,0.4054917097091675,0.6178761124610901,0.029193174093961716,-0.3438887894153595,0.007077422924339771,-0.13738678395748138,0.2688044309616089,0.5337317585945129,0.45905637741088867,-1.9409489631652832,0.01753840409219265,-0.6499030590057373,0.3401634991168976,-0.2120763212442398,-0.011711273342370987,0.6380095481872559,0.7435370087623596,-0.21177874505519867,-0.28340134024620056,0.004707085434347391,0.18698953092098236,0.4711918532848358,-0.5871703624725342,0.44020596146583557,0.3800520598888397,-0.2992236912250519,0.3623998165130615,-0.10185852646827698,0.5969956517219543,-0.4080762267112732,0.10672725737094879,0.6265231966972351,0.09039954096078873,0.2505281865596771,-1.4479764699935913,-2.1435537338256836,0.26204222440719604,-0.41519948840141296,-0.6187018156051636,-0.8787615299224854,0.21812312304973602,0.9791555404663086,0.5223391056060791,1.849623441696167,0.9909066557884216,0.7283876538276672,2.2016260623931885,1.369105339050293,-0.8417506217956543,0.46994245052337646,0.33365365862846375,0.8029229640960693,0.668937623500824,0.5684838891029358,0.44538119435310364,-1.1725201606750488,-1.3643932342529297,-2.136683225631714,0.14787860214710236,0.5552265048027039,-0.25445806980133057,-0.47107192873954773,-1.5601022243499756,0.11013945937156677,1.013266682624817,0.25279903411865234,-0.05007344111800194,-0.7154916524887085,-1.6338657140731812,0.21146902441978455,0.5255365967750549,-0.7283303737640381,1.192077398300171,-0.8123292326927185,1.8667590618133545,0.4666489064693451,-0.8538869023323059,0.3001362085342407,0.34418177604675293,0.041089050471782684,0.1409953236579895,-0.08795706182718277,-1.1453992128372192,-0.16768407821655273,-0.04416894167661667,-0.8739293813705444,0.37097570300102234,-1.3261228799819946,-0.720374345779419,-1.21068274974823,-1.0835764408111572,-0.13503660261631012,0.27376770973205566,-1.0265014171600342,1.5029149055480957,-0.9059792757034302,0.8517102003097534,-0.36480939388275146,-0.5929387211799622,-2.4144017696380615,-0.5539657473564148,-0.7647149562835693,-0.4078772962093353,-0.6163080930709839,-0.7083947062492371,-0.25734543800354004,0.47982150316238403,-0.6393394470214844,0.618742048740387,1.6826127767562866,0.4591236114501953,-1.2040077447891235,-1.3246829509735107,-1.076411485671997,0.788246214389801,3.8770976066589355,-0.02292245253920555,1.8197811841964722,-1.102855920791626,1.7119286060333252,-0.2163851261138916,-0.6063535809516907,0.8648079037666321,0.645310640335083,0.8681104779243469,-1.2448965311050415,-0.0803263932466507,0.30898550152778625,-0.6261889934539795,0.6300746202468872,-0.08464603126049042,-3.1479744911193848,-0.46054577827453613,-0.6238329410552979,-1.3494864702224731,1.2157763242721558,1.3728352785110474,1.3153194189071655,-0.3947159945964813,-2.3575279712677,-0.2504165768623352,1.4716331958770752,1.7724734544754028,0.09916827082633972,-0.5012105703353882,-0.19106356799602509,-2.627230167388916,-1.1531766653060913,-0.37080836296081543,-0.9559952616691589,1.3753139972686768,-0.8558969497680664,-2.3821394443511963,1.2252819538116455,-1.5072489976882935,0.0604911670088768,1.0995084047317505,-0.8978074193000793,-1.274700403213501,-0.41243574023246765,0.7025561928749084,-0.8400974273681641,1.1144959926605225,1.2479681968688965,-0.6906079649925232,-1.3107237815856934,-0.3308561444282532,0.9479869604110718,0.8497504591941833,-1.0763537883758545,0.9844818711280823,0.8540991544723511,1.1965245008468628,0.24326680600643158,1.1149733066558838,1.05647873878479,-0.9359550476074219,-1.0689669847488403,1.1345527172088623,0.8179343342781067,0.3149302005767822,-0.5693104863166809,0.45369333028793335,1.346411943435669,-0.3258724510669708,-0.3839269280433655,0.1372990608215332,-0.11931709945201874,0.14161239564418793,-0.2860192656517029,-3.4858648777008057,-0.8256449103355408,0.2734096050262451,0.2181132584810257,0.19968169927597046,-1.4703428745269775,0.5464348793029785,-0.7947344779968262,-0.1354120820760727,0.8125205039978027,1.36832594871521,-3.2889275550842285,1.1444635391235352,0.3802877962589264,-0.858150064945221,0.451300710439682,2.543555498123169,1.4286991357803345,0.27677974104881287,-1.1154240369796753,0.7821415662765503,2.8174335956573486,0.8768868446350098,-0.7106472253799438,-0.3524898588657379,-1.0292181968688965,-1.2121341228485107,-0.8891951441764832,1.1940290927886963,0.1768372356891632,0.5413514971733093,-0.39626190066337585,0.5896642804145813,-0.38956886529922485,0.8528490662574768,2.7778892517089844,-2.8865785598754883,-1.0232614278793335,-1.0474907159805298,-0.7849872708320618,-2.5662503242492676,-1.7588109970092773,-1.7482413053512573,-2.5196011066436768,1.3390297889709473,0.15248896181583405,1.999252438545227,0.32668018341064453,1.0145370960235596,1.892638921737671,-0.005231380462646484,1.6070137023925781,0.2928207218647003,-1.0291231870651245,0.0050577204674482346,-1.5385823249816895,0.7996260523796082,0.8884649276733398,-0.5873493552207947,-0.8442919254302979,1.999366283416748,-1.9570502042770386,0.10501491278409958,-1.2046561241149902,0.3804439306259155,0.3655639886856079,1.2245867252349854,-1.3535250425338745,-0.8550815582275391,-0.11788973957300186,0.5438976287841797,-0.7511854767799377,0.6102507710456848,0.04305540397763252,-0.5983590483665466,-0.743230402469635,1.6406528949737549,0.3213147222995758,-0.3152371048927307,-0.30556780099868774,-0.3082955479621887,-0.6313267350196838,-3.4910390377044678,-0.2560054063796997,0.29309704899787903,-0.21537959575653076,-1.2494767904281616,-0.6364314556121826,-0.6041857004165649,-0.8497753739356995,-1.480728030204773,-1.461074709892273,-1.6281068325042725,-0.435621976852417,-0.4348202347755432,0.08631350100040436,-0.09799869358539581,-0.5812103748321533,-1.2961219549179077,1.2094311714172363,-0.29965806007385254,-2.2413418292999268,0.31405970454216003,-0.4491478204727173,-1.0683925151824951,-0.05530213192105293,-0.8261340260505676,-1.058491587638855,0.8785818815231323,-0.4928737282752991,0.9937876462936401,0.684123694896698,-0.22803857922554016,-0.6385276913642883,0.15863655507564545,-1.277671217918396,-0.37928491830825806,1.3837509155273438,0.16262757778167725,0.6413016319274902,-1.659919261932373,-0.0003251848975196481,-1.3917653560638428,-1.8141682147979736,-1.0622389316558838,-0.5255717039108276,1.985793113708496,-0.6266476511955261,3.594473361968994,2.1868903636932373,-0.11770827323198318,-0.4691413342952728,-0.7976431846618652,-0.7720876932144165,-1.665640950202942,0.36156368255615234,-1.81820547580719,0.31970399618148804,-0.0047869011759757996,0.010389369912445545,0.610926628112793,0.15243037045001984,1.9414533376693726,0.7864083647727966,-0.46755436062812805,0.874263346195221,0.03272143006324768,2.137937545776367,0.40154895186424255,-0.1312291920185089,0.44179949164390564,-1.4563454389572144,2.118652582168579,0.7743319869041443,0.38301628828048706,-0.9918631911277771,-0.3813891112804413,-0.8622413277626038,0.5138615965843201,-0.9891989231109619,-0.0872209221124649,0.12753663957118988,2.2725541591644287,0.6982077360153198,-0.6792939305305481,0.9224337339401245,0.07412763684988022,1.3514562845230103,0.49960583448410034,0.0043912590481340885,0.6052902936935425,-1.691603183746338,1.6117297410964966,-0.09072347730398178,1.0096285343170166,-2.2735326290130615,0.5714486241340637,-0.24391549825668335,-0.7185752391815186,0.10448867827653885,-1.4431633949279785,-0.2719181776046753,-1.0233724117279053,-2.684283971786499,0.48507776856422424,0.8936322331428528,-1.731486201286316,-0.7202837467193604,1.8229492902755737,0.9250423908233643,0.14469361305236816,-1.1039948463439941,-1.0269160270690918,1.3327927589416504,1.12423837184906,0.2030414193868637,0.6195915341377258,1.391889214515686,0.47351980209350586,-0.27647504210472107,-0.3666195571422577,0.26537179946899414,1.0420314073562622,0.11123351007699966,1.8028088808059692,0.6295207738876343,-1.0623598098754883,0.41979193687438965,0.5289826989173889,0.6656292080879211,-0.33059558272361755,-0.17219439148902893,-0.9240655303001404,-1.4347139596939087,0.6609712243080139,-0.21905918419361115,1.6679002046585083,-0.0957421064376831,-2.1087512969970703,-0.12058278173208237,-0.4665781855583191,-1.2790896892547607,-0.8363642692565918,1.01755690574646,-1.3849586248397827,-1.9956012964248657,-0.08597097545862198,0.23924513161182404,1.0347932577133179,0.7381395697593689,-0.7640250325202942,-0.47872716188430786,0.20810581743717194,0.08761101961135864,-0.9220761060714722,2.283989906311035,-0.21891026198863983,-0.8603582382202148,0.3927978575229645,-0.22956112027168274,-1.97738778591156,-0.8376947045326233,0.3434869945049286,0.3347418010234833,0.6593772172927856,-1.3210691213607788,-0.28876161575317383,0.40788307785987854,0.4343651533126831,0.6568314433097839,0.5664678812026978,-0.5274806618690491,0.03253820911049843,1.1063004732131958,-1.62992262840271,0.2706237733364105,0.3680531680583954,1.0538417100906372,-0.1900215744972229,-0.2492123246192932,0.8543371558189392,0.6539197564125061,0.7977809906005859,0.1754819005727768,0.2848455309867859,-1.5454070568084717,-2.422191619873047,-1.1834691762924194,-1.0293803215026855,-0.263937383890152,0.0590374730527401,1.2801547050476074,0.07815168797969818,-1.833978295326233,0.08636519312858582,2.859437942504883,-0.2516387403011322,-0.2727419435977936,0.049037910997867584,-0.05470410734415054,-0.40871453285217285,-0.09686194360256195,-0.2518003284931183,-0.6647190451622009,0.10034944117069244,0.9352241158485413,0.23094913363456726,1.053536295890808,-0.5191940069198608,0.7824963927268982,0.5730071067810059,0.3452708423137665,0.9706549644470215,1.2264659404754639,0.6849431991577148,-0.18462888896465302,-0.1740645170211792,0.7542003989219666,0.9239713549613953,-0.4388521611690521,-0.03757084161043167,-1.9970067739486694,0.22194743156433105,0.18532845377922058,0.2947992980480194,0.9871734976768494,0.4830900728702545,-0.3346465528011322,-0.48476535081863403,0.1523960679769516,0.8798671960830688,-0.3146369755268097,0.11869926005601883,0.11532200872898102,0.8368350863456726,-0.09266491234302521,-0.2462669312953949,-0.017285116016864777,0.03976881131529808,0.23503939807415009,-0.5108972787857056,-0.10925783216953278,-0.6183556914329529,-0.0854555144906044,-1.257007122039795,-0.03567325323820114,0.34415003657341003,-0.19119258224964142,0.355623722076416,-0.595798909664154,0.2885688543319702,0.2580230236053467,-1.5382862091064453,-1.40189528465271,-0.7833377718925476,-1.1688590049743652,-1.8083010911941528,-2.555398464202881,0.5529696941375732,-0.49349185824394226,-0.33636000752449036,-1.8644542694091797,-0.4273541569709778,0.21184676885604858,-0.2613385319709778,0.19269061088562012,0.5903500914573669,-1.564531683921814,-0.513293981552124,1.1348381042480469,-1.066123604774475,0.5642018914222717,0.806684136390686,1.12742280960083,-0.7938464283943176,-0.08254195004701614,1.140784740447998,0.8608493208885193,1.233517050743103,0.2761484384536743,0.42394211888313293,-0.9631531238555908,-0.6849673390388489,-0.38452550768852234,-0.7506533265113831,0.018702352419495583,0.9343032836914062,-0.12754040956497192,0.6625381112098694,0.028785591945052147,0.08751632273197174,1.2240804433822632,0.6930169463157654,-0.9928442239761353,0.055598512291908264,0.7931925654411316]},"inputHidden":{"rows":20,"columns":20,"weights":[-0.8302626013755798,3.9528427124023438,1.7067720890045166,0.5431579351425171,0.29259857535362244,2.022226572036743,-1.2451529502868652,1.7880347967147827,-0.5539361238479614,-0.020014015957713127,1.1259435415267944,-2.2213735580444336,2.4651553630828857,-0.4000474512577057,1.6541099548339844,2.765577554702759,1.4196633100509644,-0.46483296155929565,-0.1299082636833191,-0.20961101353168488,1.3967220783233643,0.4038388729095459,-0.5696940422058105,-0.8554338812828064,-0.10360181331634521,-0.24695561826229095,-0.9764523506164551,-0.6584314107894897,-0.9676319360733032,-0.9467906951904297,1.0009479522705078,1.1932622194290161,0.6603316068649292,1.165573000907898,0.8289594054222107,-0.24364136159420013,-0.6858739852905273,1.7315698862075806,-0.5296686887741089,-1.460817813873291,-1.6464084386825562,2.226552724838257,2.168841600418091,0.7366354465484619,1.0345361232757568,0.7708234786987305,-0.4985772967338562,3.0622801780700684,-0.8413010239601135,-1.173784852027893,0.01003908459097147,0.7206655740737915,0.5093984007835388,-0.22159378230571747,2.1887741088867188,-0.13224151730537415,0.17861346900463104,1.6393846273422241,0.04160918667912483,-1.387061357498169,1.2705066204071045,0.9700745940208435,-2.732145071029663,0.2071269452571869,-4.502251148223877,-3.566006660461426,0.774056077003479,0.12071531265974045,-1.8153983354568481,-0.8181067109107971,3.815425157546997,-0.6686087250709534,-0.8770345449447632,-2.8265466690063477,-1.0136758089065552,1.758927583694458,-1.2593185901641846,0.6899564862251282,-1.7057839632034302,0.3985617756843567,0.1496218591928482,3.0811450481414795,-1.0128101110458374,1.4044023752212524,-0.4980044364929199,-1.0986368656158447,0.24126122891902924,-0.9493411183357239,-1.1196271181106567,0.32451632618904114,-0.8899495005607605,0.29642602801322937,-0.013149980455636978,-1.3040417432785034,0.8323392868041992,1.7204773426055908,0.005019223317503929,1.1385380029678345,-0.6292764544487,-0.2880376875400543,-5.07824182510376,-3.0823347568511963,-0.5653807520866394,-2.188462734222412,0.1559128612279892,-0.6589715480804443,0.4467751085758209,-2.080409526824951,-0.14996223151683807,-0.5406739115715027,3.676758289337158,-2.7918992042541504,1.247995138168335,-0.3286704123020172,2.39420485496521,-0.21807920932769775,-0.3955560326576233,0.4293573498725891,0.5067601799964905,-0.5484510660171509,-0.8318621516227722,-3.8910274505615234,-0.1364385485649109,-0.3911498785018921,1.2171850204467773,0.1771438866853714,0.5861778259277344,0.7818194627761841,1.7322803735733032,0.7639666795730591,-3.2679247856140137,1.958115816116333,-1.3156139850616455,0.2762819826602936,-1.8681881427764893,0.12883180379867554,-2.1147990226745605,-1.4787272214889526,2.1157290935516357,-0.4550611078739166,1.0777426958084106,0.6389557123184204,2.2040629386901855,0.4130516052246094,-0.19045937061309814,0.6711044907569885,0.6877250671386719,0.9619891047477722,0.3090512752532959,-1.51222825050354,-2.149052858352661,0.4376218914985657,1.1710118055343628,2.2613704204559326,0.01544924546033144,-2.109668731689453,0.3791195750236511,2.1265981197357178,0.653702974319458,-2.227410316467285,-1.7560458183288574,-0.33912789821624756,0.6572191119194031,4.741164207458496,-2.2801926136016846,-0.3203073740005493,3.2967689037323,0.18938323855400085,-1.7530070543289185,-1.2342171669006348,3.0167391300201416,0.8552922010421753,-4.519894599914551,1.4086203575134277,-0.9166348576545715,0.3571643829345703,0.9434114098548889,2.9857242107391357,-4.87579345703125,-1.0966064929962158,-3.7270445823669434,-0.8393283486366272,3.3930487632751465,-1.9880998134613037,0.05328015610575676,3.517002582550049,-3.50138783454895,2.3072891235351562,-1.4157400131225586,0.36216410994529724,-0.03639621287584305,0.9181211590766907,2.2202844619750977,2.4305922985076904,1.9297170639038086,-0.6127705574035645,1.0008920431137085,1.1460211277008057,0.29931220412254333,0.8835303783416748,0.6133129596710205,-0.5364534258842468,-1.4836050271987915,-0.06735601276159286,-1.6755242347717285,-0.025042133405804634,2.941650629043579,-2.1641411781311035,0.8005582094192505,-0.2750389575958252,4.031439781188965,0.2455320656299591,0.3080311417579651,1.7726171016693115,-0.3056691586971283,-1.880570411682129,-1.1040453910827637,-0.0854644775390625,0.1519618183374405,-0.39469173550605774,0.9595555067062378,1.438316822052002,0.5335376262664795,1.4805773496627808,1.1266453266143799,-0.628619372844696,-0.6758797764778137,-2.056777238845825,-0.5658071041107178,0.7766936421394348,-0.4228547215461731,0.8214011192321777,0.4400899410247803,-1.375002145767212,-0.32060083746910095,1.1063590049743652,0.8540800213813782,-0.8840201497077942,-2.157540798187256,2.5794451236724854,-0.1174328625202179,0.4069105088710785,-0.606819748878479,0.8077928423881531,-0.17582006752490997,0.13642020523548126,0.17300350964069366,0.6819568276405334,-2.3522584438323975,0.16018198430538177,-0.2104727327823639,0.0831744447350502,-0.8574768304824829,0.3337813913822174,-1.4350244998931885,0.7708979249000549,-0.8447538018226624,0.7981367707252502,0.1309061497449875,0.3440936803817749,-0.31423720717430115,-1.1850535869598389,0.1956038624048233,-1.711988091468811,1.1566599607467651,1.0125219821929932,-1.6562511920928955,1.3467925786972046,-0.1283535361289978,-1.9056806564331055,-1.7178422212600708,-0.30556970834732056,2.3961873054504395,1.5241643190383911,0.47295913100242615,-2.017720937728882,-0.40787893533706665,0.45757296681404114,-0.1153176873922348,1.1736494302749634,-1.2431601285934448,1.321486473083496,-0.16773657500743866,1.573992133140564,0.9497799873352051,-1.8224623203277588,-0.20731987059116364,0.39321836829185486,-2.393958806991577,0.11060886085033417,0.20447279512882233,-3.2701923847198486,-0.8028429746627808,1.124064326286316,-0.9393935799598694,-0.18763965368270874,2.0169575214385986,-0.25019755959510803,-1.4628483057022095,0.10724885761737823,-2.284290075302124,-0.16504545509815216,0.8640775680541992,1.8161377906799316,-0.6561257839202881,-1.8145263195037842,0.610167920589447,0.09130732715129852,1.2523425817489624,-0.5016658306121826,0.11060944944620132,2.597630739212036,-0.5644593238830566,-0.02869572304189205,-2.972571611404419,-0.07241851836442947,1.2966995239257812,2.1148369312286377,-1.4531577825546265,-2.3497557640075684,0.5507094264030457,-1.47456693649292,0.6291971206665039,-3.3937363624572754,-0.2785305380821228,-0.0706387385725975,0.8788033127784729,-2.103137969970703,0.9818236827850342,-0.41052061319351196,-2.035383462905884,-0.750889241695404,-1.6647915840148926,-0.487807035446167,-1.8854622840881348,0.18122150003910065,-2.549898147583008,-1.1496047973632812,1.1258612871170044,2.4652411937713623,-2.8225514888763428,-1.5389395952224731,-0.6853650212287903,-0.6640840768814087,-0.9686658382415771,0.09624963998794556,0.38275012373924255,-0.6548134684562683,-1.3202203512191772,2.618187665939331,0.8648757338523865,1.2430174350738525,-1.8956457376480103,1.7477202415466309,-0.4800634980201721,0.08444266021251678,0.5945330262184143,-1.1272122859954834,-0.8654278516769409,-1.0922207832336426,-3.641613721847534,0.06045244634151459,0.10008049756288528,-2.7756247520446777,3.0059897899627686,4.873453617095947,-0.7188008427619934,-2.4555983543395996,1.5573053359985352,-1.7255022525787354,3.479733943939209,0.357308954000473,2.0819926261901855,1.6256260871887207,2.7029099464416504,-3.770721912384033,-1.5937155485153198,1.1043914556503296,1.6218297481536865,0.32449737191200256,1.876440405845642,-1.1618698835372925,-3.190744161605835,1.139527678489685,-0.985956609249115,-1.056587815284729,1.1454294919967651,-2.2916414737701416,-1.0838593244552612,0.5052657127380371,-2.5334372520446777,-1.5458543300628662,-2.1766369342803955,-1.233254313468933,-0.26261618733406067,0.42980721592903137,0.08461057394742966,-1.3599562644958496,-1.485084056854248,4.04166316986084]},"inputBias":{"rows":20,"columns":1,"weights":[1.9596327543258667,1.4071632623672485,-0.4429832994937897,0.6802365779876709,0.22686667740345,-1.1516313552856445,-0.9797825217247009,-2.2134368419647217,-1.687187910079956,0.48220449686050415,-0.29714640974998474,-0.3234094977378845,1.4386632442474365,-0.5416839718818665,-1.1305876970291138,0.7817990183830261,0.042342014610767365,0.3072670102119446,-1.727441668510437,-0.2066996991634369]},"forgetMatrix":{"rows":20,"columns":48,"weights":[-1.0513930320739746,-0.18107853829860687,-2.353461742401123,-1.1035029888153076,0.8774083852767944,2.123929977416992,1.603245496749878,0.11854112893342972,-0.9846701622009277,1.4580165147781372,0.16939528286457062,0.8580179810523987,1.4977600574493408,0.663658857345581,1.5671892166137695,-0.15236365795135498,-0.7465861439704895,1.8442414999008179,2.2038843631744385,-2.6766343116760254,2.7428324222564697,-0.9042533040046692,0.37572261691093445,-1.2330188751220703,2.118999481201172,1.9076097011566162,1.4908217191696167,-0.9741891026496887,0.9976797699928284,-1.4239637851715088,1.7449111938476562,-2.1904256343841553,0.5336336493492126,-0.7312609553337097,1.4865278005599976,-0.7422060966491699,-0.848759114742279,-0.3643256425857544,1.3405237197875977,-1.2074859142303467,1.442533254623413,0.8616739511489868,-0.5201963782310486,0.7059446573257446,-2.4554190635681152,0.3584357500076294,-0.949616551399231,0.051924485713243484,-0.31966546177864075,-0.6291235089302063,1.57974112033844,1.0635321140289307,0.614585816860199,-1.1734555959701538,0.038664255291223526,2.306516170501709,0.8049258589744568,1.055241584777832,-0.13919763267040253,0.3467588424682617,-2.235093116760254,-0.24313552677631378,0.9324827194213867,0.30947521328926086,0.8484557271003723,-0.5753127336502075,-2.6646535396575928,-0.027371015399694443,-1.521525502204895,0.5115246176719666,2.566462516784668,-1.0274912118911743,-1.5109502077102661,-0.49307501316070557,1.1469718217849731,0.37720176577568054,-2.124630928039551,-0.3344716429710388,-1.0405938625335693,0.08966222405433655,1.033665418624878,0.5890730619430542,-0.8528860807418823,-0.06424330919981003,0.8169986009597778,-0.6430250406265259,-1.4168004989624023,-0.9301844835281372,1.7831512689590454,1.2784165143966675,-0.1393357366323471,-0.14870522916316986,-0.9713647961616516,-1.1483683586120605,1.2828649282455444,-0.4462747573852539,1.5357249975204468,2.545799493789673,-0.011274993419647217,-1.2623987197875977,0.7434780597686768,0.24768100678920746,0.8776482343673706,-2.6387364864349365,-0.47621017694473267,-0.2503112852573395,0.7715373635292053,-0.33539795875549316,-0.5201336145401001,0.793133556842804,1.531601071357727,0.13009628653526306,0.06640898436307907,-0.40141192078590393,0.7058519721031189,-0.7336918115615845,-0.0751495510339737,0.8112393021583557,0.8120341897010803,-0.23848646879196167,-0.1505064219236374,0.11912766844034195,0.30335357785224915,2.096623659133911,-2.0061278343200684,0.02307332120835781,-2.4595847129821777,-1.458795189857483,-0.8434157371520996,0.4227314591407776,0.0658935010433197,1.8152700662612915,0.35641950368881226,-1.4148156642913818,-0.30237647891044617,0.565291166305542,0.964843213558197,0.4957667589187622,1.646986484527588,-1.1652024984359741,-2.112471103668213,-0.9025972485542297,0.44223088026046753,-0.9936075806617737,0.057848505675792694,-1.8397637605667114,-1.1387436389923096,-2.0578653812408447,-0.016119087114930153,0.35421839356422424,1.4720515012741089,-1.2588139772415161,0.9989491105079651,-0.03894028812646866,1.000485897064209,1.4076974391937256,0.7110038995742798,-1.0483202934265137,-0.14149470627307892,0.4961671829223633,0.582004725933075,0.022949736565351486,1.1836389303207397,-0.903318464756012,0.7335621118545532,-1.1526345014572144,0.312588095664978,0.3600366711616516,-0.8327568769454956,1.2444452047348022,0.05173513665795326,-0.4743390679359436,-0.9148600697517395,0.8381349444389343,-0.40938353538513184,-0.6145509481430054,-0.17070136964321136,0.3106033205986023,-1.590934157371521,-0.497689813375473,-1.1062304973602295,-0.3931974470615387,-0.3886526823043823,-1.1897081136703491,-0.16039595007896423,0.0949007123708725,-0.556438148021698,-0.8702388405799866,0.5712460279464722,-1.3472594022750854,-1.1199454069137573,0.16368946433067322,1.2672560214996338,0.23125632107257843,-0.04572204872965813,-1.57724130153656,0.21173979341983795,-2.3199405670166016,-1.0453218221664429,1.1708022356033325,0.32426244020462036,-0.09561005979776382,-1.8516201972961426,-0.572091817855835,-2.1080422401428223,-0.2983863055706024,-0.3990461826324463,-0.07522868365049362,0.08843977004289627,-0.16566914319992065,-1.2032952308654785,2.1075246334075928,-0.32568925619125366,-0.8672143220901489,3.2652223110198975,0.8054947853088379,-0.566632091999054,-2.724884510040283,0.040446698665618896,-0.4558754861354828,-1.276489019393921,0.7099658250808716,-0.2419741153717041,0.4784858524799347,0.657078206539154,2.8637783527374268,-1.042373538017273,-0.4182744026184082,0.8434947729110718,-1.7083030939102173,-0.8367277979850769,-0.797982931137085,3.2074947357177734,-0.03950363025069237,1.425929307937622,0.38248732686042786,1.4175848960876465,0.9121374487876892,-0.5430183410644531,-0.21504884958267212,-1.3595786094665527,-2.105854034423828,-2.0445590019226074,-0.39992979168891907,-0.5875528454780579,0.6302307844161987,2.996662139892578,-0.18525813519954681,0.2857860326766968,1.4838873147964478,1.0639220476150513,2.027181386947632,0.10796262323856354,-1.0299171209335327,-0.6724179983139038,-0.13260836899280548,2.198742151260376,0.11597561836242676,0.0999920442700386,-1.1087692975997925,2.08009672164917,-0.4719986617565155,0.6329794526100159,-1.3377461433410645,0.20664909482002258,0.13727033138275146,2.041499137878418,-0.483345091342926,0.22193288803100586,1.171404480934143,0.5652583837509155,-0.8521678447723389,1.1546608209609985,-0.6550870537757874,0.7677658200263977,-1.1292165517807007,1.2683680057525635,0.8682481050491333,0.14030036330223083,-2.148789882659912,0.2027304321527481,-0.5423411726951599,-1.0084034204483032,-0.8808070421218872,-0.20652717351913452,-0.0276209507137537,-1.2283486127853394,-0.8791700601577759,-1.835784912109375,0.5775793790817261,-1.156037449836731,0.6080656051635742,1.5864020586013794,-0.39288756251335144,1.1270524263381958,1.5517672300338745,-0.49439504742622375,1.1259064674377441,0.3872048854827881,1.502558708190918,0.47959989309310913,-0.9292591214179993,1.054574728012085,-0.537855863571167,1.1124346256256104,2.192976713180542,0.9674066305160522,-1.1534501314163208,-0.10693532973527908,-2.2898271083831787,0.4549803137779236,-0.8595760464668274,0.20117120444774628,0.2345139980316162,2.060253381729126,-1.2943612337112427,-0.2605108618736267,-0.15040016174316406,2.0809714794158936,-0.30963587760925293,0.24958284199237823,1.1324422359466553,1.1047195196151733,-1.252760410308838,1.6864489316940308,-0.0959155336022377,0.9336850643157959,-0.371062695980072,1.0371421575546265,0.04771601781249046,-0.9778525829315186,1.0895402431488037,-1.577226996421814,-0.2564505636692047,-0.2564500570297241,-2.362462282180786,-0.19786100089550018,1.017350435256958,1.457274079322815,1.8145288228988647,0.7488133311271667,-1.630497932434082,0.49396812915802,0.24167713522911072,0.9119018316268921,0.5070863962173462,-0.9129177927970886,-1.6229251623153687,-0.9006817936897278,0.6787224411964417,-0.7573295831680298,-0.8629300594329834,1.7309165000915527,-0.5293924808502197,-1.6031721830368042,1.560680866241455,-0.7705475091934204,-0.11690522730350494,-0.5328123569488525,0.06853543967008591,-1.0370051860809326,-0.8972788453102112,1.1333374977111816,-0.18097801506519318,1.1246787309646606,1.3565946817398071,0.03922654688358307,-0.5127623677253723,0.49244797229766846,0.11926023662090302,-0.05573951452970505,0.40896284580230713,1.105714201927185,0.267659455537796,-0.2278822362422943,-0.033017754554748535,-0.32993289828300476,-1.9839609861373901,-0.4552571475505829,-0.025327811017632484,0.8947944641113281,-0.13873448967933655,1.2045310735702515,-0.8293482065200806,1.8186732530593872,0.9391462802886963,1.0790070295333862,1.4913684129714966,-0.5327669382095337,-0.8915764093399048,-0.8144600987434387,0.14368318021297455,0.6458571553230286,-1.5542072057724,-0.3045675456523895,0.2389886975288391,-0.030915481969714165,-0.06247962266206741,-0.587512731552124,1.0406334400177002,0.4880662262439728,0.6090400218963623,-0.34136632084846497,1.8661500215530396,-1.3311753273010254,1.816447138786316,-0.43472057580947876,0.6645227074623108,0.20062220096588135,0.7861267924308777,-1.8752853870391846,0.2639588415622711,0.04575095698237419,0.7106357216835022,0.16714821755886078,1.4524548053741455,-0.3153668940067291,-1.6963980197906494,-1.0741779804229736,-0.09588562697172165,-1.112957239151001,0.9236993789672852,0.16429996490478516,1.3461596965789795,-0.3775063455104828,-0.43962788581848145,1.2314532995224,1.2829874753952026,0.3657781481742859,0.829314649105072,0.6363624930381775,0.7332168817520142,0.7511642575263977,1.8176414966583252,-1.2513536214828491,0.5962938070297241,0.5649912357330322,-0.3380732834339142,-0.5827420949935913,-2.0740182399749756,-0.8329696655273438,-0.15600846707820892,0.5047093033790588,0.47109588980674744,0.12696893513202667,-2.1086249351501465,-0.6258977055549622,0.7371188998222351,0.15662238001823425,0.8164504766464233,0.03428605571389198,-0.45861756801605225,1.4907783269882202,1.0989004373550415,-0.7082362771034241,0.07345950603485107,0.006042683497071266,0.8334692716598511,-0.5693610906600952,-1.306065559387207,0.47609442472457886,-0.8759759068489075,0.1722409576177597,0.6564297676086426,0.15412329137325287,-0.7808416485786438,-2.6972572803497314,-0.8652847409248352,-0.4784078299999237,0.8151675462722778,1.4741758108139038,1.1297191381454468,1.408699631690979,0.2625400424003601,0.9402908682823181,2.438695192337036,0.3629584312438965,-1.2529667615890503,-1.8249355554580688,-0.22195161879062653,2.4580190181732178,-0.7912791967391968,0.9079168438911438,1.388780951499939,-0.9049005508422852,-0.21191085875034332,-2.5106136798858643,-1.5601656436920166,-1.1283471584320068,-1.7502886056900024,-0.2562859058380127,-1.7775311470031738,0.2671703100204468,-0.09111076593399048,-0.5029118657112122,1.5984994173049927,-1.7973881959915161,0.357087641954422,0.5411986112594604,0.4467558264732361,-1.1291321516036987,2.91949462890625,-1.7052617073059082,1.2743414640426636,1.1190502643585205,0.8627304434776306,-0.7012057900428772,1.171782374382019,0.5263075232505798,-0.15379174053668976,0.04737153276801109,0.8329328298568726,0.36009690165519714,-1.2833583354949951,-0.19632594287395477,1.1399487257003784,-1.5712615251541138,1.4166134595870972,1.4288827180862427,1.1154412031173706,-0.7443017363548279,0.07425951212644577,2.586599111557007,-0.23333951830863953,1.2148815393447876,1.7013885974884033,2.168700695037842,0.6598044633865356,1.6329689025878906,2.2082345485687256,0.8809015154838562,1.3400657176971436,0.5372680425643921,-1.1645878553390503,-2.1189956665039062,0.07847459614276886,1.104600429534912,-1.4513407945632935,0.9864287972450256,-0.7370246052742004,-1.2163466215133667,0.023020712658762932,0.6237615346908569,-0.5538281202316284,-0.1668016016483307,-0.8355231881141663,-1.0640335083007812,0.8692355751991272,-1.4463471174240112,0.8230276107788086,-0.38812610507011414,1.599302887916565,-1.1049985885620117,-0.473207950592041,-1.1826016902923584,-0.19965338706970215,0.27364131808280945,-1.5438146591186523,-1.1832680702209473,-0.25698474049568176,-0.3442741334438324,0.3930529057979584,-1.29011869430542,0.10345969349145889,-0.05807896703481674,-1.183274745941162,-0.018589816987514496,0.8338495492935181,-0.027799883857369423,1.2058651447296143,1.5146167278289795,1.204872965812683,0.3050232529640198,-0.12929438054561615,0.059693314135074615,0.526486337184906,-2.1189427375793457,-1.909175157546997,-1.347540259361267,-3.0735182762145996,-1.382625937461853,0.27545052766799927,2.053718328475952,-0.4641915261745453,0.32966145873069763,0.8752895593643188,0.9414471387863159,0.5739234685897827,0.8642345070838928,-1.1985182762145996,-0.9146348834037781,-0.06451074033975601,0.4790134131908417,-0.13279011845588684,0.40303242206573486,-1.0874496698379517,1.1492825746536255,-3.125227928161621,0.18107716739177704,-1.5375263690948486,0.31590360403060913,-0.8600009083747864,0.3802516758441925,-0.2879936099052429,-0.3157309889793396,1.3231841325759888,0.6097583174705505,0.3028276562690735,-1.7610493898391724,1.0183132886886597,1.788035273551941,0.4622098505496979,0.9462469220161438,-0.9273229837417603,0.6938512325286865,-1.3646284341812134,1.2055306434631348,0.3168572783470154,-1.1428669691085815,-1.2461917400360107,-0.2588055729866028,-2.2531096935272217,-0.2703706920146942,-0.15146376192569733,0.9389100074768066,-0.5118404030799866,0.23750115931034088,1.9406601190567017,-1.1632975339889526,-0.37756502628326416,-1.5618549585342407,1.4841276407241821,-0.9437232613563538,-0.9111999273300171,-0.4362916946411133,-2.538853406906128,0.3129700720310211,-0.4038529396057129,-1.2628816366195679,0.31132444739341736,-1.2769497632980347,1.5854148864746094,0.9033278226852417,-0.9339454770088196,-0.6465556025505066,0.378569632768631,-2.52457594871521,1.2861179113388062,1.2185848951339722,0.1998070478439331,-0.7631906270980835,-0.23248498141765594,2.5800042152404785,2.0372374057769775,1.955337643623352,1.207409143447876,-0.45115748047828674,-0.6773251295089722,-0.18996156752109528,0.2650119662284851,0.22788108885288239,0.9837506413459778,0.7243224382400513,2.3923285007476807,0.35231533646583557,-0.3199401795864105,0.6446882486343384,1.3881174325942993,-0.908515989780426,0.9351406693458557,1.5746886730194092,0.3652009963989258,0.618570864200592,-0.8183503746986389,-0.5608192086219788,-0.8384075164794922,-1.7169067859649658,-1.3160938024520874,0.050411589443683624,-1.9740101099014282,0.1787428855895996,-1.6472581624984741,0.18347540497779846,-0.059711605310440063,0.39201846718788147,0.0826912596821785,-1.0213156938552856,0.06138951703906059,-0.20945964753627777,0.0043514869175851345,0.3293163478374481,-0.40630269050598145,0.15001514554023743,-1.205688714981079,-1.020969271659851,0.34303656220436096,0.09230837970972061,0.24612312018871307,-0.255921334028244,-0.7861010432243347,0.277804970741272,-0.2477784901857376,1.7420881986618042,1.1585054397583008,1.9829055070877075,-0.45347803831100464,-1.6340302228927612,-0.786201000213623,-1.7278473377227783,-0.1853569597005844,1.5638697147369385,0.5444251298904419,-1.494908094406128,-2.0592756271362305,0.25992876291275024,0.9122660160064697,1.7129212617874146,0.5845171213150024,-0.2632165253162384,1.2326849699020386,-0.4884117841720581,-0.6600956916809082,0.467801570892334,-1.1648188829421997,-0.7589150667190552,-0.5147582292556763,-1.2754355669021606,2.0575482845306396,-1.7126649618148804,-0.8094038963317871,-2.2089035511016846,-1.3228830099105835,0.4925326108932495,0.7625070214271545,-1.721039056777954,-1.2763482332229614,-0.4938168525695801,2.1430890560150146,1.288118839263916,0.20487041771411896,-0.1358051300048828,-0.5107131004333496,0.11424960196018219,-0.2246370017528534,2.298490285873413,0.9941227436065674,-0.6546205878257751,-0.9557680487632751,0.8603882789611816,1.0810083150863647,2.086113452911377,2.5540709495544434,-0.28206494450569153,-1.361759066581726,0.9149408936500549,-1.1912891864776611,2.308475971221924,1.8588913679122925,0.2425069510936737,-0.3538582921028137,-0.0397246815264225,0.04424536973237991,-0.4778801202774048,1.460513949394226,-0.07338538765907288,-1.5209457874298096,-0.2104029506444931,-0.3104953169822693,-0.4107491672039032,0.06915462017059326,-0.23766082525253296,1.4024971723556519,1.5794790983200073,-0.13036559522151947,1.0449484586715698,1.6070291996002197,-0.24893026053905487,0.10137594491243362,-0.43893352150917053,1.3577889204025269,-1.1413911581039429,-0.5636177062988281,-0.8953540325164795,-0.2503819763660431,2.8178446292877197,0.25474458932876587,0.032909806817770004,0.046545661985874176,-0.6589269638061523,-2.211878538131714,0.4026813209056854,-0.1724991500377655,-0.6622147560119629,-0.5960944890975952,1.1772425174713135,-1.0137075185775757,0.14566347002983093,-0.8482493162155151,