{"type":"LSTM","options":{"inputSize":31,"inputRange":31,"hiddenLayers":[20,20],"outputSize":31,"decayRate":0.999,"smoothEps":1e-8,"regc":0.000001,"clipval":5,"maxPredictionLength":100,"dataFormatter":{"indexTable":{"2":22,"m":0,"y":1," ":2,"u":3,"n":4,"i":5,"t":6,"e":7,"s":8,"f":9,"a":10,"l":11,"d":12,"o":13,"w":14,"r":15,"h":16,"p":17,"g":18,",":19,"b":20,"v":21,"T":23,"B":24,"c":25,"-":26,"k":27,"stop-input":28,"start-output":29,"unrecognized":30},"characterTable":{"0":"m","1":"y","2":" ","3":"u","4":"n","5":"i","6":"t","7":"e","8":"s","9":"f","10":"a","11":"l","12":"d","13":"o","14":"w","15":"r","16":"h","17":"p","18":"g","19":",","20":"b","21":"v","22":"2","23":"T","24":"B","25":"c","26":"-","27":"k","28":null,"29":null,"30":null},"values":[{"input":"my unit test failed","output":"software"},{"input":"tried the program, but it was buggy","output":"software"},{"input":"i need a new power supply","output":"hardware"},{"input":"the drive has a 2TB capacity","output":"hardware"},{"input":"unit-tests","output":"software"},{"input":"program","output":"software"},{"input":"power supply","output":"hardware"},{"input":"drive","output":"hardware"},{"input":"it needs more memory","output":"hardware"},{"input":"code","output":"software"},{"input":"i found some bugs in the code","output":"software"},{"input":"i swapped the memory","output":"hardware"},{"input":"i tested the code","output":"software"},{"input":"i love computers","output":"hardware"},{"input":"programming","output":"software"},{"input":"i broke my pc","output":"hardware"},{"input":"computer","output":"hardware"},{"input":"buy me a laptop","output":"hardware"},{"input":"i love to play games","output":"software"}],"characters":["m","y"," ","u","n","i","t","e","s","f","a","l","d","o","w","r","h","p","g",",","b","v","2","T","B","c","-","k","stop-input","start-output","unrecognized"],"specialIndexes":[28,29,30]}},"trainOpts":{"iterations":10,"errorThresh":0.005,"log":false,"logPeriod":10,"learningRate":0.01,"callbackPeriod":10,"timeout":"Infinity"},"input":{"rows":32,"columns":31,"weights":[-0.30153796076774597,0.14363811910152435,0.4791278839111328,0.1902618259191513,-0.54960036277771,0.8757439851760864,-0.2103688269853592,0.28380370140075684,-0.35799917578697205,0.1361956000328064,0.19867081940174103,-0.16523733735084534,-0.6293425559997559,-0.3768707811832428,-0.47812044620513916,-0.7151070237159729,-0.15050339698791504,0.226063072681427,0.7657408714294434,0.3482840359210968,-0.051476866006851196,-0.803196132183075,0.5240442752838135,0.3134061396121979,-0.6336392760276794,0.6085219383239746,-0.48286545276641846,0.7507556676864624,0.5275113582611084,-0.18893295526504517,-0.254671573638916,1.153111457824707,-0.25664278864860535,0.045301005244255066,-0.07911530882120132,-0.39406171441078186,-0.01680147461593151,0.2148125171661377,0.14870068430900574,0.2620181143283844,-1.104719877243042,-1.1879819631576538,0.2788200080394745,0.005583286285400391,0.2719079852104187,-0.6428988575935364,0.3243429362773895,1.504703164100647,-0.21500593423843384,0.6212322115898132,0.19016189873218536,1.560093879699707,-0.13475146889686584,0.12140347808599472,0.46868282556533813,-0.14876781404018402,0.12383851408958435,0.2629539966583252,0.11932823807001114,0.4353249967098236,1.4596277475357056,1.2182544469833374,0.27931326627731323,1.5911091566085815,0.9601053595542908,1.4506340026855469,0.22578637301921844,1.3888837099075317,-1.3951374292373657,2.421675682067871,-1.9798011779785156,2.4929792881011963,0.48809853196144104,-1.5743118524551392,-1.1631399393081665,-0.09831105917692184,-1.0302740335464478,-1.1261625289916992,-0.8147547245025635,1.6406666040420532,0.6296277046203613,-1.0668132305145264,-2.3342771530151367,-0.11318065971136093,0.48744475841522217,1.0786972045898438,-1.2050055265426636,0.8976453542709351,-1.110306978225708,1.4016506671905518,0.5875253081321716,-1.96543288230896,-0.26201188564300537,0.17648427188396454,1.2705565690994263,0.1685258448123932,0.3388825058937073,-0.392378032207489,0.7823529839515686,-2.0317721366882324,0.5527865886688232,-0.16859306395053864,0.3256739377975464,-0.794363796710968,-1.3729534149169922,-0.08075346797704697,-0.5474618673324585,-1.410573124885559,-0.5611897110939026,-2.1037161350250244,2.2458302974700928,1.4765534400939941,2.1598496437072754,-0.4893994927406311,-1.4892526865005493,-1.071639895439148,-0.1296612173318863,-0.23597726225852966,0.20051036775112152,-1.26785409450531,0.20309774577617645,-0.7028635144233704,-0.49319157004356384,-0.5269002914428711,0.6260222792625427,0.8759113550186157,-0.7067729830741882,0.5979776382446289,0.4066418409347534,-0.5008113980293274,-0.5298779606819153,-0.2384948879480362,0.1220644861459732,0.5141251087188721,0.3394756019115448,-0.6210960745811462,0.4712522625923157,0.5573174357414246,0.5286308526992798,0.5541588664054871,-0.5427608489990234,0.5174022316932678,-0.37059783935546875,-0.5152651071548462,-0.36798277497291565,0.42071807384490967,-0.7410066723823547,-0.6102511882781982,0.4611058533191681,-0.31538334488868713,0.08225000649690628,-0.47610145807266235,-0.4386744201183319,-1.1144286394119263,-0.7354661226272583,0.27792638540267944,2.2353594303131104,-0.3788129389286041,-0.6093809604644775,1.132445216178894,-0.8185180425643921,0.6023814678192139,-0.6884545683860779,0.08505909144878387,-0.7427963018417358,-0.6929207444190979,0.7336409687995911,-0.52996426820755,1.1022002696990967,-0.5241724848747253,1.2360796928405762,0.8053664565086365,-0.6289999485015869,-0.7117248773574829,-0.8379748463630676,0.5871537923812866,1.1420155763626099,-0.6735084652900696,-0.3853285312652588,0.5272998213768005,-0.7152054309844971,0.34636855125427246,-0.9142709374427795,-0.6185139417648315,0.6066730618476868,-1.0976392030715942,-0.2015756219625473,0.5002972483634949,0.07450069487094879,0.2500234842300415,0.06862308830022812,0.05886014178395271,-0.4208812713623047,0.373977392911911,-0.15620608627796173,0.5292970538139343,0.6483826637268066,-0.554916262626648,-0.5589619874954224,-0.12172459810972214,-0.058606453239917755,0.07369431108236313,-0.775906503200531,0.3946283161640167,0.10562871396541595,0.3200244605541229,-0.5940257906913757,-0.1576903760433197,0.1244095116853714,0.032256126403808594,0.03012780472636223,0.03880542144179344,-0.3018378019332886,-0.0294136144220829,-0.00674191489815712,-0.396781861782074,-0.31418710947036743,0.3707100450992584,-0.2592315673828125,-0.3644905984401703,-0.46645602583885193,0.3788812458515167,-0.4885895550251007,0.4596361517906189,-0.2987818717956543,0.08755303174257278,-0.06616976112127304,-0.04650102183222771,0.3483761250972748,0.4171728491783142,0.26414573192596436,0.3231046497821808,0.5684624314308167,-0.05502064898610115,-0.30215969681739807,-0.35526877641677856,-0.03054569847881794,0.04884076490998268,-0.17224110662937164,-0.262140154838562,-0.3391820788383484,0.5736743807792664,-0.44274187088012695,0.3315439522266388,-0.41729435324668884,-0.1352640837430954,0.38922786712646484,0.360909640789032,-0.0608026459813118,0.6175649166107178,0.2878316640853882,0.9981299042701721,-0.3412526547908783,0.45487770438194275,-0.7652080059051514,0.5217995047569275,-0.11986503005027771,0.235459104180336,0.07032584398984909,-0.6734921932220459,-0.3868376910686493,0.7747637033462524,-0.42950519919395447,-0.30755284428596497,0.18026019632816315,0.7421013712882996,0.01830020360648632,0.35412418842315674,-0.5627978444099426,-0.08987711369991302,0.38082292675971985,0.010537391528487206,-0.5181442499160767,0.2217199206352234,-0.7292207479476929,0.37484797835350037,0.7547672986984253,-1.2602051496505737,-1.1509455442428589,0.3579332232475281,-0.3659361004829407,-0.42183539271354675,-0.5359143018722534,1.1141594648361206,-1.2194490432739258,0.28145721554756165,-0.4399336874485016,-0.19206629693508148,0.3475263714790344,0.3189523220062256,0.34230005741119385,1.1267560720443726,0.21788617968559265,1.1655436754226685,1.1606853008270264,-0.5512811541557312,-0.45786142349243164,-1.0808298587799072,0.08458186686038971,-0.41642600297927856,0.40101030468940735,-0.3651060461997986,-0.2781916558742523,1.2386510372161865,-1.547046422958374,0.7393838763237,-1.241621971130371,-2.123509407043457,0.331451416015625,0.5584116578102112,-0.12089309841394424,0.48646554350852966,-0.6132432818412781,1.0867514610290527,-0.15918904542922974,0.7983220815658569,-0.4063152074813843,0.7027297019958496,-1.525300145149231,0.47462406754493713,0.24714919924736023,-0.42854100465774536,-0.3394864499568939,0.7011866569519043,-0.049108922481536865,-0.724480152130127,0.8395586013793945,0.3125635087490082,-1.1145169734954834,-0.2904006242752075,-0.887285590171814,0.6127780079841614,-0.5188832879066467,-0.23982533812522888,-0.9814023375511169,-0.9675211310386658,-0.7769654393196106,0.4455385208129883,0.525973916053772,-0.7113812565803528,-1.3691743612289429,-0.5505968928337097,1.7794255018234253,-0.8303313851356506,0.6049754023551941,-0.5402272939682007,-0.10748474299907684,-1.2697336673736572,0.5692270994186401,-0.12049461901187897,-0.05083439499139786,0.22107507288455963,-0.8279857039451599,-0.7285647392272949,-0.19036513566970825,-0.7103037238121033,0.19398166239261627,-0.6089194416999817,0.6219102144241333,-0.17285539209842682,0.14926202595233917,-0.3902226984500885,-0.24043884873390198,-0.616714358329773,0.04959283769130707,-0.44863221049308777,-0.01764095574617386,-0.7284764051437378,0.26446810364723206,-0.3017098605632782,-0.26293960213661194,-1.4723976850509644,-0.9378856420516968,1.6080236434936523,0.06595437973737717,0.29337841272354126,1.8946115970611572,-2.1571085453033447,-1.9049506187438965,0.3955676257610321,-2.0465667247772217,2.1492271423339844,2.2191977500915527,-1.8094403743743896,2.0954806804656982,0.03745565563440323,2.5696325302124023,2.055084228515625,-1.8730568885803223,0.07737910747528076,-2.439167022705078,-0.24882018566131592,-2.044455051422119,0.4935224950313568,0.3872168958187103,-0.1901949644088745,1.1847490072250366,-2.4169094562530518,0.07167478650808334,-1.8281313180923462,-1.1098544597625732,-2.2564785480499268,-0.5242849588394165,0.37268123030662537,-0.693850576877594,0.30717042088508606,-0.7037909030914307,0.6789886355400085,-0.7134789824485779,0.636345386505127,-0.11472310870885849,1.2161387205123901,0.2773019075393677,1.4380769729614258,0.6321269273757935,-0.0976724922657013,1.3382099866867065,1.0592446327209473,0.6635047197341919,0.6481253504753113,-0.7591485977172852,-0.6266884207725525,-0.6058236360549927,0.17144931852817535,0.5787681937217712,0.4062636196613312,-0.7945317625999451,1.345755934715271,-0.7609061002731323,0.9061156511306763,-0.6711997389793396,-0.877137303352356,0.5031461715698242,0.49905213713645935,-0.6022297143936157,-0.3235933184623718,0.8558440804481506,-0.013444043695926666,-0.49103623628616333,1.3742204904556274,-0.17970794439315796,0.4469184875488281,1.113431692123413,0.12276273965835571,0.2531154751777649,-0.239283949136734,-0.6779764294624329,-0.7285841703414917,-0.3437635600566864,-1.1470032930374146,-0.3013729155063629,0.11618056893348694,0.6981012225151062,0.7223293781280518,0.3777258098125458,-0.6926440000534058,0.21098068356513977,0.4683515429496765,-0.5252822637557983,0.7039267420768738,0.02089955471456051,1.1916406154632568,0.07122782617807388,-0.1696843057870865,-0.22962301969528198,-0.20859864354133606,1.1256963014602661,0.851760983467102,1.3367315530776978,-0.22111251950263977,0.19587492942810059,-0.8628308176994324,0.927935004234314,-0.3209063410758972,0.8458302021026611,0.3085501492023468,-0.9560286402702332,-0.4944119155406952,-0.6179754137992859,-0.25774672627449036,-0.4177130460739136,-0.7147263884544373,0.8107556700706482,0.25115057826042175,0.13277456164360046,-1.0364712476730347,-0.04066063463687897,0.8082272410392761,0.9681878089904785,-0.7830849885940552,0.29739972949028015,-0.14273078739643097,0.5165743231773376,1.0435031652450562,-1.0820224285125732,-0.5837493538856506,-0.43895044922828674,-0.17422667145729065,-0.4331533908843994,-0.08820229768753052,0.9361372590065002,-0.7055844664573669,0.24746689200401306,-0.363191157579422,-0.16588039696216583,0.7712213397026062,0.3845379650592804,0.024044906720519066,0.6935927271842957,0.0322231762111187,0.8148854970932007,0.759657621383667,-0.1770080327987671,-0.2802900969982147,-0.4424278140068054,-0.3468584716320038,-0.7167541980743408,0.6289915442466736,-0.547041654586792,-0.17334185540676117,0.5782532095909119,-0.3588719069957733,0.4048994779586792,-0.5952269434928894,-0.5055833458900452,-0.009630534797906876,-0.037809696048498154,1.065266728401184,-0.7454922199249268,-0.9303256273269653,-0.7529670000076294,0.6642953753471375,-0.6377270817756653,0.7782273292541504,-0.8599035739898682,0.588778018951416,-1.0571377277374268,-1.0438052415847778,0.7235243916511536,0.8434152007102966,0.7988996505737305,0.4284161925315857,0.6477243304252625,0.743807315826416,-0.6711978316307068,-0.6983112096786499,-0.7642245888710022,0.7923009991645813,0.7851375341415405,-0.8731454014778137,-0.9526732563972473,0.6365768909454346,-0.833236575126648,0.5987906455993652,-0.5799561738967896,-0.7558706998825073,0.814668595790863,0.776104211807251,0.5888250470161438,-1.6840554475784302,0.4760390818119049,-1.5430880784988403,0.21665623784065247,0.10058638453483582,1.5658659934997559,-0.7490987777709961,-0.23025888204574585,-0.7618722915649414,-1.0852546691894531,1.1383142471313477,0.5354856252670288,-0.047670524567365646,-0.2569964528083801,0.27528709173202515,0.8498410582542419,-1.2073593139648438,0.18646562099456787,0.7782558798789978,1.0711945295333862,-0.5549092888832092,0.014151464216411114,0.8071176409721375,0.3690216541290283,0.07328576594591141,0.6299638748168945,-0.25088581442832947,-0.23676440119743347,1.1988768577575684,1.602447271347046,2.4725348949432373,-0.742488443851471,-0.9370720982551575,-0.4192167818546295,-1.0042177438735962,0.41889873147010803,0.33976516127586365,-0.8314351439476013,-0.05471865460276604,-3.3189892768859863,-2.791266679763794,0.61484295129776,-0.39843764901161194,-0.6930938363075256,-0.5723258256912231,-0.2992979884147644,1.8070616722106934,-0.12202532589435577,0.8703197836875916,0.7993437051773071,1.6754121780395508,-1.068235158920288,-0.026095904409885406,-1.3180938959121704,0.3574056625366211,0.3824325203895569,-0.1878117024898529,0.4282782971858978,-0.31182506680488586,0.7409628629684448,0.14605504274368286,-1.3912453651428223,1.5696920156478882,-2.651052474975586,1.0412036180496216,2.2602877616882324,-3.3931682109832764,-1.7606329917907715,1.3363968133926392,1.6777729988098145,2.166239023208618,2.316915273666382,-1.1657984256744385,3.480487823486328,1.8148491382598877,2.702528238296509,3.1377594470977783,-2.161404609680176,0.9499855041503906,-2.9534828662872314,-1.4555467367172241,-1.5077030658721924,1.9136210680007935,-2.173043727874756,-2.835148572921753,-0.026139218360185623,-4.05343770980835,-0.736095130443573,-3.281407117843628,-2.616011142730713,-1.6855231523513794,-1.6315301656723022,0.26060131192207336,-0.9866198301315308,2.1278884410858154,-0.42992788553237915,0.09090796858072281,0.9901204705238342,0.788174033164978,0.7377711534500122,-1.9133716821670532,-0.9673655033111572,-1.400510311126709,1.262376308441162,-0.06006120890378952,-0.7273798584938049,-1.7513521909713745,0.20798322558403015,-0.4738363027572632,-0.3018554747104645,3.3941433429718018,3.7983572483062744,1.9784995317459106,-3.3323817253112793,0.6797406673431396,0.5595389008522034,-0.855771005153656,1.8960492610931396,0.1720491647720337,0.4455415904521942,0.7448479533195496,1.170256495475769,0.8831540942192078,1.1126233339309692,-0.44648855924606323,-1.3084286451339722,-0.6662113666534424,0.47741517424583435,-0.6884310245513916,0.806869387626648,-0.9306507706642151,1.3210184574127197,-1.0137733221054077,-1.1791291236877441,0.7352522015571594,0.6075209975242615,0.9999327659606934,0.61534184217453,0.6717128753662109,0.9021030068397522,-0.9006434082984924,-1.1928819417953491,-1.7003873586654663,0.9932065010070801,1.1259368658065796,-1.4078519344329834,-1.5115225315093994,0.7939037680625916,-1.0594720840454102,1.0923205614089966,-0.5870370864868164,-1.1137590408325195,0.6614365577697754,0.2905317544937134,-1.9944217205047607,1.8277931213378906,2.3645622730255127,1.3583601713180542,-2.745877981185913,3.212730884552002,-2.044212579727173,1.7884695529937744,-2.203209638595581,0.8391140699386597,0.14458957314491272,-1.8414181470870972,-2.537712574005127,-1.9628511667251587,-3.745870351791382,-2.5299923419952393,-1.9559335708618164,2.0413215160369873,3.377284526824951,3.5863707065582275,-1.7089111804962158,-3.1913466453552246,2.106017589569092,1.7487925291061401,-2.264075756072998,2.8703134059906006,-2.351465940475464,2.654721975326538,2.071215867996216,-1.5736422538757324,-1.6916308403015137,2.1644816398620605,-2.8719093799591064,-1.899260401725769,-2.4549553394317627,3.3903582096099854,-2.4175474643707275,2.5454211235046387,-2.1918537616729736,2.400434970855713,-2.26186203956604,-2.37835693359375,2.4422974586486816,2.838813066482544,2.890699625015259,2.2913670539855957,2.506648540496826,2.502110481262207,-2.353018045425415,-2.0670361518859863,-1.2170100212097168,2.423365592956543,1.4623016119003296,-2.214496374130249,-1.5826911926269531,2.5561957359313965,-2.3675804138183594,2.6638879776000977,-2.5475213527679443,-2.247670888900757,2.5156548023223877,3.198230266571045,2.143019676208496,-2.469449043273926,-2.1334776878356934,-2.464716672897339,2.40122652053833,-2.3011865615844727,2.491346836090088,-2.4013946056365967,2.2677900791168213,-2.3416616916656494,-2.211171865463257,2.383516788482666,2.380540370941162,2.24554443359375,2.3700201511383057,2.352632522583008,2.3609683513641357,-2.5824453830718994,-2.2621724605560303,-2.100297451019287,2.39622163772583,2.30950665473938,-2.1105406284332275,-2.0249156951904297,2.319110155105591,-2.2511563301086426,2.3849639892578125,-2.4303553104400635,-2.2627906799316406,2.4035634994506836,2.5435917377471924,-1.1380703449249268,1.502150297164917,1.2407982349395752,1.4788129329681396,-1.0580400228500366,0.925005316734314,-1.249391794204712,0.9619079828262329,-1.1695163249969482,1.4151523113250732,1.1581367254257202,-1.262528657913208,-0.9530417323112488,-1.161415696144104,-1.145967960357666,-1.1089199781417847,-1.2507539987564087,1.4463374614715576,1.1540359258651733,1.4409863948822021,-1.540619134902954,-1.039569616317749,1.3605610132217407,1.0613701343536377,-1.2965096235275269,1.0895417928695679,-1.2816396951675415,1.0674543380737305,1.2451165914535522,-1.4112944602966309,-1.3618160486221313,0.8585507273674011,-2.271864891052246,-1.5846930742263794,2.4794225692749023,-0.6794126629829407,0.6301261782646179,-2.5442135334014893,-2.34586763381958,2.1757702827453613,-0.6590072512626648,-0.8383781313896179,1.8385404348373413,-0.6703303456306458,-2.951984405517578,-0.8010534644126892,-0.7140740156173706,0.747367799282074,1.7967181205749512,1.0196841955184937,2.3099114894866943,0.7356178760528564,-1.6797184944152832,2.3745412826538086,-2.257568359375,-0.8779705166816711,1.8042877912521362,-0.9579156637191772,0.6549131274223328,1.8161709308624268,2.153937816619873,2.4960243701934814,-2.9112112522125244,0.27421993017196655,-0.6941522359848022,-4.293283462524414,1.6173031330108643,-1.9167438745498657,5.074742317199707,-4.305263996124268,2.659628391265869,0.8844438195228577,1.3857152462005615,-0.3063390552997589,2.0691020488739014,-0.28023087978363037,1.681018352508545,1.5843936204910278,-1.3119964599609375,-4.3831305503845215,-0.44514474272727966,-2.469024658203125,4.300568103790283,1.283141851425171,-0.6839936971664429,-0.40969163179397583,2.268341302871704,-1.6745785474777222,4.202497482299805,-1.8443622589111328,-1.918941855430603,4.627108573913574,4.6643548011779785,-0.9398226737976074,0.5437724590301514,0.7376578450202942,1.6359535455703735,-0.6263564229011536,0.06850739568471909,-0.8222574591636658,-0.45260193943977356,0.9278598427772522,0.7354978322982788,1.474697232246399,-0.7601892948150635,-0.4411555826663971,-0.5987056493759155,-0.008489721454679966,-0.652966320514679,0.1272275745868683,0.2700316309928894,-0.3674578368663788,-0.406387060880661,-0.9192595481872559,0.2868340015411377,0.9134212136268616,0.967261552810669,-0.8708689212799072,0.375179648399353,-0.8176460266113281,0.4083977937698364,1.26566481590271,-1.3403924703598022,-1.5538073778152466,0.2966846227645874,0.6888657808303833,0.16304945945739746,0.7555704712867737,-0.44257134199142456,0.5346758961677551,-1.0968921184539795,0.4757404029369354,-0.4663422107696533,0.3444133996963501,0.27754566073417664,-0.797152578830719,-0.43454766273498535,-0.5815063118934631,-0.644476056098938,-0.711233913898468,-0.8247183561325073,1.3727965354919434,0.659153163433075,0.6262251734733582,-0.16188372671604156,-0.5190423727035522,0.17011351883411407,-0.037828538566827774,-0.5201126337051392,0.26180920004844666,-0.9670194387435913,0.4078776240348816,0.27384886145591736,-0.6643272638320923,-0.6493316292762756,0.04276106879115105,-0.05699577182531357,0.07861918956041336,0.06341210007667542,-0.03765631839632988,0.02153017744421959,-0.05360949784517288,-0.04330337420105934,-0.006249281112104654,0.039355941116809845,0.05947025865316391,-0.027285126969218254,0.056966718286275864,0.07351162284612656,0.01656688190996647,-0.07745181024074554,0.030473733320832253,-0.002257843501865864,0.04396297037601471,0.05362699180841446,0.06530193239450455,0.06688383221626282,-0.014208916574716568,0.054813988506793976,0.03662931174039841,-0.06009645015001297,-0.03394527733325958,0.03341546654701233,0.034540142863988876,0.05294186249375343,-0.0456794798374176]},"hiddenLayers":[{"inputMatrix":{"rows":20,"columns":31,"weights":[-0.4284968376159668,-0.24872325360774994,0.7244579195976257,0.0039657363668084145,-0.0024273397866636515,0.425004243850708,0.026747576892375946,-0.02889147400856018,-0.8627125024795532,0.4234481751918793,0.006483604200184345,-0.09580140560865402,-0.2252173274755478,-0.592424213886261,-0.21988287568092346,-0.5450870394706726,0.11980608105659485,0.22326107323169708,-0.17245618999004364,0.6599929332733154,-0.2588649392127991,-0.13117486238479614,0.35421285033226013,0.7261293530464172,-0.6169999241828918,0.5621803998947144,-0.5544959306716919,0.515819251537323,0.5457662343978882,0.010322252288460732,0.09824676811695099,1.3129340410232544,0.18267792463302612,-1.541189193725586,0.04532231390476227,-0.41447094082832336,0.02225852943956852,-0.11144731938838959,-0.14080804586410522,-0.5389379262924194,-0.23398205637931824,-0.3850959241390228,0.007307861931622028,-0.35977473855018616,-0.4049997627735138,-0.2872922420501709,-0.310513973236084,-0.3618479371070862,0.16622279584407806,-0.21087861061096191,0.03673136979341507,0.03877779841423035,-0.10871356725692749,-1.2890897989273071,-0.3874795436859131,-0.336391419172287,0.1010969877243042,-0.7868821024894714,0.21191564202308655,-0.8626437187194824,-0.03701328486204147,-0.14402657747268677,0.09039787948131561,0.20852811634540558,0.8341244459152222,0.29840847849845886,-0.7312023639678955,0.8327843546867371,-0.2599378824234009,0.17845256626605988,-0.7699974775314331,-0.3610348403453827,-0.18808923661708832,-0.2013757824897766,-0.7067109942436218,-0.6995331645011902,-0.902609646320343,-0.8394235968589783,0.5393246412277222,0.2769356966018677,0.8896797299385071,0.8220293521881104,-0.013332459144294262,-0.8850333094596863,0.6539640426635742,0.5697652101516724,-0.9695236682891846,0.8503709435462952,-0.8019378185272217,0.8548272848129272,0.7874701023101807,0.008565085940063,0.03776434436440468,0.0569133386015892,0.05829566344618797,0.5321666598320007,0.003275671973824501,-0.5977413654327393,0.5715125203132629,-0.13462576270103455,0.6802951693534851,-0.6533134579658508,0.1177273541688919,0.056156646460294724,-0.1447533816099167,-0.6226789355278015,-0.5413968563079834,-0.7010593414306641,-0.5572869777679443,-0.008766906335949898,0.22461506724357605,0.5837961435317993,0.6735439896583557,-0.08161903917789459,-0.6399128437042236,0.48429954051971436,0.5963504910469055,-0.6061194539070129,0.5898231863975525,-0.637671172618866,0.6869357228279114,0.6191854476928711,0.04684238135814667,-0.08640334755182266,-0.7663887739181519,0.6807235479354858,0.6282225251197815,0.1698669046163559,-0.5016939043998718,0.6101173162460327,-0.2791208326816559,0.6348792314529419,-0.8533272743225098,0.49286866188049316,0.3321802318096161,-0.2076692283153534,-0.6289798617362976,-0.4971769154071808,-0.8965504169464111,-0.5689442157745361,0.29675164818763733,0.22552677989006042,-0.006672388408333063,0.2621517479419708,-0.2578197717666626,-0.40538489818573,0.4578062891960144,0.8121034502983093,-0.760237991809845,0.502709150314331,-0.8002796173095703,0.5947942733764648,0.7487328052520752,0.039875686168670654,0.05265013501048088,-0.08374414592981339,-0.5030416250228882,0.08815642446279526,-0.6752786636352539,-0.5441957712173462,-0.24529105424880981,0.5720903873443604,-0.5671215653419495,-0.03542986139655113,-0.517361581325531,-0.5176463723182678,0.5618194341659546,-0.5186977386474609,0.0891706794500351,0.48559853434562683,0.28065648674964905,0.4610552489757538,-0.5868786573410034,0.4689505100250244,-0.12567073106765747,0.48665013909339905,0.3520849049091339,-0.22586780786514282,0.2032870501279831,0.011382189579308033,-0.29354166984558105,0.6378255486488342,-0.282606303691864,-0.2754979431629181,0.6161903142929077,0.6496149897575378,-0.054943133145570755,0.5913788080215454,-0.016191763803362846,0.5550747513771057,-0.6579635143280029,0.6143104434013367,-0.6428486704826355,0.5191646218299866,0.03779958561062813,-0.060436464846134186,0.029596056789159775,-0.6062067747116089,-0.6117969751358032,-0.0420311763882637,-0.4773910343647003,-0.5847777128219604,0.061088647693395615,0.7164545059204102,0.003808265319094062,-0.11331649869680405,0.012485431507229805,-0.024077091366052628,0.0025851652026176453,0.04351625218987465,0.01379228476434946,0.033058248460292816,-0.6956625580787659,0.6017623543739319,0.027343302965164185,-0.6570017337799072,-0.5825121998786926,0.5935085415840149,-0.7751449346542358,0.6623449921607971,-1.0454658269882202,-0.551153838634491,0.6349357962608337,0.696768045425415,-0.5575919151306152,-0.05441952496767044,-0.6075466275215149,-0.7121015787124634,0.7174667119979858,0.15154077112674713,-0.40772733092308044,-0.6002845168113708,-0.5456874370574951,0.2753773033618927,-0.43119215965270996,0.7227249145507812,1.3080532550811768,0.7752562761306763,-0.665515661239624,0.38106676936149597,0.37553369998931885,-0.23489192128181458,0.5479302406311035,0.15932482481002808,0.5080720782279968,0.25351959466934204,0.8242571353912354,0.9514462947845459,0.16405634582042694,0.03882572054862976,-0.04388747736811638,0.6494638323783875,-0.8053465485572815,0.752812385559082,-0.704084038734436,-0.06109882518649101,-0.1189059242606163,-0.36165812611579895,-0.2956046462059021,0.0352662168443203,-0.7573490738868713,-0.05086246505379677,-0.8161546587944031,-0.6273747682571411,0.44153767824172974,0.6734104752540588,0.8317393064498901,0.5852485299110413,0.17355993390083313,-0.7671066522598267,-0.058492451906204224,-0.0027993018738925457,-0.5722458362579346,0.7135887145996094,-0.7282235026359558,0.6363678574562073,0.6046578884124756,0.09984542429447174,-0.5511757135391235,0.5912632346153259,-0.5965243577957153,-0.09048207104206085,-0.6434304714202881,0.05643513798713684,-0.12305331230163574,0.6057894229888916,-0.6430827379226685,0.46842411160469055,-0.6300522089004517,-0.6651004552841187,0.6344033479690552,-0.06099552661180496,-0.05534053221344948,0.04990137740969658,0.015097573399543762,0.6679086685180664,-0.7079184055328369,-0.005876531824469566,0.11767589300870895,0.689041018486023,0.033528320491313934,-0.10600871592760086,-0.04732199385762215,-0.0037433155812323093,0.02381257712841034,0.577102541923523,-0.1483992338180542,-0.14120131731033325,0.6995455026626587,0.6642250418663025,-0.5109961628913879,0.23094365000724792,0.7031553387641907,0.42208942770957947,-0.20619304478168488,0.43910887837409973,-0.7625242471694946,0.2678273916244507,-0.968512237071991,0.5126343965530396,0.41227439045906067,-0.3386247754096985,-0.38895383477211,-0.47195303440093994,-0.0966760590672493,-0.5447446703910828,-0.14572161436080933,0.8739043474197388,-0.262258917093277,0.48350968956947327,-0.4912787675857544,-0.08877086639404297,0.43415820598602295,0.3375561535358429,-0.7925721406936646,0.3629296123981476,-0.8363972306251526,0.4781945049762726,0.5809575319290161,-0.37106019258499146,-0.18658196926116943,0.27896809577941895,-0.7928550243377686,-0.09198892116546631,-0.9311360716819763,-0.5262221693992615,0.3995198607444763,0.80606609582901,-0.7171128988265991,0.2355383038520813,-0.7334879040718079,-0.6473837494850159,0.7361584305763245,-0.39260366559028625,0.055670492351055145,-0.4143811762332916,-0.4725192189216614,0.7183194756507874,-0.7910687923431396,0.5163052678108215,-0.26503294706344604,0.7867088317871094,-0.4608962833881378,0.12733563780784607,-0.219278946518898,-0.3059963583946228,0.4547238051891327,0.2289728969335556,0.4282495379447937,0.3277050852775574,0.833267867565155,0.897911548614502,-0.5447292327880859,0.018956556916236877,0.7022469639778137,0.2212323546409607,-0.45989713072776794,0.6378993391990662,-0.22350779175758362,0.06099572777748108,-0.8022457361221313,0.30787813663482666,0.19479946792125702,-0.1157580018043518,-0.6692003607749939,-0.6733736991882324,-0.6553494930267334,-0.7187740802764893,0.08657088875770569,0.2698369324207306,0.3868512809276581,0.7186115384101868,-0.45697805285453796,-0.36410072445869446,0.5227474570274353,0.6065652966499329,-0.8067509531974792,0.6443182229995728,-0.8358070850372314,0.7031377553939819,0.6740139722824097,-0.046143364161252975,-0.04011700674891472,-0.31304797530174255,0.7435385584831238,0.05154821649193764,0.6825489401817322,-0.2967197597026825,0.5834446549415588,-0.6603969931602478,0.5324806571006775,-0.03502215817570686,0.481730580329895,0.5395254492759705,-0.725400447845459,-0.5593869686126709,0.15696372091770172,0.20720906555652618,-0.5200681686401367,-0.1650611162185669,0.7121171951293945,-0.2769506275653839,-0.1081341952085495,-0.4738970696926117,0.21779386699199677,-0.19435185194015503,-0.02424345351755619,0.04980490729212761,-0.039434224367141724,-0.6697549819946289,0.44628289341926575,-0.19598260521888733,-0.7499098181724548,-0.6396751403808594,-0.07606962323188782,0.37914684414863586,-0.06411692500114441,0.49468427896499634,-0.6152285933494568,0.5609853863716125,-0.4211386740207672,-0.03734256327152252,-0.10043025016784668,-0.08038616925477982,-0.05344460532069206,-0.5409404039382935,-0.6342538595199585,-0.08235251158475876,-0.7097796201705933,-0.5085259079933167,0.13368083536624908,0.4816737771034241,0.5493460893630981,0.44858282804489136,0.13296277821063995,-0.3657281696796417,0.0512993223965168,-0.09132559597492218,-0.3162669241428375,0.06224368140101433,-0.6273226141929626,0.627525806427002,-0.011053599417209625,0.05713614448904991,-0.3975622355937958,0.3729325234889984,0.4542418420314789,-0.45917949080467224,0.4139997065067291,-0.13657671213150024,0.33448338508605957,-0.3831443190574646,0.20334984362125397,0.22015248239040375,-0.1737324595451355,-0.22427907586097717,-0.4627740681171417,-0.24733127653598785,0.40457525849342346,-0.25174176692962646,-0.2899235188961029,0.27639248967170715,0.47911420464515686,-0.35776790976524353,-0.4229613244533539,0.1368952840566635,0.36521318554878235,-0.474688321352005,-0.4524601399898529,-0.15145254135131836,-0.36821165680885315,-0.04985351860523224,0.3063810467720032,-0.1008019968867302,-0.46693167090415955,-0.5014364123344421,-0.05982378125190735,-0.48898202180862427,0.028551047667860985,-0.6226115822792053,0.01271071471273899,-0.07784198224544525,0.6143670082092285,-0.6980588436126709,-0.001872203079983592,-0.6972965598106384,-0.7167380452156067,0.7072655558586121,0.5143818259239197,0.04273485019803047,-0.021317986771464348,0.1782071739435196,0.41434425115585327,-0.7102161645889282,0.04042084887623787,-0.054865386337041855,0.5601139068603516,-0.01432108972221613,0.00421134103089571,-0.05895793065428734,0.0392184779047966,-0.05226106569170952,0.7068712711334229,-0.0993637889623642,0.0012986654182896018,0.6072854995727539,0.6152052283287048,-0.07190544158220291,-0.567236602306366,0.04206299036741257,-0.6815980076789856,0.07185172289609909,0.0095262061804533,0.6518508791923523,-0.558663547039032,0.09226487576961517,-0.6115087270736694,-0.6936994791030884,0.6140424609184265,0.31408819556236267,0.05636368691921234,-0.035764411091804504,0.12609300017356873,0.5559651255607605,-0.6198339462280273,0.033172622323036194,-0.06883684545755386,0.6969270706176758,-0.017320407554507256,-0.04332014173269272,0.10025599598884583,0.03901783376932144,0.03475310280919075,0.589992105960846,0.08048319071531296,0.009005430154502392,0.7371408939361572,0.46233606338500977,-0.0562753826379776,0.11295652389526367,0.10884182155132294,0.5193225741386414,-0.6307193636894226,0.6175479888916016,-0.5471611022949219,0.6014091968536377,-0.7338278293609619,-0.05870434269309044,-0.1696639209985733,-0.4136226177215576,-0.7144517302513123,-0.0662679374217987,-0.7636868953704834,-0.6052146553993225,0.27638328075408936,0.5735300779342651,0.6957445740699768,0.7380000352859497,0.08792697638273239,-0.5852182507514954,0.03187619149684906,0.03253420814871788,-0.6438993215560913,0.6990588903427124,-0.5953339338302612,0.7258332967758179,0.5178747773170471,0.21761676669120789,-0.35905948281288147,0.2084442675113678,-0.7347484827041626,-0.12281405180692673,-0.6994154453277588,-0.5362533926963806,0.4275968670845032,0.7044029235839844,-0.671576201915741,0.008565154857933521,-0.7358040809631348,-0.6733616590499878,0.6365098357200623,-0.3943270742893219,-0.422728955745697,-0.42519932985305786,-0.48655879497528076,0.6166988611221313,-0.675021767616272,0.5887783169746399,-0.3408089876174927,0.617400586605072,-0.5938650965690613,0.4638504385948181,-0.2923141419887543,0.29444414377212524,0.5126700401306152,0.18041150271892548,0.41983112692832947,0.5681405663490295,0.5918725728988647,0.8187588453292847]},"inputHidden":{"rows":20,"columns":20,"weights":[-0.5109041929244995,0.4731872081756592,0.5475667715072632,-0.3668215274810791,-0.3261937201023102,-0.08239777386188507,1.645399570465088,0.22203344106674194,0.22980210185050964,-0.0551130585372448,0.2442847192287445,-0.028936581686139107,0.7198878526687622,-1.2864398956298828,1.5848530530929565,-0.6192796230316162,0.050316087901592255,0.07866670936346054,-0.1974237710237503,0.23318684101104736,1.1735749244689941,1.0918121337890625,-1.303681492805481,-0.15974965691566467,-0.06755490601062775,0.35889145731925964,0.31763365864753723,-0.5630459189414978,-1.0234215259552002,0.37293264269828796,-0.5679769515991211,0.3804386854171753,-0.8891856074333191,-0.5015158653259277,-1.0824435949325562,1.1696666479110718,0.30059242248535156,0.01808730699121952,-0.947084367275238,0.5140061974525452,0.14805425703525543,-0.12944234907627106,0.13724440336227417,-0.14889007806777954,-0.028023695573210716,-0.00267914985306561,0.0910671204328537,-0.22931429743766785,0.029789363965392113,0.10244088619947433,0.28970232605934143,0.02348337695002556,0.2958928644657135,-0.14012138545513153,0.04114442691206932,-0.4399329423904419,0.04022222012281418,-0.0668729841709137,0.1199241578578949,0.0062615517526865005,-0.04676831513643265,-0.017173469066619873,-0.08086297661066055,-0.10242672264575958,-0.06843458116054535,-0.5033212304115295,0.2797679901123047,-0.09357621520757675,-0.04564793407917023,0.2831258177757263,0.062001943588256836,-0.19483642280101776,0.05712518095970154,-0.25112679600715637,-0.5520263910293579,-0.09535057097673416,-0.10039757192134857,0.011339331045746803,-0.14637523889541626,0.34686967730522156,-0.15630196034908295,0.02321014180779457,-0.15307539701461792,-0.08407174050807953,0.08830935508012772,-0.15255169570446014,0.0784396156668663,-0.4180240333080292,0.06419813632965088,-0.1312638372182846,0.11333288252353668,0.024578336626291275,0.005293631926178932,-0.03429416939616203,-0.13883155584335327,-0.3516010642051697,-0.1490543782711029,-0.04297152906656265,-0.0881044939160347,0.037694450467824936,-0.5943191647529602,0.6781722903251648,-0.7069304585456848,-0.6400688290596008,-0.7401408553123474,0.7820214033126831,0.6721434593200684,-0.8652055859565735,-0.15320070087909698,0.5710855722427368,-0.6679920554161072,0.7582958936691284,-0.6667319536209106,-0.6273464560508728,-0.6160227656364441,0.8373849987983704,0.8327616453170776,-0.6730483770370483,-0.6505471467971802,1.040958285331726,0.0766294077038765,-0.09606866538524628,-0.008546684868633747,0.07273422181606293,0.05798901244997978,-0.1300688534975052,-0.03420853242278099,0.4563308358192444,-0.024606870487332344,0.18495848774909973,-0.08113870024681091,-0.2950953245162964,0.07458635419607162,-0.01587633229792118,0.08231712132692337,-0.4282480776309967,-0.5076614022254944,0.47759199142456055,-0.00395917845889926,-0.07173867523670197,-1.1509056091308594,0.889677107334137,-0.7939237356185913,-0.8103240728378296,-0.7704771757125854,0.8655089139938354,0.7004226446151733,-0.907931923866272,-0.0042605469934642315,-0.15557095408439636,-0.5752435922622681,0.9079641103744507,-0.7196041345596313,-0.700423002243042,-0.8542542457580566,-0.09426748752593994,-0.271413654088974,-0.6692318320274353,-0.8392468690872192,0.0585554800927639,0.552401602268219,-0.8112481236457825,0.6725776195526123,0.45687803626060486,0.6064332127571106,-0.5648764371871948,-0.5908011794090271,0.5272341370582581,0.030505476519465446,-0.052903082221746445,0.5748732686042786,-0.5714325308799744,0.6973505020141602,0.6351850032806396,0.6093974113464355,-0.5537137985229492,-0.11967799812555313,0.6202977895736694,0.6437041163444519,-0.4248558282852173,-0.6505634188652039,-0.056841954588890076,-0.3829485774040222,-0.3715227246284485,-0.43174734711647034,-1.0511829853057861,0.09824129939079285,2.0853755474090576,-0.06183837354183197,-0.11346134543418884,-0.08810856193304062,-1.1288610696792603,-0.004009132739156485,-0.1281217485666275,-0.20340119302272797,-0.040794774889945984,0.13763931393623352,0.9324523210525513,-0.043045155704021454,-0.49624139070510864,-0.25571340322494507,0.2268577367067337,-0.23439879715442657,-0.30137670040130615,-0.16591045260429382,0.0597323402762413,0.49340447783470154,-1.0669488906860352,-0.16176430881023407,0.4573008120059967,0.30114540457725525,0.2000463753938675,0.35120490193367004,-0.48759162425994873,-0.23995894193649292,-1.2508670091629028,-0.0028877868317067623,0.06793950498104095,-0.17435099184513092,0.14156943559646606,-0.9125114679336548,0.657098650932312,-0.6930838227272034,-0.525606095790863,-0.4505959451198578,1.030339002609253,0.5945931077003479,-1.3535648584365845,0.6245889663696289,0.20346836745738983,-0.6945339441299438,1.2711724042892456,-0.8236437439918518,-0.48520106077194214,-0.6659345030784607,-0.057179197669029236,1.0294426679611206,-0.9291158318519592,-0.4719794690608978,1.0440194606781006,0.034247856587171555,0.25575077533721924,0.08770416676998138,-0.2802331745624542,-0.35423293709754944,0.24610473215579987,0.6781509518623352,-0.03264620155096054,-0.11120682209730148,0.3427659869194031,0.37800684571266174,0.1234191358089447,0.6719663739204407,-0.5676280856132507,-0.26388657093048096,-0.9991261959075928,-0.027172356843948364,-0.07807384431362152,-0.01577058620750904,0.1824800968170166,-0.08230666816234589,0.022386252880096436,-0.0593695230782032,-0.07503481209278107,-0.03548333793878555,-0.10231927782297134,0.3148494362831116,0.5809546113014221,0.026868078857660294,0.1225326657295227,0.10638880729675293,-0.7210339903831482,0.16470356285572052,-0.30566030740737915,0.0332452654838562,-0.48354992270469666,-0.47482410073280334,0.5955245494842529,-0.09433218091726303,-0.32133516669273376,-0.14637638628482819,0.109272301197052,-0.07428224384784698,-0.21091784536838531,-0.07173341512680054,-0.16145633161067963,0.23791398108005524,0.06364981085062027,-0.1528613120317459,0.002046640496701002,-0.0037275156937539577,-0.19804678857326508,0.14219225943088531,-0.12599381804466248,-0.006439506076276302,-0.495468407869339,-0.6912209391593933,0.38491249084472656,-0.17874160408973694,0.16180245578289032,0.24699242413043976,-0.2355920672416687,0.1743297576904297,-0.027984274551272392,0.4113523066043854,-0.12697741389274597,-0.09970738738775253,0.2709631323814392,-0.15636016428470612,-0.13917700946331024,0.18045495450496674,-0.23961682617664337,0.20132321119308472,-0.07273215800523758,0.04460200294852257,-0.36528968811035156,-0.36225271224975586,0.7030295729637146,0.061586715281009674,-0.24789069592952728,0.4853321611881256,0.08351738750934601,0.22396737337112427,0.04286337271332741,-0.07344414293766022,-0.3467661440372467,0.1355733424425125,0.31126096844673157,0.08794887363910675,-0.1912764608860016,0.404004842042923,-0.20256350934505463,0.7015672326087952,0.09027846157550812,0.18204949796199799,-0.1487756222486496,-0.7688969373703003,0.1485281139612198,0.2676066756248474,-0.43159928917884827,-0.006464011967182159,0.16381168365478516,-0.048507288098335266,0.006106249056756496,-0.06469710171222687,-0.10400412976741791,0.24913805723190308,0.013956009410321712,0.047177936881780624,-0.19284729659557343,-0.0227498896420002,-0.14769040048122406,0.07470925152301788,0.22622747719287872,0.21027772128582,-0.0682893842458725,-0.5064572095870972,0.32048940658569336,0.05012967810034752,-0.13481026887893677,-0.22034093737602234,0.16064238548278809,-0.2507809102535248,-0.15445202589035034,0.0532890222966671,-0.07990922778844833,0.15999552607536316,-0.4621480405330658,-0.05333385616540909,-0.5505610704421997,0.1658458709716797,0.1273677945137024,0.07272125780582428,-0.14253947138786316,-0.13605673611164093,-0.514422595500946,0.019951554015278816,0.021832628175616264,0.032032426446676254,-0.04082800820469856,-0.8044318556785583,0.46259260177612305,-0.10847535729408264,-0.663452684879303,-0.5383657217025757,0.7131357789039612,0.5758486986160278,-0.8956396579742432,0.5572435855865479,0.030751191079616547,-0.25687575340270996,0.8864604830741882,-0.32317590713500977,-0.6524051427841187,-0.6583690643310547,0.7283717393875122,0.9211188554763794,-0.7517876029014587,-0.273008793592453,1.2392890453338623]},"inputBias":{"rows":20,"columns":1,"weights":[0.3778461515903473,0.4187678396701813,0.4179427921772003,0.6624606251716614,-0.6377242207527161,-0.11142077296972275,0.0880763977766037,-0.202450692653656,0.6294704079627991,0.5821846127510071,0.3798809349536896,-0.14994223415851593,0.4342138469219208,0.6563334465026855,0.3978956341743469,0.16943547129631042,-0.6207594275474548,-0.6271997690200806,0.41138654947280884,-0.1373310089111328]},"forgetMatrix":{"rows":20,"columns":31,"weights":[0.3241419494152069,-0.7815997004508972,0.02785824052989483,-0.7086549997329712,-0.5187053084373474,0.41350582242012024,0.7323641180992126,-0.6149423122406006,0.40099015831947327,-0.9285486340522766,-0.8173688650131226,0.6253624558448792,-0.14996908605098724,-0.023694803938269615,-0.40930846333503723,-0.318611741065979,0.6428795456886292,-0.5635854005813599,0.9415528178215027,0.1444743424654007,1.0283886194229126,-0.734693706035614,0.08429401367902756,0.09896127879619598,-0.16000092029571533,0.20639599859714508,0.05731712281703949,0.4294655919075012,-0.03809436783194542,0.6323738694190979,0.6710940003395081,-0.6080376505851746,-0.7207353711128235,1.038981318473816,-0.5171173810958862,-0.8230900764465332,0.7434378266334534,0.6175640225410461,-0.5998982787132263,-0.009309237822890282,-0.6127890348434448,-0.6309292316436768,0.569553554058075,-0.7524142265319824,-0.8674866557121277,-0.6353760361671448,-0.9663633704185486,0.6802218556404114,-0.549294114112854,0.6497083306312561,0.422761470079422,0.6681312322616577,-0.5045155882835388,0.7552081942558289,1.187496304512024,-0.7119305729866028,0.761695146560669,0.09363103657960892,0.900738537311554,0.6233718991279602,0.6181957721710205,0.6952855587005615,-0.1135621964931488,-0.9144443869590759,0.27159547805786133,-0.5336173176765442,-0.0691368356347084,0.12365525215864182,0.7181771397590637,-0.5214294791221619,0.4806481599807739,-0.6867932677268982,-0.5405983924865723,0.7019674181938171,-0.11971351504325867,-0.20444150269031525,-0.00006067563299438916,-0.22749224305152893,0.36722955107688904,-0.5831824541091919,0.271599143743515,0.11494868248701096,0.7394658327102661,-0.23835444450378418,0.2174578458070755,0.13103201985359192,-0.1635057032108307,0.16386553645133972,0.03969608247280121,0.19582527875900269,0.09559911489486694,0.5132177472114563,0.6953765749931335,0.039286088198423386,-0.5858674645423889,-0.08521410822868347,-0.7124683260917664,-0.044878147542476654,-0.06549390405416489,0.6020413637161255,-0.5581138730049133,0.14314359426498413,-0.7246841192245483,-0.6832851767539978,0.6764786839485168,0.08257146924734116,0.03458021208643913,-0.02484755963087082,-0.06352619081735611,0.598987877368927,-0.6358213424682617,0.20547740161418915,-0.0036819768138229847,0.7794234156608582,-0.15058362483978271,-0.07765273749828339,0.0013389968080446124,-0.04040851444005966,0.08080632239580154,-0.06228119134902954,0.04862646386027336,-0.03596692904829979,0.6902929544448853,0.6202138066291809,0.06025812029838562,-0.7014135718345642,0.08040805160999298,-0.7003404498100281,-0.019475182518363,-0.12566207349300385,0.6964929103851318,-0.8418434262275696,0.5031164288520813,-0.7102179527282715,-0.5598965883255005,0.7145481705665588,0.04646045342087746,-0.14930360019207,0.12395366281270981,0.13200922310352325,0.4706016778945923,-0.8437357544898987,0.12790895998477936,-0.10385102778673172,0.6658602952957153,-0.052261169999837875,0.13906227052211761,0.13554123044013977,0.1717044711112976,0.06671163439750671,0.12219648063182831,-0.1437399685382843,-0.09141093492507935,0.7510196566581726,0.815775454044342,-0.47665321826934814,-0.2518341839313507,0.738997757434845,-0.006735654082149267,-0.751190721988678,0.7134091258049011,0.06070566922426224,-0.06629208475351334,0.12111672759056091,-0.3794771134853363,-0.46628814935684204,0.15965253114700317,-0.6846775412559509,-0.7230504155158997,-0.8652726411819458,-0.6156506538391113,0.952943742275238,-0.0747707188129425,0.9699980616569519,0.6866718530654907,0.3406353294849396,-0.7059164047241211,0.7856899499893188,0.8248832821846008,-0.7317037582397461,0.6998416781425476,-0.45065346360206604,0.7404677271842957,0.6691713929176331,0.10980615019798279,0.18042077124118805,0.011242044158279896,-0.7016485929489136,0.45842140913009644,-0.5610921382904053,-0.5972886085510254,-0.10832442343235016,0.7166249752044678,-0.33548709750175476,0.05994037166237831,-0.6214244365692139,-0.6595518589019775,0.6547021269798279,0.26552343368530273,-0.5865135788917542,-0.5662505626678467,-0.07977854460477829,0.7193663716316223,-0.7131498456001282,0.6287361979484558,0.32341468334198,0.5921816229820251,-0.5789297223091125,0.6948100328445435,-0.0264161117374897,0.11520637571811676,0.41993629932403564,0.06573212146759033,-0.17934031784534454,0.07513882219791412,0.5700305700302124,0.630248486995697,-0.05601540952920914,-0.3437972664833069,0.08900191634893417,0.2248992919921875,-0.06736790388822556,0.24976599216461182,-0.7009407877922058,-0.4775471091270447,-0.02573232911527157,-0.43209517002105713,-0.5281416177749634,-0.44469377398490906,0.23318679630756378,-0.25116756558418274,-0.3313346803188324,-0.8451787233352661,0.3521255850791931,0.12483761459589005,-0.3083953559398651,0.039619896560907364,0.5129191279411316,-0.06522983312606812,0.21010921895503998,0.6372488737106323,-0.6869652271270752,0.1297614574432373,0.3691239058971405,0.22403305768966675,0.7462257742881775,0.771314263343811,0.20427604019641876,0.6809731125831604,-0.6453814506530762,0.011727740056812763,-0.6775723099708557,0.17529802024364471,-0.185111403465271,0.6692507863044739,-0.5436604022979736,0.008871432393789291,-0.7048950791358948,-0.6119216680526733,0.7383409738540649,0.13601255416870117,0.1370324194431305,0.07492019981145859,0.07430411875247955,0.5237125754356384,-0.6315622925758362,-0.09125048667192459,-0.1192387193441391,0.6486114859580994,0.14049012959003448,0.0583929568529129,-0.10550826787948608,0.12058228254318237,-0.1356034278869629,0.24326691031455994,-0.11462966352701187,-0.06736113876104355,0.5948699712753296,0.708390474319458,0.6364946365356445,-1.209488034248352,-0.3138248324394226,-0.8286157250404358,0.3026186525821686,0.029855957254767418,0.6962603330612183,-0.3074257969856262,0.6229917407035828,-1.2051044702529907,-0.3005949854850769,0.8282942771911621,0.623604953289032,-0.2578849494457245,-0.12593156099319458,-0.1799994856119156,0.4915144443511963,-0.70902019739151,0.19025909900665283,0.27796846628189087,1.0578200817108154,-0.4216768443584442,0.3018365204334259,-0.4153633117675781,0.3653985857963562,-0.21585099399089813,0.5191493034362793,-0.05580594390630722,0.052851688116788864,0.915985643863678,1.2131428718566895,-0.27468493580818176,-0.39071032404899597,-0.04211843013763428,-0.4599369764328003,-0.12537284195423126,0.11699096113443375,0.37007492780685425,-0.5389710068702698,-0.49897801876068115,-0.30574995279312134,-0.5968167781829834,0.38084137439727783,-0.04130213335156441,-0.4092533588409424,-0.37318310141563416,-0.15192554891109467,0.28278741240501404,-0.2687784433364868,0.22442668676376343,0.4342398941516876,0.3842746913433075,-0.24098919332027435,-0.28386175632476807,0.07179590314626694,-0.205814927816391,0.21978536248207092,-0.30037984251976013,0.20738203823566437,0.28085920214653015,0.40564414858818054,0.3729393482208252,-0.2183731645345688,-0.17251497507095337,0.8022714257240295,0.23032139241695404,-1.1278083324432373,0.4857880473136902,-0.6861317157745361,0.1094314306974411,0.1150364801287651,-0.7359330058097839,-0.498588889837265,-0.6829235553741455,-1.028012990951538,-0.7870787978172302,-1.576162576675415,-0.7361709475517273,0.8436149954795837,0.43258899450302124,1.0373268127441406,0.37801462411880493,0.8431605696678162,-1.0501774549484253,0.5360774397850037,0.7937041521072388,-0.8014249205589294,1.026431918144226,-0.6863313317298889,0.9387480616569519,0.8120182156562805,0.696052610874176,0.045851387083530426,-0.16688057780265808,-0.7283793687820435,0.013980008661746979,-0.48116397857666016,0.14615657925605774,0.21076636016368866,0.5904067158699036,-0.7309680581092834,0.22944208979606628,-0.3980753719806671,-0.479257732629776,0.5983767509460449,0.03346436470746994,0.16401641070842743,0.22307218611240387,-0.09898249804973602,0.9738909006118774,-0.5741961598396301,-0.6108356714248657,-0.36053919792175293,0.4052765965461731,0.47759726643562317,-0.30403774976730347,-0.2331436574459076,-0.037115029990673065,-0.060098595917224884,0.018251055851578712,0.169396311044693,0.06345093995332718,0.37421682476997375,0.425411194562912,0.9101290106773376,-0.7998855113983154,-0.11062134802341461,-0.6359597444534302,-0.18866878747940063,-0.081441231071949,0.645548403263092,-0.3497005105018616,-0.013591560535132885,-0.6642966866493225,-0.6321324110031128,0.6166342496871948,0.45591259002685547,-0.126489520072937,0.10348044335842133,-0.06050125136971474,0.6458641290664673,-0.6141611933708191,0.6754993796348572,0.8286603689193726,0.7239153981208801,-1.3266037702560425,1.0825188159942627,0.05704396590590477,0.12625673413276672,-0.06472829729318619,0.09705107659101486,-0.06828602403402328,0.2714173197746277,0.6159540414810181,0.6954973340034485,0.19782279431819916,-0.6697975993156433,0.6075483560562134,-0.7535068392753601,-0.12623411417007446,0.06198533996939659,0.6998385190963745,-0.5922925472259521,0.05931631848216057,-0.7548320889472961,-0.7834551334381104,0.632387638092041,0.2891930639743805,-0.2471017688512802,-0.5103572607040405,0.019048353657126427,0.6312190890312195,-0.7060106992721558,0.7239276170730591,0.893473744392395,0.772652268409729,-1.0301194190979004,1.0320085287094116,0.3188134431838989,0.12979744374752045,-0.3838103115558624,0.11153116822242737,-0.20671384036540985,-0.2881038784980774,0.7396493554115295,0.68608558177948,-0.08159829676151276,-0.41623160243034363,0.5177658200263977,-0.41012781858444214,-0.37869924306869507,0.13772621750831604,0.5061737895011902,-0.14965951442718506,0.1594022810459137,0.05307944864034653,-0.39361572265625,0.4504697322845459,-0.47747358679771423,-0.4299541115760803,-0.32876530289649963,-0.14841224253177643,0.04385014623403549,-0.22356346249580383,0.3993307650089264,0.17065896093845367,0.4761779308319092,-0.33842405676841736,0.49608227610588074,0.4394071400165558,-0.34819063544273376,0.4051203429698944,1.244004249572754,0.4523831605911255,0.12371855229139328,0.42462748289108276,0.39050763845443726,-0.04929862543940544,0.10004860907793045,0.8859831094741821,-0.2465021014213562,0.04838831350207329,0.1835455298423767,0.6636215448379517,0.39050087332725525,-0.30198633670806885,-1.1080797910690308,-1.2706186771392822,0.05928624048829079,-0.05543573573231697,-0.2678428888320923,-0.36329981684684753,-0.2763015627861023,0.7639949321746826,-0.2823985517024994,0.5069189667701721,-0.029363781213760376,0.6562062501907349,-0.17626504600048065,0.4353911578655243,0.6697001457214355,-0.25816017389297485,0.12736205756664276,-0.20243506133556366,0.054619427770376205,0.42947763204574585,-0.11491149663925171,0.03857284411787987,0.1536606401205063,-0.487308531999588,-0.16022419929504395,-0.467756062746048,0.15364475548267365,-0.06666446477174759,0.2590067982673645,-0.5755394101142883,0.08627991378307343,-0.7685201168060303,-0.4277823567390442,0.30372828245162964,0.03346390649676323,-0.06573793292045593,-0.18907314538955688,-0.0874006375670433,0.7312954664230347,-0.3982056975364685,-0.035471342504024506,-0.05253582447767258,0.5946745276451111,-0.012056353501975536,0.017979606986045837,-0.0979996770620346,-0.15243922173976898,0.17707493901252747,0.2084987312555313,-0.07474202662706375,0.27925747632980347,0.5274304151535034,0.46863025426864624,0.18025673925876617,-0.614999532699585,0.04135293513536453,-0.5913271307945251,0.016375187784433365,-0.07645727694034576,0.6567172408103943,-0.6395021080970764,0.05871526896953583,-0.778620183467865,-0.6603816747665405,0.5650779604911804,0.07224708050489426,0.015308341011404991,0.14001944661140442,-0.07855038344860077,0.5048823952674866,-0.532509982585907,0.16778132319450378,-0.06034611538052559,0.7062209844589233,-0.04850814491510391,0.026426903903484344,-0.039369307458400726,-0.027215488255023956,0.03895815834403038,0.09590613842010498,-0.04409526661038399,0.03533131256699562,0.6253121495246887,0.718762993812561,-0.16387313604354858,-0.2707730829715729,0.3107112646102905,0.4353887140750885,0.0893222913146019,0.12859423458576202,-0.734792172908783,-0.30081507563591003,0.40233495831489563,-0.5127631425857544,-0.4967679977416992,-0.2371625006198883,0.21859221160411835,0.13430002331733704,-0.28258374333381653,-0.4407328963279724,0.4543910026550293,0.006002518348395824,-0.17942294478416443,0.08703544735908508,0.3803825378417969,0.30879464745521545,-0.17398416996002197,0.7331212162971497,-0.9026259183883667,0.041902367025613785,0.3460240662097931,0.3788224756717682,0.7043481469154358,0.9837372899055481,0.8926483392715454]},"forgetHidden":{"rows":20,"columns":20,"weights":[-0.31171929836273193,0.38208305835723877,-0.7315078377723694,-0.3904203772544861,-0.4586793780326843,0.3374602198600769,0.3401722311973572,0.13475622236728668,0.04948093742132187,0.31417572498321533,-0.9759783148765564,0.26167309284210205,-0.7492346167564392,-0.3348652422428131,-0.4868176281452179,0.7159170508384705,0.5841911435127258,-0.5833784937858582,-0.5222915410995483,-0.5626329183578491,0.09472526609897614,-0.34621649980545044,0.2809143364429474,0.41006606817245483,-0.43603312969207764,-0.02858589217066765,-0.6092444062232971,0.03261299058794975,0.644968569278717,0.3010633587837219,-0.2538965344429016,0.13681507110595703,0.21443027257919312,0.15882031619548798,0.20267735421657562,0.012396441772580147,0.67549067735672,-0.5940918922424316,0.3451654613018036,0.023772675544023514,-0.6378393769264221,0.5180131793022156,-0.30289116501808167,-0.4539675712585449,-0.49443408846855164,0.6443644165992737,0.44333913922309875,-0.7247253656387329,0.20779602229595184,0.606960654258728,-0.5214653015136719,0.5950747132301331,-0.537021815776825,-0.2569502592086792,-0.2972257137298584,0.500769317150116,0.6210567355155945,-0.5527515411376953,-0.35341760516166687,0.43779394030570984,-0.6676613092422485,0.5862565636634827,-0.4816218912601471,-0.5672256350517273,-0.5307133197784424,0.6031864881515503,0.527374804019928,-0.38021302223205566,0.15405583381652832,0.6058428883552551,-0.7128162384033203,0.32094264030456543,-0.6773823499679565,-0.41063207387924194,-0.44575661420822144,0.6742737889289856,0.5417008996009827,-0.6408483386039734,-0.5041096806526184,0.09968215972185135,-0.5594532489776611,0.6959314942359924,-0.24042321741580963,-0.40410324931144714,-0.30859023332595825,0.5197091698646545,0.4349278509616852,-0.2952533960342407,0.23380771279335022,0.6174857020378113,-0.45583799481391907,0.34036985039711,-0.3035571575164795,-0.3991743326187134,-0.2144140899181366,0.35739651322364807,0.4248502254486084,-0.41051051020622253,-0.37077775597572327,0.2738684415817261,0.6130322813987732,-0.6588090062141418,0.6632747054100037,0.5805800557136536,0.7447509169578552,-0.4601430594921112,-0.5336559414863586,0.3585769534111023,0.7530820369720459,0.20157451927661896,0.7328038215637207,-0.4997243583202362,0.6354590058326721,0.593308687210083,0.5440593957901001,-0.5287933349609375,0.12763167917728424,0.489717960357666,0.7224339246749878,-0.3194423317909241,0.4027603268623352,0.10968562960624695,-0.21720431745052338,0.2936953902244568,-0.5510501265525818,0.002883465262129903,0.6999125480651855,0.03921445459127426,0.2382010668516159,0.6494260430335999,0.46256357431411743,-0.09111719578504562,0.6949865818023682,-0.6253369450569153,0.3625304400920868,-0.2169533222913742,0.6698426604270935,-0.6371521353721619,0.22495560348033905,-0.1235843300819397,0.5682898759841919,-0.9776048064231873,0.6281032562255859,0.8233315944671631,1.0970301628112793,-0.808604896068573,-0.8052440285682678,1.0712896585464478,2.1396467685699463,-1.1370134353637695,0.5921829342842102,-1.0001713037490845,0.5792368054389954,0.7168627977371216,0.48309075832366943,-0.2985864281654358,-1.2803635597229004,0.729093611240387,1.0173786878585815,-1.0976921319961548,-1.0335499048233032,0.20223212242126465,-0.6729393601417542,-0.11275917291641235,0.003300323151051998,0.5336401462554932,0.06741729378700256,0.43293872475624084,-0.48914724588394165,0.007218886632472277,-0.9604725241661072,0.31906312704086304,-0.6582893133163452,-0.1678907871246338,-0.13749460875988007,0.3456402122974396,0.00901150330901146,-0.5997032523155212,-0.2203865945339203,0.38800573348999023,0.7630349397659302,-0.7341626286506653,0.39163193106651306,0.7761160135269165,0.8624951243400574,0.155944362282753,-0.7936356663703918,0.5881326794624329,0.04246591031551361,0.07124053686857224,0.25493791699409485,-0.42852383852005005,0.5459116697311401,0.8063944578170776,0.7928717136383057,0.05217069387435913,-0.2746759355068207,0.09131135791540146,1.0839848518371582,0.052000731229782104,-1.1064516305923462,1.0257428884506226,-0.33052143454551697,-1.1931606531143188,-1.0312093496322632,0.747675359249115,1.0527805089950562,-1.4252738952636719,0.044728267937898636,0.6194068193435669,-0.24109409749507904,1.1430000066757202,-0.4752901494503021,-0.9747278690338135,-0.40900638699531555,0.4545497000217438,0.62517911195755,-0.5702373385429382,-0.6240475177764893,1.1789929866790771,0.8632733821868896,-0.2860361337661743,0.5344316363334656,0.5618824362754822,0.8571155071258545,-0.43369510769844055,-0.4937380850315094,0.5062376856803894,0.46766602993011475,0.13202990591526031,0.9336901903152466,-0.6871824860572815,0.5350900292396545,0.46400272846221924,0.37624701857566833,-0.5025585293769836,-0.40092647075653076,0.6216545104980469,0.5368793606758118,-0.2888379693031311,-0.8404644727706909,0.73951655626297,-0.8001074194908142,-0.9528757333755493,-1.0157057046890259,0.8002465963363647,0.690362274646759,-0.13481691479682922,-0.1567511260509491,1.0836502313613892,-0.6982525587081909,0.6850996017456055,-0.2693309187889099,-0.5824720859527588,-0.15921004116535187,0.28512653708457947,1.0280293226242065,-0.9379876255989075,-0.4318021833896637,0.5258759260177612,-0.9399425983428955,-0.16303496062755585,-0.3752938210964203,0.15464086830615997,-0.6389228105545044,-0.10295845568180084,-0.04972385987639427,0.010383975692093372,0.07885622978210449,0.6401252746582031,-0.8059078454971313,0.03696449473500252,-0.770265519618988,0.3197958469390869,0.07301651686429977,-0.039414409548044205,0.6746292114257812,-0.6284633874893188,0.28530454635620117,-0.04286894202232361,-0.0381501130759716,0.7792195081710815,-0.1605544239282608,-0.27505096793174744,-0.7244272232055664,0.8614950180053711,0.5126839280128479,-0.26753413677215576,0.36938515305519104,1.7193913459777832,-0.7213900089263916,0.219465434551239,-0.25140947103500366,-0.44351065158843994,-0.05191242694854736,1.348291277885437,0.7868688106536865,-0.717335045337677,-0.38136446475982666,0.14091047644615173,-0.060865793377161026,0.2192104607820511,-0.1991930454969406,-0.10988783836364746,-0.6695389747619629,0.18146319687366486,0.12883900105953217,-0.010325146839022636,-0.05408603325486183,-0.07317925989627838,-0.16567878425121307,0.07765021920204163,-0.16166439652442932,-0.024935945868492126,-0.05223687365651131,-0.15445387363433838,0.3409304916858673,-0.6811009645462036,-0.10208415985107422,0.11241891980171204,0.5844476819038391,-0.5489016175270081,0.09643083065748215,-0.09311977028846741,0.05328340455889702,0.8461767435073853,-1.0341650247573853,-0.7785899043083191,0.4847473204135895,0.2287798672914505,-0.06235630065202713,0.8265262246131897,0.29820960760116577,0.9900964498519897,0.7647904753684998,-0.744633674621582,0.4640052020549774,-1.1884944438934326,1.1441166400909424,0.49480971693992615,0.6245442628860474,-0.8768653273582458,-0.6047545671463013,0.34801793098449707,0.9203676581382751,-0.39016634225845337,-0.4795106053352356,0.5859584808349609,0.8673276901245117,0.7184780240058899,0.14205089211463928,-0.6378739476203918,-0.553169310092926,0.6480588912963867,0.5960798859596252,-0.13072019815444946,0.8932650685310364,0.4287679195404053,0.5277991890907288,-0.49004581570625305,-0.4185909628868103,0.5344640016555786,-0.510051965713501,-0.508301854133606,-0.35156944394111633,0.6161856651306152,0.4120551645755768,-0.7127845287322998,-0.04122738912701607,0.6980189085006714,-0.5894525647163391,0.6852881908416748,-0.6380736827850342,-0.4085119366645813,-0.4111716151237488,0.8780202269554138,0.752833366394043,-0.7214373350143433,-0.4351988732814789,0.7512509226799011,0.93106609582901,-0.9067631959915161,0.7397292852401733,0.6415607333183289,1.47178053855896,-0.44068366289138794,-0.7968887090682983,1.018789291381836,1.7547954320907593,-1.0294156074523926,0.8560894727706909,-0.9654858708381653,0.987000048160553,0.7964372038841248,0.2706853151321411,-0.5699877142906189,-0.7734671831130981,0.8039093613624573,1.4113460779190063,-1.0587708950042725]},"forgetBias":{"rows":20,"columns":1,"weights":[0,0,0,0,0,0,0,0,0,0,0,0,0,0,0,0,0,0,0,0]},"outputMatrix":{"rows":20,"columns":31,"weights":[-0.33692988753318787,-0.2647113800048828,0.6094734072685242,0.048101942986249924,-0.3433721661567688,0.5528230667114258,0.10868734121322632,-0.26203516125679016,-0.8582552671432495,0.22713018953800201,-0.038946863263845444,-0.04456186667084694,-0.31130367517471313,-0.8442896604537964,-0.27944716811180115,-0.5495460629463196,-0.060408689081668854,-0.1114259585738182,0.14421409368515015,0.7118732333183289,-0.29924002289772034,-0.41504770517349243,0.32608163356781006,0.5318015813827515,-0.6192665696144104,0.6029159426689148,-0.5519647002220154,0.5278748869895935,0.49071407318115234,-0.06945454329252243,0.005129432771354914,0.34345194697380066,0.5696886777877808,-0.8874792456626892,0.09191827476024628,-0.03245924413204193,-0.23272274434566498,-0.38999083638191223,-0.31074416637420654,-0.25868186354637146,0.036936283111572266,0.023672550916671753,-0.325935423374176,-0.3132272958755493,0.03719526156783104,0.30787450075149536,-0.38316842913627625,-0.783572793006897,0.30336442589759827,-0.8986757397651672,-0.776239812374115,-0.5394971370697021,0.5396811962127686,-0.9888614416122437,-1.171148657798767,0.187317356467247,-0.17174150049686432,-0.7670231461524963,-0.0481066070497036,-0.7328107953071594,-0.5674194097518921,-0.595463752746582,0.9006214737892151,0.4258815348148346,0.3287627398967743,0.6393380761146545,-0.7603036761283875,0.42063915729522705,-0.6692463755607605,0.3673006296157837,-0.5417090058326721,-0.35804498195648193,-0.3796299695968628,-0.48705223202705383,-0.6852608919143677,-0.7281203269958496,-0.8003784418106079,-0.829674243927002,0.28194659948349,0.688105046749115,0.4801226854324341,0.23913820087909698,0.025722920894622803,-0.570634126663208,0.2995803952217102,0.2914373278617859,-0.9557655453681946,0.5044592022895813,-1.3420953750610352,0.7016302943229675,0.8261001706123352,-0.1489824652671814,-0.19638921320438385,-0.23125168681144714,0.30720070004463196,0.5300387740135193,0.09989241510629654,-0.5970713496208191,0.6313799619674683,-0.03659528121352196,0.619681179523468,-0.6144943833351135,0.21638241410255432,0.11272311210632324,-0.10926329344511032,-0.6146756410598755,-0.5559579730033875,-0.6200927495956421,-0.6375100612640381,-0.47494423389434814,0.06012134626507759,0.5588904619216919,0.5539956092834473,-0.24800580739974976,-0.6609087586402893,0.5784475803375244,0.5911145210266113,-0.6841951012611389,0.5877857208251953,-0.7973242998123169,0.6874825358390808,0.6403985023498535,-0.052866965532302856,-0.07011965662240982,-0.5790036916732788,0.6137580275535583,0.38419443368911743,0.15312129259109497,-0.9373855590820312,0.7271971106529236,-0.26412349939346313,0.09402311593294144,-0.8913490176200867,-0.6303064823150635,-0.30097898840904236,-0.25466153025627136,-0.690718412399292,-0.8530864119529724,-0.949749231338501,-0.7134198546409607,0.5896934270858765,0.2903303802013397,-0.32361021637916565,0.11410505324602127,-0.2414107620716095,-0.8670780658721924,0.23461122810840607,0.5528775453567505,-0.8319025039672852,0.531923234462738,-0.9386343359947205,0.898485004901886,0.5989455580711365,-0.3176334798336029,-0.48968034982681274,0.017088063061237335,-0.7179467082023621,0.1574273258447647,-0.7527808547019958,-0.6594840884208679,0.41391927003860474,0.6614834666252136,-0.473422646522522,0.12689633667469025,-0.5275759696960449,-0.5585249662399292,0.5402856469154358,-0.5063538551330566,-0.1911998987197876,-0.08357510715723038,-0.6675119996070862,0.6137770414352417,-0.6962262392044067,0.6272863149642944,0.17581114172935486,0.4804221987724304,-0.833217978477478,0.41178083419799805,0.001020302763208747,0.19032108783721924,0.5251650810241699,0.8129537105560303,0.5758274793624878,-0.13765941560268402,0.6775439381599426,0.7676883339881897,-0.2306900918483734,0.41629213094711304,0.11642127484083176,0.433176726102829,-0.6484254002571106,0.526512861251831,-0.42617541551589966,0.42135411500930786,0.11244199424982071,-0.07033596932888031,-0.12380707263946533,-0.3566458821296692,-0.6440370678901672,-0.1487710177898407,-0.7605895400047302,-0.6093683242797852,-0.012377239763736725,0.5268018245697021,0.7638298273086548,-0.038749415427446365,0.12120114266872406,-0.2353655993938446,0.14859196543693542,0.2126508206129074,-0.6200430989265442,0.7052963972091675,-0.5788788795471191,0.6493630409240723,0.6307327747344971,0.010527193546295166,-0.3915320336818695,0.05217374488711357,-0.5021132826805115,-0.1334085464477539,-0.69316565990448,-0.7533994913101196,0.9430201053619385,0.5349676609039307,-0.45432496070861816,0.007677548099309206,-0.7242882251739502,-0.68065345287323,0.5161349773406982,-0.09375374019145966,-0.7259849905967712,-0.9433557391166687,-0.75173419713974,0.5482158660888672,-0.45857149362564087,0.7259143590927124,0.3240030109882355,0.5101563930511475,-0.7904019951820374,-0.03349309787154198,-0.06483843177556992,-0.385967880487442,0.727862536907196,-0.3841573894023895,0.7223811149597168,0.4255863130092621,0.6140303611755371,0.544131875038147,0.0545019693672657,0.29347455501556396,-0.2206539511680603,0.18162798881530762,-0.6950569152832031,0.6853565573692322,-0.36503833532333374,0.304981529712677,-0.10809276252985,-0.18849755823612213,-0.27397415041923523,-0.21877048909664154,-0.8121801018714905,-0.40395012497901917,-0.7923819422721863,-0.7523978352546692,0.06432108581066132,0.6738329529762268,0.6809998154640198,0.6400104761123657,0.0014183911262080073,-0.6521157026290894,0.25299370288848877,-0.15251660346984863,-0.7346687912940979,0.4916099011898041,-0.8371022343635559,0.7903754711151123,0.5916993021965027,0.15026631951332092,-0.18646924197673798,0.5732077956199646,-0.6132450699806213,-0.0387069508433342,-0.6798939108848572,-0.00522484490647912,-0.06072937697172165,0.6566920280456543,-0.622050940990448,0.6728327870368958,-0.6465483903884888,-0.5993320941925049,0.6114702224731445,-0.032821208238601685,0.08636494725942612,-0.0009913702961057425,0.014049120247364044,0.5748406052589417,-0.5718865990638733,0.13647417724132538,0.07062313705682755,0.6764756441116333,-0.021291745826601982,-0.061470627784729004,-0.030459336936473846,0.015942588448524475,-0.024178259074687958,0.667800784111023,-0.019942505285143852,0.0068519157357513905,0.6610584855079651,0.6595333814620972,-0.02898450568318367,-0.39689093828201294,-0.048419106751680374,0.5374617576599121,0.10403229296207428,-0.9698823094367981,0.02486484684050083,-0.5595377087593079,-0.070754274725914,0.36016201972961426,1.0461469888687134,0.19853167235851288,0.06421668082475662,-1.6387715339660645,1.6786381006240845,-0.46598729491233826,0.18872933089733124,-0.24116070568561554,-0.846725344657898,-1.0522093772888184,-0.3947145640850067,1.2808420658111572,0.995381236076355,0.6027280688285828,-0.5647876858711243,-0.14037540555000305,0.0782347023487091,0.015040800906717777,1.08707857131958,0.08602235466241837,0.3941090703010559,0.14686499536037445,-0.5570086240768433,-0.2421451061964035,-0.7780953049659729,-0.5642649531364441,0.7402653694152832,0.633335530757904,-0.6257111430168152,0.3436218500137329,-0.7341108918190002,-0.6974154710769653,0.6502763032913208,-0.6566983461380005,0.22097332775592804,-0.6193343997001648,-0.6413969397544861,0.6427269577980042,-0.7410441637039185,0.6903848648071289,-0.056036874651908875,0.5996299386024475,-0.6918424367904663,-0.08381678909063339,-0.1725594848394394,0.04968874529004097,0.6926843523979187,0.3338925838470459,0.718666672706604,0.44630181789398193,0.7652595639228821,0.6514856815338135,-0.7307430505752563,0.3692910373210907,0.38332074880599976,0.5121071338653564,-0.011965213343501091,0.13994371891021729,-0.4514036774635315,-0.11570834368467331,-0.8473198413848877,1.0050100088119507,0.6626476645469666,-0.16286993026733398,-0.5243903994560242,-0.6075989603996277,-0.36843714118003845,-0.46884793043136597,-0.5881053805351257,0.7048545479774475,0.2256212681531906,0.38597649335861206,-0.7902975678443909,-0.6080890893936157,0.3558393120765686,-0.14029256999492645,-0.651302695274353,0.7670595645904541,-0.9172054529190063,0.39632752537727356,0.8614553213119507,-0.4197014570236206,-0.4084493815898895,-0.02900632843375206,0.5818690061569214,0.018522586673498154,0.5934953093528748,-0.5646678805351257,0.5793697834014893,-0.5161077976226807,0.33042609691619873,-0.05864234268665314,0.04147028550505638,0.0073766219429671764,-0.5267914533615112,-0.6542612910270691,-0.01875971257686615,-0.5855531692504883,-0.5712360739707947,0.07534180581569672,0.597916305065155,0.6779660582542419,0.2511260509490967,-0.004970156121999025,-0.07499593496322632,-0.020063746720552444,0.0045129237696528435,-0.6341893672943115,0.6805852651596069,-0.6806870698928833,0.7095115780830383,0.12778489291667938,-0.06635984033346176,-0.5049468874931335,0.5140416026115417,-0.2805488705635071,-0.5382832884788513,-0.17666494846343994,0.004647242836654186,-0.018663765862584114,-0.4818831980228424,-0.19804556667804718,-0.34493762254714966,-0.21721895039081573,-0.30910128355026245,0.21317102015018463,0.02689351513981819,0.6480293273925781,-0.15567979216575623,-0.028169505298137665,0.2051898092031479,0.4904542863368988,0.16490750014781952,0.2520023286342621,0.16042743623256683,-0.2995010018348694,-0.4518127143383026,-0.717099130153656,0.0065581221133470535,0.08150429278612137,-0.8120723962783813,-0.039264976978302,-0.0694652795791626,0.17331267893314362,0.19185411930084229,0.6127399802207947,0.9792482256889343,-0.6205968260765076,1.1280649900436401,-0.16058775782585144,0.0028526638634502888,-0.9286768436431885,0.24229103326797485,0.2603483498096466,0.04878722131252289,-0.0015699745854362845,-0.7475913763046265,-0.16033530235290527,0.5163297057151794,-0.09240314364433289,-0.1494148224592209,-0.11816735565662384,1.1639362573623657,-0.2537797689437866,-0.7609490752220154,-0.06434211879968643,0.554063081741333,-0.7028992772102356,-0.5000923871994019,-0.06518148630857468,-0.5742948651313782,-0.26581984758377075,0.03287441283464432,-0.31496286392211914,-0.6948232054710388,-1.1310606002807617,0.11931097507476807,-0.49348628520965576,0.04694144055247307,-0.7562936544418335,0.009664771147072315,0.0006572137936018407,0.7442934513092041,-0.5791617035865784,-0.05998146906495094,-0.729927659034729,-0.8851999640464783,0.5992862582206726,0.5549958348274231,0.07836679369211197,-0.1044904887676239,0.23486581444740295,0.5369073748588562,-0.7572075128555298,0.06919383257627487,0.1178426742553711,0.8279098272323608,0.024949098005890846,-0.014255358837544918,0.08599451184272766,0.027906358242034912,-0.08092550188302994,0.7188165187835693,-0.034496307373046875,0.026650376617908478,0.7632416486740112,0.6096880435943604,-0.08256120979785919,-0.3402698338031769,0.03603827953338623,-0.55458664894104,0.005199805833399296,0.03642662242054939,0.5858762264251709,-0.6539551019668579,0.006680757738649845,-0.6632909178733826,-0.743826687335968,0.6725484728813171,-0.27215859293937683,0.054511893540620804,-0.23168526589870453,0.05675829201936722,0.6343678832054138,-0.5863593816757202,0.12783773243427277,0.03493601083755493,0.766700267791748,0.034630436450242996,-0.02403642050921917,0.04560760036110878,-0.11817149072885513,0.16785839200019836,0.5446667671203613,-0.018668465316295624,0.04811340570449829,0.6736770272254944,0.3313961625099182,0.47329917550086975,-0.16482718288898468,0.3503541946411133,-0.02064196579158306,0.02301347441971302,0.18238992989063263,-0.2772611975669861,0.08348473906517029,-0.5010091066360474,-0.15711987018585205,-0.025007007643580437,-0.00006200966163305566,-0.0035586922895163298,-0.02064100280404091,-0.11431501805782318,-0.26808270812034607,0.02968103252351284,0.5374794602394104,0.22489896416664124,0.3158448040485382,-0.02918805554509163,-0.17714862525463104,0.2842945158481598,0.25578221678733826,-0.1908213198184967,0.156734436750412,-0.9422469139099121,0.11557214707136154,0.15046893060207367,0.03796551004052162,0.12482398748397827,0.20245058834552765,-0.8487431406974792,0.0009535349672660232,-0.81734299659729,-0.5423680543899536,0.6432123184204102,0.7663136124610901,-0.6477628350257874,0.4624618887901306,-0.7231555581092834,-0.5659723877906799,0.7249382138252258,-0.571337103843689,-0.09332922846078873,-0.3806616961956024,-0.7044832706451416,0.7514008283615112,-0.7685475945472717,0.656997799873352,-0.11505141109228134,0.6386448740959167,-0.6769530773162842,0.5278879404067993,-0.42107897996902466,0.19786638021469116,0.6809555888175964,0.14556735754013062,0.5810396075248718,0.37902218103408813,0.7348759174346924,0.9114320278167725]},"outputHidden":{"rows":20,"columns":20,"weights":[-0.8522879481315613,0.34055569767951965,0.3453555107116699,-0.2567329704761505,-0.47616878151893616,-0.17521727085113525,2.2227907180786133,0.06253699958324432,0.5040996670722961,-0.3810350000858307,0.32743266224861145,0.20683252811431885,0.454164057970047,-2.038980722427368,1.5722055435180664,-1.4519869089126587,-0.2234572321176529,0.1525818258523941,-0.39963236451148987,0.08052362501621246,0.19182062149047852,0.7516456246376038,-0.8757875561714172,-0.49497702717781067,-0.2358969897031784,0.1682298630475998,0.6208285093307495,-0.4153177738189697,-0.5508323907852173,0.32629722356796265,0.061728544533252716,0.5850502252578735,-1.004692554473877,-0.7437004446983337,-0.7619509696960449,-0.09190315008163452,0.24436010420322418,0.034526098519563675,-1.896897792816162,0.6975062489509583,0.22971317172050476,-0.5160718560218811,0.1485641449689865,0.06029554083943367,0.004604611080139875,0.005110980477184057,-0.07087408751249313,-0.1994507908821106,-0.13110513985157013,0.038872379809617996,0.2749428451061249,0.3285295069217682,0.17271868884563446,0.04795977845788002,0.31015753746032715,-0.615504801273346,-0.0597340427339077,-0.01427550334483385,0.42266377806663513,0.27761271595954895,0.030598558485507965,-0.12570303678512573,-0.028491368517279625,-0.12534606456756592,-0.07123628258705139,-0.5185887217521667,0.07954702526330948,0.09072722494602203,-0.12106233835220337,0.30553537607192993,0.09612654149532318,-0.12443065643310547,0.021977325901389122,-0.2427542507648468,-0.38993972539901733,-0.01830175332725048,-0.12166671454906464,0.08178272843360901,0.03382926061749458,0.0834185853600502,0.28807833790779114,-0.07906883955001831,0.30980154871940613,0.02181185409426689,0.056785959750413895,0.2786129117012024,-0.04689965769648552,-0.32273566722869873,0.08586682379245758,0.23783224821090698,0.1562340408563614,0.31388700008392334,0.0431421659886837,0.06727012246847153,-0.03404662013053894,0.12227321416139603,0.26741230487823486,-0.32742002606391907,-0.011530976742506027,0.4631211459636688,-1.2470340728759766,0.6499530673027039,-0.7185328602790833,-0.7427186965942383,-0.8191812634468079,0.6259457468986511,0.7705605626106262,-0.5316019058227539,0.4509028494358063,-0.06184779852628708,-0.5472095608711243,0.5252958536148071,-0.8126386404037476,-0.8213934302330017,-0.9976168870925903,0.5482553839683533,0.3489900529384613,-0.3740220367908478,-0.75981205701828,0.37137168645858765,0.6980171799659729,-0.7851082682609558,0.47205987572669983,0.393139123916626,0.004362673033028841,0.6726460456848145,-0.11185404658317566,-0.06565334647893906,0.13567975163459778,0.07976046949625015,0.3073691725730896,0.48995864391326904,0.38438737392425537,0.18690231442451477,0.46137720346450806,0.21587596833705902,-0.2679472863674164,-0.008056990802288055,0.2559678554534912,0.5220173597335815,-0.18961188197135925,0.4762613773345947,-0.14324863255023956,-0.6807112097740173,-0.8419279456138611,0.41384533047676086,0.7650384306907654,-0.5882732272148132,-0.6393078565597534,-1.0893677473068237,-0.11654838174581528,0.5926055908203125,-0.17102818191051483,-0.640526533126831,-0.7302132248878479,0.7254192233085632,0.2894759476184845,-0.5075349807739258,-0.21270214021205902,0.622361421585083,0.14894865453243256,-0.838228702545166,0.7484123110771179,0.41713932156562805,0.7140816450119019,-0.5716156363487244,-0.5034832954406738,0.4726087749004364,0.11550217121839523,0.08448545634746552,0.9299972653388977,-0.22928526997566223,0.7124675512313843,0.5495060682296753,0.5932184457778931,-0.2877281606197357,0.07910939306020737,0.5874992609024048,0.7183403372764587,0.0271243117749691,-1.3734354972839355,-0.04611976817250252,-0.512901246547699,0.04975477606058121,0.23002342879772186,-0.8571069240570068,0.1686188131570816,1.1803818941116333,0.11715172231197357,-0.08277284353971481,0.0900205597281456,-0.8341873288154602,-0.12117660045623779,-0.24911411106586456,-0.042471934109926224,-0.3314512073993683,-0.32384300231933594,0.8304556608200073,0.1167973130941391,-0.40520191192626953,-0.1325536072254181,0.795049250125885,0.213034525513649,-0.9657151103019714,-0.4125247001647949,0.7950082421302795,1.8002220392227173,-0.10269279032945633,-0.5086777806282043,1.6443588733673096,-0.8734439611434937,0.8729137778282166,0.4518168568611145,-1.4463648796081543,0.1521589457988739,0.8776978254318237,0.11981098353862762,-0.2620992064476013,-0.19441963732242584,0.35430559515953064,-0.8389326333999634,0.4622367024421692,-0.0834256112575531,-0.6699365973472595,-0.556344747543335,0.46749529242515564,0.7082634568214417,-0.6754793524742126,0.5246777534484863,-0.48131436109542847,-0.16317275166511536,0.5662001967430115,-0.14865359663963318,-0.6836434602737427,-0.7648553252220154,0.6728566288948059,0.23873208463191986,-0.41616055369377136,-0.16987045109272003,0.5891691446304321,-0.5625783205032349,0.24814879894256592,-0.6525596976280212,-0.6141170859336853,-0.7276212573051453,0.1795802265405655,1.7121206521987915,-0.21875478327274323,-0.22997359931468964,0.4920733869075775,0.3749701678752899,0.5267006754875183,0.46819549798965454,-1.6913139820098877,-0.04618191719055176,-0.9326143860816956,0.21277610957622528,-0.19747841358184814,0.013010714203119278,0.6288267374038696,-1.902690052986145,0.9105731248855591,-0.35265928506851196,-1.0607831478118896,-0.10442017018795013,0.399072527885437,1.1012846231460571,-0.7255241274833679,-0.3048765957355499,-0.012798052281141281,0.058228667825460434,0.4956510066986084,0.0779753178358078,-0.8652106523513794,-0.4930233955383301,-0.5625128149986267,-0.30760976672172546,0.017872069031000137,-0.3007931411266327,0.541800856590271,-0.30418694019317627,0.4495357275009155,-0.3988580107688904,-0.46090683341026306,-0.13850799202919006,0.508381187915802,0.5798813700675964,-0.6485971212387085,-0.3287186026573181,0.5295934081077576,-0.3890492618083954,0.4556971788406372,-0.416501522064209,-0.7200666666030884,-0.34463733434677124,0.46249327063560486,0.16059038043022156,-0.16239330172538757,-0.392280250787735,0.5232545733451843,-0.4736267626285553,-0.7764480710029602,-1.2936002016067505,-0.09322041273117065,0.15571410953998566,-0.24244490265846252,-0.004142483696341515,0.9100805521011353,-0.2643014192581177,-0.13239619135856628,-0.9589461088180542,-0.6636354923248291,-0.7955654859542847,-0.042934682220220566,-0.06268162280321121,-0.45026493072509766,-0.061279408633708954,0.4429488182067871,-0.44010868668556213,-0.43816065788269043,1.65185546875,-0.009155936539173126,0.0783969908952713,0.31469184160232544,0.09197723120450974,-0.5286470651626587,-0.17472143471240997,0.47576162219047546,0.30429792404174805,-0.0359126478433609,0.3429516553878784,-0.440427303314209,1.0826380252838135,0.46564462780952454,0.6045448184013367,-0.15318197011947632,0.03919268399477005,0.11245057731866837,0.6755618453025818,-0.6056369543075562,0.11009790748357773,0.01858597807586193,-0.2584379017353058,0.03383121266961098,0.5646103024482727,0.041332367807626724,-0.17678610980510712,0.10726702213287354,0.5947088599205017,0.28066062927246094,-0.028002727776765823,-0.13037973642349243,0.15533725917339325,0.397361695766449,0.16090701520442963,-0.2186421900987625,0.13728809356689453,-0.08896151930093765,0.09383378177881241,-0.1817600131034851,-0.4570314884185791,0.5395718216896057,-0.3066255748271942,-0.5548959374427795,-0.13843168318271637,0.549394965171814,0.7165175676345825,-0.6305044889450073,-0.37409618496894836,0.37721121311187744,-0.3031471073627472,0.4677203595638275,-0.36130863428115845,-0.9899808168411255,-0.523947536945343,0.5623518824577332,0.11108935624361038,-0.029113052412867546,-0.39497777819633484,0.5865188241004944,-0.15885362029075623,0.18586869537830353,0.02258138358592987,-0.5521681308746338,-0.527786374092102,0.610920250415802,0.27011212706565857,-0.8407530188560486,0.7243900895118713,-1.3763819932937622,0.0411379337310791,0.7702308893203735,-0.12129032611846924,-0.31731992959976196,-0.2558428943157196,0.4644525647163391,0.11951054632663727,-0.5396931171417236,-0.14867185056209564,0.8061069250106812]},"outputBias":{"rows":20,"columns":1,"weights":[0.380901038646698,0.4346834719181061,0.4182797968387604,0.6628943681716919,-0.6375157833099365,-0.1784178465604782,0.17668700218200684,-0.23056752979755402,0.6484787464141846,0.5853738784790039,0.36393341422080994,-0.20943409204483032,0.4337751865386963,0.6192821264266968,0.37349236011505127,0.20113985240459442,-0.509351372718811,-0.6226786375045776,0.4589824080467224,-0.18095840513706207]},"cellActivationMatrix":{"rows":20,"columns":31,"weights":[-0.6336746215820312,0.5387808680534363,0.6846945881843567,1.0451853275299072,0.44775843620300293,-0.842911422252655,-0.2189052253961563,0.14080782234668732,-0.6248552799224854,1.1495426893234253,0.8984796404838562,-0.34164103865623474,0.382785439491272,0.6007133722305298,0.417267769575119,0.12664656341075897,0.4886339604854584,0.3688049018383026,-0.5297016501426697,-0.35852086544036865,-1.116178274154663,0.8498512506484985,1.3856185674667358,0.1801747828722,-0.09248030930757523,-0.0071318610571324825,-0.06343517452478409,-0.3380904793739319,1.2627729177474976,-1.080012321472168,-0.2808733582496643,-0.3598937392234802,0.8442902565002441,-0.57359379529953,0.6877451539039612,0.5376074314117432,-0.34401917457580566,-1.1278475522994995,0.35711443424224854,-0.6221144795417786,0.9467227458953857,1.1721712350845337,-1.2479567527770996,0.615196943283081,-0.4461570382118225,0.24947643280029297,0.16911664605140686,-1.7865644693374634,1.05049729347229,-0.13000372052192688,0.1391654908657074,-1.30269455909729,-0.054951414465904236,-0.5400095582008362,-0.2771458029747009,0.6824943423271179,-0.6813759803771973,-0.46223902702331543,-0.5368255376815796,-0.5854734182357788,-0.7855483889579773,-0.33924204111099243,-0.020655611529946327,-0.3908139765262604,0.9228435754776001,0.5703945159912109,-0.3841848075389862,0.3163593113422394,0.517008900642395,0.2902972996234894,-0.12460850179195404,0.3865032196044922,0.3142363429069519,0.17352236807346344,-0.14111648499965668,0.10124904662370682,-0.009543735533952713,-0.3863769471645355,1.1243358850479126,-0.28336939215660095,-0.2925412058830261,-0.19573606550693512,0.13125485181808472,0.4820282757282257,0.8734917640686035,0.8176858425140381,-0.29476800560951233,0.44277623295783997,-0.18115125596523285,0.5066351294517517,1.5093703269958496,-0.9041509628295898,-0.6823779344558716,0.40719810128211975,-0.39432501792907715,-0.4959670603275299,-0.4115687906742096,0.4579480290412903,-0.1992989182472229,0.7014071345329285,0.5836498141288757,-1.115679383277893,-0.22183284163475037,-0.29309049248695374,0.45687705278396606,0.4347173571586609,0.5380314588546753,0.33496031165122986,0.44486767053604126,0.3395685851573944,-0.5223073959350586,-0.41855281591415405,-0.07786904275417328,0.2567329406738281,0.3702983856201172,-0.3026077449321747,-0.373024046421051,0.3727075457572937,-0.5229424238204956,0.6077849268913269,-0.4266732931137085,-0.354012668132782,0.18167376518249512,0.16760578751564026,0.15063618123531342,-0.16012278199195862,-0.09908023476600647,-0.5248260498046875,-0.12254885584115982,0.08135881274938583,0.6480002999305725,-0.504348874092102,-0.25932440161705017,-0.3753724694252014,-0.7290256023406982,0.47997450828552246,-0.08649951964616776,0.06050660088658333,-0.2179180085659027,0.06075873598456383,0.7542829513549805,-0.6131274700164795,0.024215368553996086,0.10094879567623138,-0.11251192539930344,-0.07789283990859985,-0.07931897789239883,0.2350928783416748,-0.02440919168293476,-0.003493016818538308,-0.014944671653211117,-0.018322031944990158,-0.049027036875486374,0.5825135707855225,0.40656375885009766,-1.0843502283096313,0.8242164850234985,0.2460484504699707,0.9024370908737183,-0.1636514514684677,0.28704774379730225,-0.9828560948371887,0.8289139866828918,-0.009252430871129036,1.153611183166504,1.3129860162734985,-0.9200314879417419,-0.2946683466434479,-0.17937655746936798,-0.10873617231845856,-0.3432582914829254,-1.397412896156311,0.9603174328804016,0.14734330773353577,0.025392571464180946,-0.6989157795906067,-0.15173982083797455,0.22490862011909485,0.13135454058647156,-0.3724058270454407,0.29583612084388733,-0.3787904381752014,0.17632491886615753,0.2675795555114746,-1.2484639883041382,-1.2107621431350708,0.030783241614699364,0.24671190977096558,0.0020957940723747015,0.701630711555481,-0.9056329727172852,0.5828635096549988,-0.6251102685928345,0.07498540729284286,-0.009465999901294708,-0.09692249447107315,0.027038993313908577,-0.25685057044029236,-0.39381903409957886,0.019594408571720123,-0.43974700570106506,-0.8507935404777527,0.20512531697750092,0.30973032116889954,-0.10640548169612885,0.07884987443685532,-0.12205130606889725,-0.1021421030163765,0.07273361831903458,-0.26210716366767883,-1.3453441858291626,-0.24141155183315277,-0.5887786746025085,0.6535148620605469,0.5834948420524597,-0.30370596051216125,-0.6826715469360352,0.8572878241539001,-0.7006208896636963,-0.28662630915641785,-0.9226636290550232,0.03214019909501076,-0.2104869931936264,0.8166982531547546,-0.9380902647972107,0.9621087908744812,-0.44582048058509827,-0.6504613757133484,0.6529497504234314,0.06316007673740387,0.22631120681762695,0.04216219112277031,0.2671796679496765,0.7539402842521667,-0.8097821474075317,-0.20355068147182465,-0.25902339816093445,-0.04908759146928787,0.2928175926208496,-0.2511247992515564,-0.17408357560634613,0.2754965126514435,-0.22500218451023102,0.8801288604736328,-0.17167717218399048,-0.417035311460495,0.5771681070327759,0.6171443462371826,-0.20137858390808105,-0.4031365215778351,-0.6587297320365906,-0.3268379867076874,-0.5636462569236755,-0.23164242506027222,0.44782522320747375,-0.39069512486457825,0.4333144724369049,-0.6900870203971863,0.1033557578921318,0.3651870787143707,0.07527004927396774,-0.17100761830806732,0.06988444179296494,0.18759363889694214,1.079478144645691,-0.7233972549438477,-0.6496548056602478,-0.11347348242998123,0.597478985786438,0.24001754820346832,-0.024999763816595078,-0.08936575055122375,0.399629145860672,-0.22411584854125977,0.006834471598267555,-0.17973542213439941,0.010160056874155998,0.38179975748062134,-0.5658886432647705,-0.7392105460166931,0.8380353450775146,0.12143407762050629,1.2649198770523071,0.0761495903134346,0.058373428881168365,-0.9929870367050171,0.7679456472396851,-0.7244222164154053,1.009648084640503,0.7719851136207581,-1.131500482559204,0.13300929963588715,0.06393029540777206,0.20992352068424225,-0.013009404763579369,-1.1055740118026733,1.1398564577102661,0.06985010206699371,-0.18786519765853882,-0.6362760663032532,0.08287868648767471,0.05083183944225311,0.1108848974108696,-0.2804758548736572,0.17034709453582764,-0.8047646880149841,0.08604535460472107,0.19800612330436707,-1.247949481010437,-0.7517460584640503,-0.3877657949924469,0.7501639127731323,0.8868185877799988,0.49428147077560425,-0.22849366068840027,-0.1781846582889557,-0.5967375636100769,0.6929076910018921,-0.826795756816864,0.5341160893440247,0.2805524170398712,-0.8329001665115356,-0.15930750966072083,0.04027118161320686,-0.15309906005859375,0.3575044870376587,0.3228522837162018,0.43458291888237,-0.11072173714637756,0.2867574393749237,-0.40499019622802734,0.13892638683319092,0.5947566032409668,0.6487558484077454,-0.5574616193771362,0.280648410320282,-0.45723119378089905,0.050738222897052765,0.5909398198127747,-0.43309998512268066,-0.07260739803314209,-0.9426679015159607,0.9617247581481934,0.1151900365948677,0.9459294676780701,-0.057513345032930374,0.10852613300085068,-1.0229589939117432,0.8912699818611145,-0.1140216737985611,1.0185328722000122,0.9541192054748535,-1.0294077396392822,-0.06530975550413132,-0.1284797191619873,-0.060604799538850784,-0.2688133418560028,-0.9760398268699646,0.9885061979293823,0.18262536823749542,0.03403572365641594,-0.6482172608375549,-0.10044903308153152,0.22329169511795044,0.14086323976516724,-0.20284831523895264,0.25138533115386963,-0.814673125743866,0.13287828862667084,0.2128693163394928,-1.0023025274276733,-0.9294841885566711,0.2373584657907486,-0.3889752924442291,0.044123824685811996,0.540322482585907,-0.10133986175060272,0.437054306268692,0.17926952242851257,0.2427370697259903,-0.0692472755908966,0.35567912459373474,-0.13144969940185547,0.1185784637928009,-0.08315248787403107,0.6215022802352905,0.05039098858833313,-0.17064015567302704,1.0036451816558838,-0.3486400246620178,-1.0932137966156006,-0.9256123304367065,-0.3570441007614136,1.053251028060913,0.09482474625110626,0.36207863688468933,-0.24648012220859528,-0.015773268416523933,-0.03867477551102638,0.49270591139793396,0.7153698801994324,-0.5406454801559448,-0.4641994535923004,0.5511975288391113,-0.05659915879368782,-0.16349732875823975,-0.11097659170627594,1.2328381538391113,-0.1662990152835846,0.3929157257080078,0.5897046327590942,-0.894652247428894,0.3217907249927521,-0.10101642459630966,0.0012445554602891207,0.4181366562843323,1.1730533838272095,0.7536056041717529,0.6557456254959106,0.30036503076553345,0.07373097538948059,-0.5202528238296509,-0.7122016549110413,-0.1798957884311676,0.9661948680877686,-0.286660373210907,-0.3554061949253082,0.7475336790084839,-0.83747798204422,0.5040323138237,-0.45374783873558044,-0.26472190022468567,-0.0009556019213050604,0.6766558885574341,0.4425813853740692,0.13062608242034912,-0.7061246037483215,0.4398452937602997,0.010135151445865631,-1.1373320817947388,0.03885409235954285,-0.22009044885635376,-0.12726254761219025,-0.2966326177120209,0.10675539821386337,0.09562166780233383,0.09683839231729507,0.7472575306892395,0.6475551724433899,0.8340960741043091,0.343356728553772,-0.23589131236076355,-1.4237174987792969,-0.8125182390213013,0.1622139811515808,1.1822949647903442,-0.5255088210105896,-0.0953536182641983,0.2535920739173889,-0.8443530201911926,-0.1110692247748375,-0.8117004632949829,-0.3765754997730255,0.1672576367855072,-0.3598341643810272,-0.08719393610954285,-0.0007397924782708287,1.561902403831482,0.49949607253074646,-0.28292420506477356,0.9317561984062195,-0.14454026520252228,0.07317568361759186,0.17440466582775116,0.34315744042396545,0.05794915929436684,-0.22125250101089478,0.1169462502002716,-0.7574386596679688,-0.5093193650245667,-1.162036418914795,-0.14567440748214722,0.2903459966182709,0.8414298892021179,0.6325870752334595,-0.22593633830547333,-0.6701469421386719,1.0779637098312378,0.8364706039428711,-0.7744424343109131,0.8603917956352234,-0.12592710554599762,0.7809852957725525,1.0922436714172363,-0.5038204193115234,-0.0680723488330841,-0.9706127643585205,0.13588112592697144,0.1679592728614807,0.7808694839477539,0.12119758874177933,0.05986159294843674,-0.7177039384841919,0.61512690782547,-0.6624208092689514,0.350267618894577,0.5857603549957275,-0.2272118330001831,0.028252974152565002,0.0283326618373394,0.004587054252624512,0.03581266105175018,-0.06782443076372147,0.6702764630317688,0.045373011380434036,-0.10740223526954651,-0.16414004564285278,0.023357652127742767,0.03099546954035759,0.009142682887613773,-0.15466201305389404,0.056116487830877304,-0.7594574689865112,0.16802217066287994,0.09951340407133102,-0.9048717617988586,-0.8136565685272217,0.48570191860198975,-0.616993248462677,-0.004993859678506851,-0.6575287580490112,-0.22873614728450775,-0.02935146540403366,0.6271033883094788,-0.5199927091598511,-0.11849887669086456,-0.8799883127212524,-0.8263254165649414,0.8519075512886047,-0.16990399360656738,-0.18450407683849335,-0.22584663331508636,0.018240222707390785,0.711743950843811,-0.6190645098686218,0.04696990177035332,0.19572144746780396,0.33225351572036743,-0.07165200263261795,-0.03204657882452011,0.2796195447444916,-0.09067830443382263,0.04442855715751648,-0.024698348715901375,-0.027874581515789032,0.020808203145861626,0.7881974577903748,0.38690078258514404,-0.8356955647468567,-0.6934816241264343,0.4451289176940918,0.042083729058504105,0.1829642951488495,-0.18855391442775726,0.41491973400115967,-0.8803626894950867,1.3838434219360352,0.47361066937446594,0.8883743286132812,0.2703160047531128,0.21417243778705597,0.21703915297985077,1.1380068063735962,-0.1946912407875061,0.7541754841804504,-0.9297568798065186,-1.363904356956482,-1.1953905820846558,-0.24107347428798676,1.1995368003845215,0.12307735532522202,0.3974314033985138,0.020730677992105484,0.06108817830681801,0.4964996576309204,-0.2120809555053711,0.33191707730293274,-0.4589281976222992,-0.06538985669612885,-1.0836740732192993,0.6462501883506775,0.2141987383365631,0.7960927486419678,-0.0990385115146637,0.2730979025363922,-0.8178740739822388,0.9134932160377502,-0.2379952222108841,1.2681514024734497,1.079271912574768,-0.8760569095611572,-0.07222916185855865,-0.029238516464829445,-0.10105455666780472,-0.23943914473056793,-1.1158944368362427,0.7741490006446838,0.14708280563354492,0.055641017854213715,-0.5690419673919678,-0.13987667858600616,0.2610541880130768,0.0702756866812706,-0.19320960342884064,0.1329115629196167,-0.7908991575241089,0.2170391082763672,0.22703513503074646,-0.9138424396514893,-0.8188451528549194]},"cellActivationHidden":{"rows":20,"columns":20,"weights":[-1.3237119913101196,-0.05206109583377838,-1.0763810873031616,-0.4564213752746582,-0.38736653327941895,0.002154346788302064,0.09964638203382492,0.695387601852417,-0.38317447900772095,-0.08859094232320786,-1.586120843887329,-0.08590000867843628,-1.1566675901412964,-0.3521922528743744,-0.7793996334075928,-0.5384942293167114,-0.583704948425293,0.27964484691619873,-0.572446346282959,-0.20198722183704376,1.4942035675048828,-0.2934364676475525,-0.26329219341278076,0.08680588006973267,0.16471977531909943,0.1691974252462387,-0.07758103311061859,0.1326688826084137,0.3355434238910675,-0.23315057158470154,0.2867439389228821,-0.08589135110378265,1.1960934400558472,0.18639881908893585,0.29296398162841797,0.13837884366512299,0.17599859833717346,-0.27256128191947937,0.4517362117767334,-0.14188915491104126,-0.04074778035283089,0.9444094300270081,-0.7505362033843994,-1.1386585235595703,-0.7912108302116394,0.3539063036441803,1.3946928977966309,-0.6348998546600342,-1.697059154510498,0.13774119317531586,-0.7178336977958679,0.39792418479919434,-0.9553221464157104,-1.2692935466766357,-0.9216217994689941,0.9861631989479065,-0.27908357977867126,-0.15752701461315155,-0.884576678276062,0.40579208731651306,-1.150536060333252,0.9301525354385376,-1.0980843305587769,-0.7740161418914795,-0.326496958732605,0.7690665125846863,0.747005820274353,-0.7216753363609314,-0.8250017166137695,0.891722559928894,-1.1024574041366577,0.8884152770042419,-1.1064196825027466,-0.7342979311943054,-0.654822051525116,0.8735541105270386,0.02156679704785347,-0.5789657235145569,-0.7941514253616333,0.8602594137191772,-1.1308265924453735,1.2418256998062134,-1.416987657546997,-1.2219138145446777,-0.5973264575004578,0.6206994652748108,1.3010900020599365,-0.8170758485794067,-1.2013812065124512,0.9609174132347107,-1.2076431512832642,0.8661841154098511,-1.5175034999847412,-1.2453527450561523,-1.0359630584716797,1.2004401683807373,0.1444779485464096,-0.7832908630371094,-1.1038813591003418,0.9405919313430786,0.42761531472206116,-0.774594247341156,0.9027569890022278,0.4671113193035126,-0.12445434927940369,0.285091757774353,-0.48750007152557373,-0.48308882117271423,0.7130292057991028,-0.04001714289188385,0.7243169546127319,0.7334200739860535,0.779288113117218,0.5393985509872437,0.5731417536735535,-0.7645315527915955,0.31891846656799316,-0.31056341528892517,0.7502055168151855,0.14260193705558777,1.120609998703003,-0.22880549728870392,1.5436537265777588,0.6640046834945679,0.23275533318519592,-0.9018726944923401,-0.9049057960510254,0.1595701426267624,0.9069049954414368,-0.21342945098876953,1.0526068210601807,-0.47830238938331604,2.067741870880127,0.99651700258255,1.2727669477462769,-0.96058189868927,-0.17374081909656525,0.6092056632041931,1.210923433303833,-0.6392298340797424,0.27309730648994446,-1.1164144277572632,-1.216689109802246,0.4969378411769867,0.263925701379776,-1.5600959062576294,-0.28761953115463257,1.113950490951538,-0.6436513662338257,-0.6163448691368103,-0.7942544221878052,-1.2553433179855347,-0.5355826616287231,0.7721814513206482,0.030521053820848465,-0.027762018144130707,-0.06661202013492584,0.38576096296310425,0.5182446241378784,-2.256077289581299,-0.03117838315665722,1.3047763109207153,-0.6892316341400146,-1.5491873025894165,-1.0527530908584595,0.5878781676292419,1.0372121334075928,-0.562534511089325,-2.203087568283081,-0.13027353584766388,-0.596649706363678,0.421330064535141,-0.5685189962387085,-1.022882342338562,-1.041472315788269,0.9402359127998352,-0.48417338728904724,-0.39757636189460754,-1.2580851316452026,0.235783651471138,0.19996918737888336,0.18957853317260742,-0.11005789041519165,-0.17010924220085144,-0.5503036379814148,0.4663234353065491,0.22048766911029816,-0.40262436866760254,0.5574201941490173,0.23761364817619324,-0.6190383434295654,0.5510463714599609,